//Numpy array shape [128]
//Min -0.176736146212
//Max 0.159984186292
//Number of zeros 0

#ifndef B6_H_
#define B6_H_

#ifndef __SYNTHESIS__
ln2_bias_t b6[128];
#else
ln2_bias_t b6[128] = {-0.053330, 0.079246, 0.088915, 0.029319, 0.012805, 0.017246, 0.030288, 0.024540, 0.018048, -0.139360, 0.069220, 0.003685, 0.006513, 0.144458, 0.101525, -0.033630, 0.018937, 0.050002, -0.010025, -0.099942, 0.104571, 0.058098, -0.007321, 0.093360, -0.053900, 0.079146, 0.087178, -0.063877, 0.046309, 0.001276, 0.019551, 0.045472, 0.050834, 0.083977, -0.061679, 0.045156, 0.079538, -0.176736, -0.004271, -0.114673, 0.039337, 0.017040, 0.020049, 0.024332, 0.058328, 0.009527, 0.022260, 0.045094, 0.002994, -0.082178, -0.013044, 0.045955, 0.108713, 0.028716, 0.046781, 0.007129, 0.142201, 0.023114, 0.068920, 0.007750, 0.019346, 0.064931, -0.057005, 0.032016, 0.020293, 0.159984, -0.011612, 0.033684, -0.028223, 0.070752, 0.016401, -0.040324, 0.100783, 0.032939, 0.095454, 0.007048, 0.133182, 0.089919, 0.012539, 0.015010, 0.011303, 0.067851, -0.001237, 0.008971, 0.007768, 0.077779, 0.026560, 0.009283, 0.010955, 0.016589, 0.050186, 0.044546, 0.009595, 0.108233, 0.024232, 0.094641, -0.007890, -0.092978, -0.065731, 0.039438, 0.025010, -0.067241, 0.026181, -0.032958, 0.045802, 0.100809, 0.051172, 0.001543, 0.028983, 0.019651, 0.048457, -0.001457, -0.016093, 0.107287, 0.019800, 0.022087, 0.038210, -0.025041, -0.079450, 0.031217, -0.083738, 0.013863, 0.036318, -0.165462, -0.030482, -0.007112, 0.028472, -0.007005};

#endif

#endif
