//Numpy array shape [128]
//Min -0.176736146212
//Max 0.159984186292
//Number of zeros 0

#ifndef B6_H_
#define B6_H_

#ifndef __SYNTHESIS__
ln2_bias_t b6[128];
#else
ln2_bias_t b6[128] = {-0.0533302389085293, 0.0792460665106773, 0.0889150276780128, 0.0293192584067583, 0.0128051126375794, 0.0172456335276365, 0.0302875060588121, 0.0245398879051208, 0.0180481653660536, -0.1393603831529617, 0.0692204087972641, 0.0036850383039564, 0.0065128877758980, 0.1444584429264069, 0.1015245094895363, -0.0336300209164619, 0.0189366266131401, 0.0500019416213036, -0.0100249098613858, -0.0999415367841721, 0.1045708283782005, 0.0580977462232113, -0.0073206354863942, 0.0933598130941391, -0.0538999438285828, 0.0791456848382950, 0.0871775373816490, -0.0638765320181847, 0.0463093817234039, 0.0012763617560267, 0.0195513870567083, 0.0454720631241798, 0.0508340187370777, 0.0839765220880508, -0.0616790652275085, 0.0451557822525501, 0.0795378684997559, -0.1767361462116241, -0.0042706597596407, -0.1146725565195084, 0.0393368229269981, 0.0170403346419334, 0.0200487077236176, 0.0243321117013693, 0.0583278723061085, 0.0095270639285445, 0.0222603958100080, 0.0450936593115330, 0.0029938309453428, -0.0821784958243370, -0.0130442548543215, 0.0459549985826015, 0.1087128445506096, 0.0287164468318224, 0.0467807054519653, 0.0071294526569545, 0.1422011107206345, 0.0231137797236443, 0.0689197629690170, 0.0077501265332103, 0.0193464960902929, 0.0649312958121300, -0.0570054724812508, 0.0320164300501347, 0.0202925913035870, 0.1599841862916946, -0.0116115445271134, 0.0336840488016605, -0.0282232984900475, 0.0707517713308334, 0.0164007339626551, -0.0403240099549294, 0.1007828041911125, 0.0329392887651920, 0.0954542160034180, 0.0070484140887856, 0.1331816613674164, 0.0899194329977036, 0.0125392619520426, 0.0150097887963057, 0.0113025493919849, 0.0678513720631599, -0.0012368563329801, 0.0089707132428885, 0.0077677150256932, 0.0777792558073997, 0.0265602227300406, 0.0092827230691910, 0.0109554799273610, 0.0165888871997595, 0.0501859262585640, 0.0445458479225636, 0.0095946965739131, 0.1082325279712677, 0.0242322329431772, 0.0946410074830055, -0.0078904181718826, -0.0929782912135124, -0.0657308995723724, 0.0394380800426006, 0.0250097066164017, -0.0672406777739525, 0.0261808298528194, -0.0329575538635254, 0.0458021052181721, 0.1008089110255241, 0.0511718653142452, 0.0015426086029038, 0.0289825107902288, 0.0196505244821310, 0.0484571605920792, -0.0014571241335943, -0.0160933211445808, 0.1072871163487434, 0.0198001470416784, 0.0220873113721609, 0.0382101610302925, -0.0250410493463278, -0.0794499889016151, 0.0312170535326004, -0.0837379172444344, 0.0138627169653773, 0.0363184139132500, -0.1654619425535202, -0.0304821822792292, -0.0071118767373264, 0.0284716654568911, -0.0070048091001809};

#endif

#endif
