//Numpy array shape [128, 128]
//Min -0.263556122780
//Max 0.286506682634
//Number of zeros 0

#ifndef W5_H_
#define W5_H_

#ifndef __SYNTHESIS__
fc2_weight_t w5[16384];
#else
fc2_weight_t w5[16384] = {0.002326, -0.006553, -0.007764, -0.084474, -0.000124, -0.040244, 0.042266, -0.032594, 0.041004, 0.068300, -0.028036, 0.056660, 0.002308, 0.055826, 0.012710, 0.061503, 0.011450, 0.062165, 0.067788, -0.014305, -0.077669, -0.024632, 0.033228, -0.034562, -0.052539, 0.065667, -0.060683, -0.065716, -0.049711, 0.016854, -0.044220, 0.045541, 0.018874, -0.088854, -0.003476, -0.006390, 0.040598, 0.037167, -0.072131, -0.102849, -0.080306, -0.066513, 0.065213, 0.044412, -0.136461, -0.121982, 0.050873, -0.081405, -0.027853, 0.099353, -0.034588, 0.063664, 0.057852, -0.091550, 0.007447, -0.055549, -0.095709, 0.005248, -0.054784, 0.004465, -0.136755, 0.008338, 0.039349, -0.034145, -0.023710, 0.022870, 0.019013, -0.060408, 0.062647, 0.018178, -0.137690, 0.062866, 0.040912, 0.079701, -0.009839, 0.056222, 0.021504, -0.116180, -0.077828, -0.060053, 0.017389, 0.034609, 0.003532, 0.162107, -0.060823, -0.025523, 0.107843, -0.113620, -0.052660, -0.017265, -0.076054, -0.083457, -0.017439, 0.010139, 0.074363, 0.005938, -0.014969, -0.063310, -0.016545, -0.016396, -0.144545, -0.101527, 0.072343, -0.047466, 0.041218, -0.042498, 0.001117, -0.017344, 0.073052, 0.012200, -0.017789, 0.006473, -0.136143, 0.095557, -0.086441, -0.083476, 0.046040, -0.078266, 0.044731, -0.099654, 0.077687, -0.040192, 0.083882, 0.055147, 0.029838, 0.016455, -0.000505, 0.033162, -0.005385, -0.065478, 0.006678, 0.058312, -0.032625, -0.021705, 0.109747, 0.082885, 0.031655, 0.159205, 0.057772, -0.030224, 0.201563, -0.049452, -0.007209, -0.042809, -0.117621, -0.044703, -0.007340, 0.002694, -0.013266, 0.045053, -0.028517, -0.009707, -0.037278, 0.011746, -0.084693, 0.018337, -0.045569, 0.055077, -0.075841, 0.124140, -0.059297, -0.088500, -0.116513, -0.008988, 0.078222, -0.039044, 0.061328, -0.037306, -0.080797, -0.032917, 0.002990, -0.029169, -0.135607, -0.174431, 0.060214, -0.106272, 0.050917, 0.018527, -0.014201, 0.069365, 0.053598, 0.010685, -0.076628, -0.097208, 0.003461, 0.028200, -0.071074, 0.098198, -0.052325, -0.089457, -0.034889, -0.065543, -0.094830, 0.055252, -0.029016, 0.017183, 0.047071, 0.002149, -0.022825, -0.013396, 0.050302, -0.031340, 0.005126, 0.041904, -0.027345, -0.069462, 0.021566, 0.017134, -0.078984, -0.094234, -0.036445, 0.159012, 0.041746, -0.107906, -0.034043, 0.012931, -0.096859, 0.033508, -0.066471, 0.194628, -0.113232, -0.018138, 0.161502, 0.043170, -0.035498, -0.088662, 0.071576, -0.097762, 0.065405, -0.058747, 0.004770, -0.077842, 0.081435, -0.044864, 0.061131, 0.031736, 0.028180, -0.013573, 0.018381, 0.048812, -0.062529, 0.033639, -0.019277, -0.133033, -0.017579, -0.071687, -0.047413, 0.014385, 0.050850, -0.055304, 0.028437, 0.035430, 0.059174, 0.041667, -0.095160, -0.010394, 0.022722, -0.012263, 0.043906, -0.037019, 0.088943, 0.048972, -0.073171, -0.113266, 0.037264, 0.006046, -0.032859, 0.025141, 0.011715, -0.002281, -0.030076, -0.137064, 0.086296, 0.125850, 0.121323, -0.123236, 0.003983, -0.004979, 0.125899, -0.056710, 0.007877, -0.107983, -0.066234, 0.032116, 0.008460, 0.002871, -0.010117, 0.012463, 0.076756, 0.032258, 0.128791, 0.030768, -0.002676, 0.098908, 0.070367, -0.021379, -0.056868, -0.015927, 0.135034, 0.068782, -0.102745, 0.013571, 0.062495, 0.001822, 0.053923, 0.084333, 0.032197, -0.040446, 0.044694, -0.064092, 0.116201, 0.017075, -0.037186, 0.057291, -0.056030, 0.004827, 0.032661, 0.112058, 0.011529, 0.029096, -0.053997, 0.024218, 0.030247, -0.031827, 0.077892, 0.002424, 0.042620, -0.066401, -0.041649, 0.042675, 0.059217, -0.113010, -0.022921, 0.058006, 0.040406, 0.122601, -0.028342, 0.072669, 0.021193, 0.004898, 0.031691, 0.123974, -0.043877, 0.093747, -0.020559, -0.002118, 0.001117, -0.013243, 0.140839, 0.022391, -0.030726, 0.026769, 0.065845, -0.059153, 0.036633, -0.019990, 0.014227, 0.020682, -0.069409, 0.097058, -0.012564, 0.045509, 0.052041, 0.072587, 0.042104, 0.011342, -0.052689, -0.078186, 0.053907, -0.011644, 0.067282, -0.060374, -0.099164, 0.006224, -0.009925, 0.029882, -0.010180, 0.002707, -0.014074, -0.007758, -0.005234, -0.035932, -0.028260, 0.038022, -0.011137, 0.021867, 0.026880, -0.009083, 0.029662, -0.022157, 0.071964, -0.118822, 0.013850, -0.028516, -0.059963, -0.039373, 0.065820, -0.028509, 0.048926, 0.025907, -0.134111, 0.142949, -0.012328, -0.028190, -0.154198, -0.026207, 0.020438, -0.086686, -0.017113, 0.006139, 0.048584, -0.044014, 0.030772, -0.054308, 0.091583, -0.025410, -0.048876, 0.029844, 0.083955, -0.109937, 0.117448, -0.122386, 0.032044, 0.098234, 0.188938, 0.004325, -0.093176, -0.022964, 0.036207, -0.010870, -0.060141, -0.001222, -0.045934, -0.011252, -0.131617, 0.009982, 0.006332, -0.031151, 0.004430, -0.040949, 0.022982, 0.016610, -0.130904, 0.126469, 0.003287, -0.032350, -0.034250, -0.014063, -0.052245, -0.017580, 0.000527, 0.071398, 0.032737, 0.009733, 0.069874, -0.099706, -0.140252, -0.014456, -0.059132, 0.248575, 0.043684, -0.014454, -0.108042, 0.019785, -0.115386, -0.041738, -0.002713, -0.006267, 0.073276, 0.030239, 0.034993, 0.018276, 0.022312, -0.058796, -0.148827, -0.031301, 0.027827, -0.086673, -0.151685, -0.038404, -0.155041, 0.121740, 0.045019, 0.016232, 0.029982, 0.090098, -0.011281, -0.052202, 0.080731, 0.099205, 0.063434, 0.057772, -0.086570, -0.015867, -0.148603, 0.043067, 0.065859, -0.024387, 0.015284, 0.009280, -0.019466, 0.069449, 0.002899, 0.086054, -0.095179, 0.056574, -0.037303, -0.008440, 0.037021, 0.007801, 0.149559, 0.048339, 0.041742, 0.036532, -0.062656, 0.015714, 0.006596, -0.117730, -0.031422, -0.151520, -0.108494, 0.014311, -0.050127, -0.048514, 0.103129, -0.010978, -0.041648, 0.140758, -0.047968, 0.046469, -0.075992, -0.093201, -0.132305, -0.019612, 0.093839, 0.017892, 0.030481, 0.000165, 0.032755, -0.038949, 0.023862, -0.092793, 0.111535, -0.016851, -0.051675, 0.044290, -0.059632, -0.095092, -0.024797, -0.053926, 0.037718, 0.052557, 0.077667, 0.005395, 0.033683, -0.043832, 0.231889, -0.045653, -0.075767, -0.014532, 0.037257, -0.054633, 0.004786, 0.023502, -0.059934, 0.042920, 0.020074, -0.119525, -0.024060, -0.076994, -0.049995, 0.087260, -0.061010, 0.106520, -0.039041, -0.070865, 0.004359, -0.054544, 0.041105, 0.029126, -0.028947, 0.025724, 0.022922, -0.049574, -0.024702, -0.004431, -0.069701, 0.151360, 0.009468, -0.014225, -0.029439, 0.065390, 0.013230, -0.051390, -0.099422, 0.034804, 0.084387, 0.029606, -0.086537, -0.033484, -0.121026, 0.060416, -0.055862, 0.035169, 0.060977, -0.075107, -0.149296, -0.058799, -0.118412, -0.056697, 0.199818, -0.049727, -0.019153, -0.053735, 0.037109, -0.025832, -0.038356, -0.057755, 0.042172, -0.060821, 0.003505, -0.065695, -0.125680, 0.091133, 0.110319, -0.053253, 0.042348, -0.078816, -0.085706, 0.021374, 0.009557, 0.075548, -0.037664, -0.020277, -0.012807, -0.010929, 0.007351, 0.008229, 0.138979, -0.023248, 0.025404, -0.012173, -0.009310, 0.044582, 0.023030, 0.134567, -0.036580, 0.036976, -0.107672, -0.057918, -0.048029, -0.055282, 0.028803, -0.019636, 0.043273, 0.199454, 0.062666, 0.027574, 0.053185, -0.006661, -0.008928, -0.011169, -0.062563, -0.025041, 0.111725, 0.070693, -0.161708, -0.096489, -0.029718, 0.038340, 0.101859, -0.022238, -0.030688, -0.044610, -0.139790, -0.111791, -0.014667, -0.121391, -0.003545, 0.128438, 0.018218, 0.050291, 0.031085, 0.014055, 0.085036, 0.041368, 0.096050, -0.023640, 0.133503, -0.019366, 0.002420, 0.025462, -0.018190, -0.028469, -0.078802, -0.086665, 0.036872, 0.061367, 0.122940, -0.038302, -0.223200, 0.050839, -0.036218, 0.013554, -0.035214, 0.009322, 0.060662, -0.073311, 0.019122, 0.055318, -0.016768, -0.056396, 0.031211, 0.014706, 0.081938, 0.087458, -0.108927, -0.098227, -0.053353, 0.036717, 0.081943, -0.052786, -0.057925, 0.077382, 0.115227, -0.048794, 0.042419, 0.004851, 0.001202, 0.042148, 0.028237, -0.111729, 0.071649, -0.090928, 0.045211, 0.023291, 0.022241, -0.110079, 0.109837, -0.041190, 0.076403, 0.002647, 0.110200, 0.004807, -0.006439, -0.037830, -0.149116, -0.028107, -0.000682, 0.036387, 0.111422, -0.031049, -0.020527, 0.026445, 0.064529, -0.026800, 0.060987, -0.035995, -0.065332, -0.068876, 0.071057, -0.063931, 0.112335, 0.065315, -0.017929, -0.119162, 0.063428, -0.101448, 0.053678, -0.050015, 0.070136, 0.054436, 0.081560, -0.008854, 0.034306, 0.084668, 0.089344, -0.178267, -0.052216, 0.080729, 0.013798, 0.019542, 0.020691, -0.093323, -0.020615, 0.087214, 0.023683, 0.036773, -0.087548, -0.028520, 0.065285, 0.041775, -0.036279, -0.039438, 0.157887, -0.044299, 0.081471, -0.057783, -0.049008, 0.020928, 0.107532, 0.007305, 0.000742, -0.024492, -0.005273, 0.081109, 0.004423, -0.004113, 0.086992, -0.040175, 0.004509, -0.070651, -0.159124, 0.062849, -0.000730, -0.084392, 0.010761, 0.026575, 0.022080, 0.069245, 0.079497, 0.089866, -0.029384, -0.051666, -0.083155, 0.021947, 0.082160, -0.107301, -0.008410, -0.002392, 0.036911, 0.102904, 0.038478, 0.045792, 0.030474, 0.083066, -0.018375, 0.023166, 0.127625, 0.105017, 0.030270, 0.045982, 0.064140, -0.125899, 0.051145, 0.089210, 0.038602, -0.002139, 0.000306, 0.136021, 0.102703, -0.139329, -0.081171, 0.075551, -0.031321, -0.073956, -0.073806, -0.076813, 0.098978, -0.138458, -0.072641, -0.008539, -0.106745, 0.052851, 0.057615, 0.024072, -0.075848, -0.000468, 0.009524, 0.080909, 0.067770, 0.036483, -0.088039, -0.030586, -0.063042, 0.003111, -0.042359, -0.067825, 0.093887, 0.048962, 0.000697, -0.012940, 0.042492, 0.127710, 0.086320, -0.005872, 0.054300, -0.059882, 0.132879, 0.032896, -0.088399, 0.017380, -0.136720, -0.007675, 0.003636, 0.126312, -0.055657, 0.052586, -0.051100, 0.036817, 0.023711, 0.100331, 0.034491, -0.083683, 0.037314, 0.084228, 0.050416, -0.044885, -0.072541, -0.051733, 0.009085, 0.177550, 0.067452, 0.055138, 0.004169, -0.020547, 0.170315, 0.058837, -0.083201, -0.069758, 0.080321, -0.084391, -0.038345, 0.102653, -0.029881, -0.045500, -0.078048, -0.053447, -0.024345, -0.012713, -0.136506, 0.015173, 0.141486, -0.071809, -0.096380, 0.036064, -0.012738, 0.031356, -0.036642, 0.019670, 0.160548, -0.086162, 0.024124, 0.042816, -0.037107, 0.027969, 0.004290, 0.010890, 0.011366, -0.056255, 0.027604, -0.104999, -0.009652, 0.043767, -0.133459, 0.020864, -0.121258, 0.010233, 0.040540, -0.054006, 0.081641, 0.019093, -0.053500, -0.012807, 0.100185, 0.065370, -0.080351, 0.012872, 0.008080, -0.105275, -0.024599, 0.213235, -0.024542, -0.077793, -0.060387, -0.030743, -0.054838, 0.013393, -0.111502, 0.056840, 0.023650, 0.053031, -0.003076, 0.056019, 0.045602, 0.008701, -0.051930, 0.048363, -0.014224, -0.062615, 0.151187, 0.009458, 0.062480, -0.014837, 0.094315, -0.069529, 0.070191, 0.063867, 0.059602, 0.038826, 0.150321, 0.083406, 0.136817, 0.012581, 0.053679, 0.067115, 0.059318, 0.145322, 0.086131, 0.002397, 0.004956, -0.104974, 0.001578, -0.024417, -0.128156, -0.062515, 0.063909, -0.072990, 0.067623, 0.038230, 0.056837, 0.060788, 0.118049, -0.045409, -0.019548, -0.010257, 0.015961, 0.029922, 0.020258, 0.060676, -0.032550, -0.032391, -0.053310, 0.023913, -0.042363, 0.073888, 0.034286, 0.039728, -0.011062, 0.052500, -0.076443, -0.100169, 0.015710, -0.059393, -0.089147, -0.040431, 0.004712, -0.008038, -0.095368, 0.024991, -0.052481, -0.025687, 0.004218, -0.066600, -0.067676, -0.075391, -0.011542, -0.063831, 0.032773, -0.114364, 0.144573, 0.018767, -0.018643, 0.081301, 0.026601, -0.046247, -0.045183, 0.082492, 0.056681, -0.120478, -0.058441, -0.042317, 0.033611, -0.008228, 0.042201, 0.005960, 0.098954, 0.019653, -0.051372, -0.013621, 0.046801, -0.122245, -0.052277, -0.015542, -0.042364, 0.007666, -0.124387, 0.008858, 0.050891, 0.046308, -0.001723, -0.011352, 0.096288, 0.006181, -0.069983, -0.010546, 0.107866, -0.116252, -0.056513, -0.028387, -0.082701, -0.010122, 0.072241, 0.002538, 0.069491, -0.058270, 0.036121, 0.073940, 0.112527, 0.078779, 0.055461, 0.050674, 0.024528, 0.049411, -0.018065, -0.073061, -0.074253, -0.023254, -0.019014, 0.072441, -0.055672, -0.041450, 0.070865, -0.053668, -0.022098, -0.011402, 0.066095, 0.010161, -0.022189, -0.060823, 0.041309, -0.002938, -0.070593, -0.061301, -0.067726, -0.027512, 0.013900, -0.103169, 0.040943, -0.060150, 0.024319, -0.044446, -0.060319, -0.040194, -0.082339, -0.095575, 0.082136, 0.017308, -0.022353, 0.054690, 0.011522, 0.000546, -0.041011, 0.046600, -0.035642, 0.040468, -0.016336, -0.002916, -0.016639, 0.141493, 0.013204, 0.113078, 0.032170, 0.035557, 0.113790, 0.009166, -0.014346, 0.167058, -0.070443, 0.110020, 0.078389, 0.024120, -0.016335, -0.020093, -0.053424, 0.035851, 0.119885, -0.026068, -0.138600, 0.017923, 0.035475, 0.028321, 0.006155, 0.041743, -0.037437, -0.072021, -0.081347, 0.049890, 0.018662, -0.038012, 0.013615, 0.030114, 0.085238, -0.054307, -0.005860, -0.021011, 0.191349, 0.041309, 0.091399, 0.089115, 0.025841, 0.073386, 0.095158, 0.019262, 0.045495, 0.038601, -0.096117, -0.053483, 0.016313, -0.021674, -0.038778, 0.038729, -0.033941, -0.087959, -0.043826, 0.082957, 0.018844, 0.077672, 0.029653, -0.055915, -0.013490, 0.070860, 0.050316, 0.077330, 0.132449, 0.023952, 0.043307, 0.110464, -0.028981, -0.140403, -0.035196, 0.011732, 0.061081, -0.112327, 0.046963, 0.131494, 0.105941, 0.062495, -0.064767, -0.026864, -0.009500, -0.012420, -0.046537, -0.060826, 0.059071, -0.021542, 0.152278, -0.072173, -0.031337, -0.029679, 0.066270, -0.098329, 0.071054, -0.040285, -0.002420, 0.025915, -0.005771, 0.035007, -0.172918, -0.015656, 0.046411, 0.018373, 0.031700, -0.036775, -0.027329, -0.048179, 0.041315, -0.080342, -0.009049, 0.014931, -0.048780, -0.100585, 0.017006, -0.084230, 0.058616, 0.034826, -0.000950, 0.011213, 0.050375, -0.064080, 0.033649, 0.090820, 0.048796, -0.009812, -0.043843, -0.036318, 0.109583, 0.030488, 0.075812, 0.082273, 0.003950, -0.118414, 0.036108, 0.055222, 0.019579, 0.140736, -0.087020, -0.009646, -0.009542, -0.018487, 0.110831, -0.030951, -0.068153, 0.028379, 0.062442, -0.020603, -0.133967, -0.016071, 0.038793, 0.028629, 0.057272, -0.059899, -0.067747, -0.059572, -0.075058, 0.020319, 0.112707, 0.029905, -0.122212, -0.048400, -0.012655, -0.013492, 0.097295, -0.093035, 0.183801, -0.030724, -0.028461, 0.004861, 0.068536, 0.054192, 0.081868, 0.023504, 0.062201, 0.076649, 0.039471, -0.115773, -0.076766, -0.096920, -0.039885, 0.139025, -0.030262, 0.049615, 0.100043, 0.073089, -0.010645, 0.045622, 0.006565, -0.037250, 0.022185, 0.037882, -0.065772, 0.025851, -0.050764, -0.021627, -0.045801, 0.174915, -0.016093, -0.072295, 0.040209, -0.015165, 0.059938, 0.026825, -0.024902, 0.059857, -0.100865, -0.055935, -0.071226, -0.056993, 0.001582, 0.012896, 0.035183, 0.097995, 0.072734, -0.002179, 0.101547, 0.065532, 0.038288, -0.109763, 0.087761, -0.155396, 0.033927, 0.032127, 0.073924, 0.018791, 0.032390, 0.028928, -0.022515, -0.026681, 0.020445, -0.009907, 0.089132, 0.085789, -0.039666, 0.099874, 0.017581, -0.021438, -0.070063, 0.010638, -0.083644, -0.069562, 0.004860, -0.008466, -0.050685, -0.093335, -0.046542, -0.035910, 0.060631, -0.071147, -0.023458, 0.043469, 0.034111, -0.005923, -0.035635, 0.011408, 0.069981, 0.145888, -0.030855, 0.063299, 0.046632, -0.085093, 0.046335, 0.038641, -0.099605, 0.184406, -0.054238, 0.051294, -0.035935, -0.105014, 0.058333, -0.084138, 0.075074, -0.028276, 0.050765, -0.024676, -0.122509, 0.042455, -0.034478, 0.052309, -0.048442, -0.014701, 0.053305, 0.068174, -0.159197, -0.039423, 0.075645, -0.079954, -0.059721, 0.081874, 0.026412, 0.068991, -0.049885, 0.024387, 0.283725, -0.036279, -0.021955, 0.050838, -0.002471, 0.054722, 0.109322, 0.019256, -0.028910, -0.089943, 0.026209, -0.121716, 0.065055, -0.033065, -0.014706, 0.000800, -0.061926, 0.079133, -0.025620, 0.020399, 0.051316, 0.000347, 0.011736, -0.023217, 0.014597, -0.127676, -0.042953, -0.001806, 0.069384, -0.030247, 0.007536, 0.146829, 0.005830, -0.140674, 0.112207, -0.000276, 0.010741, -0.138874, 0.039247, 0.042025, 0.069941, 0.077965, -0.051726, 0.000588, -0.111098, 0.066017, -0.023583, 0.000012, 0.070205, -0.014663, 0.161437, -0.000425, -0.095973, -0.136635, 0.148260, -0.110255, 0.119107, -0.024321, -0.013401, -0.025364, 0.035373, -0.043877, 0.029263, -0.046101, 0.000109, -0.077701, 0.041328, 0.048586, 0.098323, 0.065490, -0.066412, -0.105532, 0.021525, -0.017898, -0.118179, -0.111843, -0.048682, -0.101323, -0.050418, 0.101517, 0.030774, -0.042664, 0.108332, -0.120253, 0.081439, 0.018708, -0.034335, 0.034353, 0.009143, -0.030412, 0.045006, 0.013328, -0.056735, 0.049483, 0.002904, -0.058180, -0.045592, 0.060519, -0.011786, -0.033342, -0.081959, -0.029859, -0.050292, -0.054822, -0.102168, 0.071299, 0.069632, 0.087843, -0.044583, -0.084704, -0.041721, -0.030736, 0.071736, 0.108509, -0.063708, -0.023160, -0.073364, 0.031914, 0.049713, 0.057551, -0.019721, 0.061057, 0.012509, 0.035453, 0.009794, 0.007937, -0.003920, -0.003228, -0.054459, 0.019347, -0.134019, 0.075517, 0.074120, -0.023110, -0.055774, 0.018830, -0.045154, 0.001550, -0.062256, -0.029398, 0.002046, 0.083062, -0.032218, 0.018799, 0.061252, 0.012141, -0.003930, 0.111888, -0.010366, 0.010436, 0.036771, 0.004437, 0.037571, 0.059063, 0.062054, -0.012970, -0.180174, 0.058220, -0.084464, -0.028420, -0.041065, -0.054378, -0.101620, 0.015278, -0.019940, 0.053491, 0.028808, 0.093342, 0.041713, 0.047646, -0.004850, 0.023866, -0.040579, 0.089120, -0.117498, 0.004294, 0.059894, 0.030090, -0.077499, 0.031747, -0.030221, 0.067761, 0.049325, -0.004906, 0.030061, -0.088707, 0.022837, -0.076251, 0.022262, 0.027527, 0.025930, 0.056377, 0.056870, -0.119514, -0.081963, -0.009315, -0.067262, 0.054852, -0.020922, -0.075824, -0.020580, -0.025961, -0.009712, -0.049130, 0.015925, 0.039088, 0.049034, -0.043214, -0.033667, -0.044365, -0.065730, 0.005955, 0.019671, 0.052817, -0.050358, 0.084471, 0.068025, 0.037160, -0.056274, -0.056838, -0.058552, -0.147117, -0.013196, -0.030700, -0.099011, 0.070971, 0.003570, -0.077801, -0.008401, 0.119839, -0.078745, 0.075380, -0.023078, -0.006871, -0.016885, -0.058824, 0.051604, 0.033778, 0.133945, -0.057609, 0.051550, 0.006173, 0.023533, 0.066336, -0.053395, -0.028431, 0.123673, 0.092184, -0.075163, -0.081117, -0.026324, 0.061679, 0.088024, 0.017463, 0.028630, -0.054520, -0.127165, 0.087955, 0.021757, -0.043911, 0.070833, 0.060170, 0.019085, -0.044517, -0.061875, 0.033158, 0.006820, 0.060999, 0.030704, 0.110659, 0.221940, -0.134881, 0.081552, 0.068693, 0.012557, -0.045380, -0.083336, -0.008773, 0.056124, -0.025749, -0.054904, 0.040078, -0.019523, 0.074256, -0.068518, -0.021368, 0.082821, -0.074102, 0.018010, 0.091638, -0.006650, -0.010784, -0.060807, 0.058185, -0.080581, -0.038894, 0.064545, 0.021017, -0.031464, -0.062344, 0.070932, -0.021803, 0.062585, -0.065667, 0.095439, 0.012469, -0.079197, 0.014220, 0.047579, 0.030376, -0.097830, -0.018226, -0.029153, 0.009997, 0.014877, 0.020199, -0.085419, 0.058858, -0.061074, 0.067644, -0.039954, -0.002244, 0.027844, -0.087443, 0.044501, 0.004846, 0.011973, -0.005279, 0.013014, 0.089395, -0.018013, 0.102484, 0.033258, 0.069554, -0.077702, 0.064242, -0.038046, 0.028402, -0.092065, 0.044226, 0.101114, 0.093474, -0.051072, -0.048392, -0.026093, 0.027085, -0.070882, 0.048926, -0.062363, -0.155176, 0.098340, -0.033515, -0.017304, 0.009986, 0.045540, -0.003316, 0.128778, 0.075385, 0.039130, 0.108986, -0.044458, -0.027533, 0.053553, 0.055406, 0.090002, -0.048990, 0.078343, 0.077014, -0.088779, 0.078944, -0.004660, 0.055179, 0.025770, -0.032133, 0.166298, -0.072448, 0.037575, -0.028366, 0.008804, 0.041605, 0.101340, -0.044562, -0.049465, -0.031697, -0.132449, 0.183991, -0.032750, -0.023136, -0.030258, 0.021883, 0.043058, -0.058667, 0.079512, 0.061849, -0.039639, 0.151048, 0.028351, 0.111683, 0.169661, -0.086738, -0.029510, 0.012137, -0.100782, -0.002950, 0.033688, 0.002491, -0.036881, -0.033678, -0.116378, 0.018208, 0.107577, 0.090915, 0.013082, -0.053649, 0.093580, -0.156147, 0.127765, 0.060119, 0.062128, -0.045113, -0.041162, 0.005582, 0.065043, -0.124907, 0.072743, -0.063128, -0.018984, -0.076551, 0.086801, 0.093228, -0.026650, -0.188576, 0.063774, 0.106999, -0.017405, 0.045702, -0.023691, 0.087427, -0.040752, 0.010690, 0.003891, 0.097551, 0.077127, 0.013818, -0.123759, -0.082299, -0.125533, -0.016025, -0.002080, 0.028476, 0.083172, -0.070531, -0.049115, -0.074882, 0.043933, 0.140908, 0.102246, 0.010642, -0.020995, 0.022810, 0.050652, 0.089198, 0.050510, 0.057251, -0.128562, 0.031364, 0.002521, 0.045254, -0.043411, -0.038496, 0.130707, 0.029738, -0.054703, 0.030746, 0.024066, -0.068628, -0.013343, 0.009065, -0.013165, -0.134737, -0.008864, -0.025008, 0.077344, 0.053027, -0.024113, 0.042560, 0.031882, 0.022807, -0.219526, -0.088689, -0.076574, 0.089063, 0.028817, 0.062309, -0.033998, -0.050207, -0.096896, 0.125256, 0.116095, -0.014924, 0.028223, -0.066794, 0.110708, -0.105743, 0.168053, 0.002687, -0.009672, 0.053741, -0.009906, 0.002971, 0.076837, -0.049180, -0.022533, -0.026215, 0.058244, -0.031125, 0.048015, 0.049537, -0.137699, -0.052019, 0.142378, -0.047510, 0.020359, -0.036350, 0.024705, -0.054061, -0.128146, -0.053600, -0.106846, -0.022863, 0.071032, 0.028950, -0.061361, 0.076655, 0.049010, 0.102709, 0.024392, 0.005119, -0.019078, -0.122576, -0.008482, 0.037038, 0.068643, 0.267599, -0.066501, -0.028855, 0.016971, 0.015744, -0.003505, 0.026044, 0.001148, 0.019862, -0.005290, -0.016446, 0.026695, -0.038439, 0.012284, -0.001952, -0.042870, -0.120153, 0.120438, -0.038765, -0.070057, -0.004061, -0.068344, 0.030322, 0.014053, -0.011138, -0.089980, 0.064804, -0.001520, -0.014184, -0.068538, -0.066158, 0.076863, 0.053298, -0.075016, -0.116112, -0.113360, 0.068798, -0.039058, -0.080419, 0.028982, -0.120890, 0.000434, 0.078761, 0.046858, -0.032417, -0.062027, 0.078939, -0.025563, -0.013914, -0.034090, -0.086426, 0.055639, -0.035362, 0.047753, -0.064831, 0.090853, -0.039034, -0.123011, -0.092175, -0.108337, -0.012525, -0.136798, 0.140316, -0.007694, 0.056580, -0.004025, 0.079847, 0.049956, 0.194384, -0.056627, 0.115831, -0.076396, -0.025801, -0.024140, 0.006484, 0.058931, 0.046178, 0.031546, -0.049591, -0.077399, -0.061458, 0.014153, -0.004511, 0.043158, -0.031860, -0.026680, 0.093681, -0.025460, -0.116231, 0.121161, -0.054965, -0.005748, 0.097004, 0.068213, 0.103741, -0.020042, 0.051498, 0.086822, -0.066107, -0.018094, 0.091662, 0.093930, -0.025082, -0.101306, 0.007501, 0.094099, 0.009539, -0.023000, -0.149121, -0.004455, -0.030061, -0.067630, -0.058581, 0.003753, 0.077194, -0.085827, -0.045196, 0.131355, 0.009435, 0.049255, 0.010736, 0.016303, 0.053371, 0.039722, 0.007846, 0.028983, 0.038252, -0.016119, 0.157247, 0.024637, 0.033816, -0.006277, 0.007258, -0.067658, -0.076108, -0.036879, -0.040265, -0.063540, 0.052531, -0.033655, 0.095413, -0.023730, -0.020760, 0.006384, -0.121491, 0.050193, 0.007542, -0.090850, -0.005762, -0.040735, -0.125715, 0.154296, -0.031154, -0.073915, -0.022276, -0.013830, -0.044020, -0.111210, 0.047732, 0.143684, 0.018864, -0.063195, -0.027775, -0.024244, 0.128645, 0.055210, -0.067539, 0.110617, -0.083215, 0.090469, 0.033120, -0.043146, -0.018334, -0.095855, 0.090104, -0.025698, -0.058948, 0.070609, -0.097280, 0.184193, -0.110941, 0.026212, 0.072081, -0.113762, -0.037807, -0.040312, 0.052103, -0.018168, -0.065233, 0.007488, 0.032643, -0.081414, 0.074707, -0.016847, 0.073392, 0.030129, -0.124332, 0.115468, 0.032072, -0.015609, -0.047349, -0.096088, 0.049168, 0.063375, 0.145319, -0.036987, 0.015106, 0.027037, 0.146230, -0.015906, -0.114017, -0.076757, -0.065475, 0.077979, 0.116027, 0.129066, 0.095940, 0.117748, -0.005063, 0.123091, 0.017899, -0.062513, -0.060552, -0.093621, -0.022683, -0.149570, -0.154220, 0.067737, 0.113980, 0.019894, -0.072954, -0.104756, 0.087109, 0.036158, -0.120360, 0.086002, -0.009655, 0.103001, -0.051895, -0.027136, 0.021691, 0.016207, 0.006117, 0.013190, -0.012626, -0.002285, -0.067898, -0.120951, 0.016403, -0.028454, -0.040095, -0.061895, -0.064090, -0.012903, -0.080704, -0.033369, 0.023448, 0.039328, 0.017347, -0.024256, 0.086203, -0.067917, 0.111720, 0.036208, -0.078782, 0.013108, 0.020939, -0.031737, 0.095186, 0.059057, -0.040303, -0.089422, -0.033581, -0.069454, 0.057652, -0.075024, 0.016453, -0.062334, 0.078385, -0.120707, 0.016423, -0.068860, 0.037281, -0.089928, -0.008531, -0.053968, 0.023101, -0.034074, -0.001937, 0.076434, -0.006969, -0.118213, -0.073048, 0.026298, 0.000045, -0.021323, -0.087195, -0.070108, -0.024687, -0.114924, 0.007942, -0.093031, -0.032457, -0.033663, -0.025768, -0.076824, 0.060085, -0.033212, 0.025608, -0.000644, -0.117425, 0.026009, 0.045544, 0.033957, 0.005620, 0.107529, 0.126822, 0.060240, -0.060486, -0.084930, 0.015690, 0.138205, 0.042115, 0.080977, -0.054994, -0.016644, -0.116825, 0.053726, -0.138631, 0.028073, 0.024181, -0.065079, -0.067106, 0.020589, 0.052999, -0.120161, 0.023457, -0.006433, 0.065707, -0.068990, 0.069232, -0.061226, -0.005069, -0.073673, 0.073676, 0.066331, -0.013144, 0.002963, 0.030996, -0.092660, 0.017856, -0.045882, 0.067218, -0.073913, -0.036308, 0.009984, -0.091950, 0.024874, 0.034689, 0.001802, -0.000011, 0.058002, -0.020943, 0.008138, -0.111120, -0.000990, -0.078315, -0.014589, -0.020086, 0.023829, -0.095086, -0.027145, 0.023619, -0.108105, 0.053180, 0.048044, -0.073582, 0.048508, -0.104783, -0.069295, -0.052939, 0.012892, 0.070686, 0.062351, 0.090783, -0.043063, 0.009589, 0.101145, -0.004748, -0.067948, -0.045252, -0.049606, 0.141229, -0.057555, 0.010219, -0.105830, -0.069397, -0.089534, 0.026158, 0.047313, 0.002699, -0.115724, -0.091671, 0.126611, -0.065137, 0.061826, -0.063364, 0.118487, -0.007678, 0.022506, -0.116101, 0.054996, -0.094161, 0.074228, -0.041184, -0.024101, -0.086810, -0.024986, -0.074258, 0.080518, 0.048263, -0.097659, -0.020406, -0.062278, -0.042735, 0.027544, -0.122720, -0.087838, -0.055966, -0.103153, -0.128411, 0.109488, 0.087978, 0.093225, 0.019473, -0.045599, -0.164537, -0.057938, -0.040574, -0.069702, 0.040506, -0.025038, -0.033220, 0.089146, -0.037182, -0.002161, 0.100380, -0.081805, 0.029914, 0.068448, -0.019029, -0.086563, -0.014507, 0.037954, -0.121571, -0.018813, 0.056032, 0.113211, 0.094090, -0.053611, -0.018739, 0.005001, -0.060646, -0.093484, 0.048170, -0.099058, -0.109371, -0.061683, 0.042174, 0.070809, 0.106124, -0.079307, 0.071475, 0.034193, 0.040429, -0.012229, -0.032922, 0.023510, -0.102715, 0.014191, -0.099812, -0.150226, -0.046466, 0.075567, 0.036096, -0.123247, 0.024850, 0.036227, 0.041676, -0.022646, 0.086582, -0.013108, -0.054678, -0.090504, 0.031003, -0.048468, 0.061373, -0.108628, -0.042472, 0.011722, -0.004811, 0.099214, 0.038699, 0.002308, 0.014588, -0.012438, 0.078755, -0.096940, 0.082643, 0.017600, 0.009363, 0.021247, -0.086278, -0.055603, -0.046396, 0.017395, -0.089872, 0.032448, 0.065623, -0.069416, -0.037007, -0.061738, -0.117867, -0.037973, 0.035158, -0.004222, -0.029451, 0.042787, -0.016115, -0.041073, 0.007116, 0.043698, -0.008450, 0.075019, -0.070362, 0.066784, -0.074891, -0.110586, -0.078740, 0.060984, -0.024164, -0.012102, -0.013085, -0.042155, -0.052448, 0.120051, 0.061450, -0.000283, 0.065437, -0.113982, 0.044437, -0.115771, -0.092828, 0.057303, -0.078355, -0.039860, 0.014598, 0.078460, -0.057144, -0.023691, -0.032892, 0.086111, -0.010206, -0.088381, -0.012869, 0.066733, 0.061417, 0.018495, 0.082340, 0.022238, 0.081118, -0.076770, -0.039688, 0.077619, -0.062103, 0.049804, 0.036356, -0.082282, -0.034443, 0.008503, -0.135491, 0.063601, -0.034815, 0.087379, 0.034816, 0.002919, -0.038498, -0.044964, -0.073606, 0.078489, -0.034388, 0.034907, -0.031812, -0.037353, -0.035047, 0.082327, -0.001220, 0.046993, 0.127437, 0.011970, -0.018819, -0.130087, 0.089954, 0.042979, -0.040591, -0.024395, 0.065182, -0.052249, 0.017478, -0.046003, 0.083783, 0.003393, 0.078687, -0.062306, 0.105719, 0.070308, 0.013139, 0.046740, -0.041349, 0.055196, 0.040671, -0.013642, -0.005537, 0.172975, 0.003682, 0.090545, -0.010424, -0.063927, 0.034788, -0.042178, -0.054375, -0.053397, -0.065013, -0.035417, 0.071006, 0.137204, 0.116146, -0.002888, 0.058765, -0.065566, -0.193641, 0.008926, 0.114783, 0.068832, 0.020264, 0.080914, 0.006691, -0.064917, -0.048811, -0.106372, -0.032494, -0.042029, -0.060290, 0.029675, -0.077329, 0.041607, -0.113081, -0.021880, 0.049169, -0.122014, -0.094868, -0.007104, 0.092245, -0.015210, 0.073017, 0.081453, -0.028393, 0.015909, -0.024268, -0.143515, -0.031172, -0.015878, 0.085138, 0.037943, 0.033628, 0.061159, -0.076293, -0.006087, 0.054360, 0.064713, 0.082285, 0.047979, -0.004563, 0.129665, 0.029659, 0.111549, 0.011395, 0.030844, 0.077097, -0.106671, 0.010648, -0.141783, 0.169819, -0.095449, -0.020278, -0.029002, -0.037973, 0.046935, 0.082164, 0.098194, 0.034777, 0.037117, 0.165072, -0.018169, -0.121608, 0.080030, -0.060234, 0.011569, -0.085124, 0.028969, 0.035742, -0.061823, 0.018863, 0.158252, -0.022024, -0.003133, -0.039347, -0.005123, 0.049326, -0.124456, 0.081656, -0.108822, 0.004258, 0.052797, -0.043358, -0.074889, -0.022123, -0.051308, 0.103401, 0.036326, 0.028473, 0.113674, -0.160585, -0.021109, -0.053127, -0.109821, -0.074227, -0.041853, -0.124807, -0.072643, -0.088322, 0.005389, 0.072685, 0.054511, -0.027300, 0.055970, 0.027586, -0.100675, 0.024414, 0.062643, 0.052605, -0.047499, 0.131202, -0.128718, -0.030227, 0.074413, 0.070483, -0.047599, 0.011286, -0.020486, -0.123154, -0.056980, -0.000649, -0.133965, 0.105905, 0.114633, -0.013738, -0.087738, -0.252599, -0.044863, -0.104571, -0.010743, 0.011491, -0.049733, -0.108712, -0.003752, -0.001585, -0.021694, -0.053560, -0.093158, -0.095141, -0.012029, -0.072785, 0.053106, 0.286507, -0.074304, 0.020991, 0.206625, 0.002433, 0.050319, -0.077826, -0.094836, -0.075623, -0.057748, -0.073012, 0.077880, -0.054548, 0.083742, 0.059930, 0.150350, 0.063353, 0.012481, 0.048858, -0.051672, 0.126406, -0.035890, 0.041671, -0.049931, -0.005748, -0.033505, -0.128756, -0.002641, 0.003276, 0.044066, -0.107578, -0.040909, 0.059086, 0.068740, 0.025870, -0.092805, -0.029279, -0.036185, 0.025720, 0.016795, 0.061051, 0.051139, -0.025642, -0.035672, -0.048237, 0.066364, -0.038030, 0.007378, -0.014683, 0.045069, -0.080912, -0.079511, 0.047278, 0.001493, -0.130173, -0.080554, -0.058207, -0.157531, 0.004947, 0.027352, 0.084667, -0.021348, 0.026393, 0.013488, -0.007631, 0.061304, -0.070795, -0.044111, -0.001500, -0.018507, 0.005322, -0.051303, -0.023797, 0.037864, -0.036201, -0.079488, 0.104002, -0.064308, -0.054263, 0.077488, 0.045212, 0.138279, -0.062503, 0.034985, 0.073716, -0.061280, -0.058823, -0.021783, -0.029316, 0.081502, 0.011908, 0.023541, -0.084448, -0.083409, -0.055810, -0.009214, 0.134972, -0.109090, 0.015883, 0.032482, -0.132598, 0.033952, 0.047622, 0.027837, 0.089324, 0.068778, 0.097636, 0.072116, -0.071576, 0.074235, -0.074039, -0.003803, 0.113137, -0.027644, -0.097521, 0.096933, 0.039260, -0.070238, -0.035254, -0.138573, -0.060490, 0.063497, 0.107797, 0.074291, 0.087713, -0.004446, -0.010374, 0.081994, -0.127766, -0.053571, -0.064551, 0.162047, 0.040298, -0.056686, 0.005779, 0.052095, 0.059384, 0.026070, -0.030368, 0.014911, -0.029287, 0.007144, -0.072046, -0.009999, -0.086923, 0.077793, -0.038585, -0.022023, 0.121645, 0.020881, 0.017221, 0.065794, -0.091045, -0.061347, 0.093585, -0.065789, -0.104324, -0.120872, -0.076138, -0.087448, -0.048816, 0.084916, 0.047481, -0.110378, -0.064327, -0.046880, 0.038372, 0.023023, 0.014339, 0.011719, 0.015018, 0.050294, -0.134200, 0.001215, -0.117137, -0.033106, 0.108364, -0.198131, -0.031963, -0.003912, -0.090832, 0.127554, -0.025093, 0.053751, -0.060497, 0.018903, 0.024458, 0.015248, 0.065438, -0.076409, -0.116948, 0.058133, 0.075668, 0.119087, -0.038920, 0.002874, 0.081112, -0.012978, 0.126623, 0.198510, 0.109953, -0.204777, 0.055565, 0.038022, 0.004044, -0.171675, -0.084885, -0.008230, 0.031552, -0.178625, -0.073314, -0.025194, 0.004241, -0.014372, 0.101249, 0.011389, 0.085003, 0.036547, -0.115997, 0.083242, 0.122731, 0.101349, -0.052852, -0.073819, -0.086613, 0.119045, 0.083558, 0.059557, 0.076712, 0.015616, -0.071148, -0.056958, -0.057336, -0.037199, -0.038665, 0.093744, -0.089118, -0.160096, -0.047295, -0.048658, -0.128514, 0.040428, 0.160029, -0.023796, 0.069902, 0.012847, 0.073930, 0.060090, 0.043322, -0.069785, -0.036677, 0.034241, 0.051136, 0.132174, -0.082705, -0.030275, -0.072397, -0.066674, 0.098637, -0.078205, 0.095275, -0.018809, 0.119431, -0.046629, 0.084260, 0.053065, 0.004947, -0.092143, -0.092530, -0.057545, 0.026523, 0.034706, -0.016879, 0.075183, 0.043465, -0.067053, -0.011128, 0.003650, 0.046431, 0.039824, 0.039229, 0.063061, 0.024014, 0.133872, 0.177917, -0.044609, 0.040705, 0.046763, 0.016591, -0.020356, 0.005422, -0.177445, 0.106121, 0.021242, -0.089333, -0.110366, 0.060218, -0.090430, -0.086385, 0.065204, 0.011723, 0.056292, -0.030353, -0.173682, -0.176847, 0.017165, -0.051585, -0.001857, 0.105591, -0.114832, 0.059872, -0.038045, -0.066379, -0.026552, -0.051814, 0.047500, -0.002786, 0.069782, -0.072187, 0.015426, 0.035301, -0.003010, 0.035005, 0.027696, -0.046907, 0.065804, -0.068879, -0.027896, -0.066834, 0.021304, -0.042690, -0.096323, 0.028361, 0.021017, 0.024984, -0.065134, 0.093677, 0.107851, -0.033395, -0.026223, 0.036457, 0.057758, -0.162436, 0.020660, 0.080037, 0.000805, 0.071689, -0.076981, -0.100339, -0.085081, 0.074905, 0.037611, 0.032048, -0.081767, 0.052995, -0.013199, -0.083162, 0.038555, -0.046041, -0.039045, -0.067303, 0.034610, 0.025633, 0.039618, -0.080446, 0.035646, 0.016683, 0.060592, 0.079574, 0.014662, 0.027321, 0.039640, 0.018903, 0.083358, -0.074682, -0.019977, -0.024349, 0.078386, 0.012902, -0.060872, -0.030634, -0.051192, 0.041083, -0.103625, 0.016117, 0.037521, -0.062587, -0.005614, -0.068154, -0.070100, -0.033238, 0.035411, -0.098079, -0.078575, -0.012252, 0.010824, -0.038629, 0.024912, -0.102117, -0.029102, 0.043396, 0.048355, -0.094746, -0.019392, -0.126329, 0.030433, 0.065667, 0.101074, -0.002130, -0.034966, 0.035156, -0.080244, -0.025356, -0.051018, -0.130752, -0.016971, 0.074306, 0.011790, -0.085619, -0.013953, -0.034064, -0.089649, -0.073890, -0.035066, 0.045317, -0.009957, -0.014365, -0.053554, -0.089376, 0.001594, 0.109087, -0.082971, -0.056687, 0.113422, -0.096622, -0.062106, 0.239485, -0.057779, 0.040876, 0.021851, -0.038071, 0.096023, -0.068863, 0.026600, -0.030698, 0.001323, -0.093139, -0.009530, 0.045194, 0.000528, -0.002178, 0.087976, -0.077226, -0.037688, 0.074200, -0.023379, -0.102721, 0.112594, -0.097516, -0.013609, 0.016496, -0.045336, 0.028245, -0.040720, -0.077830, 0.152111, -0.078641, -0.039426, 0.027652, -0.034699, -0.045115, 0.021122, -0.050696, 0.057926, 0.038793, -0.012730, -0.074221, 0.027171, 0.012080, -0.092877, 0.110197, -0.029188, 0.093033, 0.016033, -0.070913, -0.012817, -0.060605, 0.007144, 0.079208, 0.034353, 0.000790, 0.063588, -0.006963, 0.063451, -0.055598, 0.034809, 0.236814, -0.040016, -0.097247, -0.061895, 0.037955, -0.025321, -0.176323, -0.008687, 0.149156, 0.106220, -0.042603, -0.040250, 0.072419, -0.138441, -0.028802, -0.006482, 0.009393, 0.068671, -0.085060, -0.193376, 0.040454, -0.063166, -0.009334, 0.096588, -0.032501, -0.017834, -0.028964, -0.021843, -0.049489, 0.005174, 0.043416, 0.156400, -0.033455, 0.082982, -0.075785, -0.039850, 0.065364, 0.037644, -0.130954, 0.019450, -0.121183, -0.003640, 0.026860, -0.049690, 0.054719, 0.049448, 0.003554, 0.011226, 0.052663, 0.083128, -0.068192, 0.121390, -0.116429, 0.020462, 0.033824, 0.003746, 0.066870, -0.053105, -0.046517, -0.004656, -0.010193, 0.036722, -0.142033, 0.064438, 0.040970, -0.151703, -0.032662, -0.042123, -0.122283, 0.056703, 0.039421, -0.064944, 0.093106, -0.130823, 0.085953, -0.057333, 0.032523, 0.054265, -0.080788, 0.130570, -0.011003, 0.058028, -0.068185, 0.058918, 0.050838, -0.007116, 0.055074, 0.194581, 0.064069, -0.095181, 0.084966, 0.075401, -0.064427, -0.052312, -0.001987, -0.014032, 0.076358, -0.206298, -0.054586, 0.007863, 0.113380, -0.033176, -0.040614, 0.065451, 0.044556, -0.062889, -0.012051, 0.089201, 0.117374, 0.056744, -0.038938, -0.008046, -0.009574, 0.113850, -0.034183, -0.029116, 0.073361, 0.023174, -0.087666, -0.046696, -0.004258, -0.031195, -0.074798, 0.113888, 0.033819, 0.017116, 0.074804, -0.113764, -0.000730, 0.007037, 0.089283, 0.071687, -0.038695, 0.028551, 0.117309, -0.065778, -0.057486, -0.160266, 0.090689, -0.069351, -0.061406, 0.056155, -0.051410, -0.029907, -0.093344, 0.080932, 0.034432, -0.179282, 0.079975, 0.050367, 0.154119, -0.020359, 0.134760, 0.074174, 0.078023, -0.029327, 0.021690, -0.112901, 0.066013, -0.005880, -0.057054, 0.035877, 0.000122, -0.069057, 0.033709, -0.000885, 0.045925, 0.047762, 0.112344, 0.048398, 0.015353, 0.164165, 0.084785, -0.019523, 0.000098, 0.004069, -0.059003, -0.023608, 0.098419, -0.099616, 0.085847, 0.027567, -0.097407, 0.093149, 0.029966, -0.078366, -0.015723, -0.058571, 0.006698, 0.023664, 0.009003, -0.081018, 0.005370, -0.083504, -0.067006, 0.128647, 0.137680, -0.055098, 0.135042, 0.007807, -0.054650, -0.085936, -0.009259, -0.011630, 0.063738, -0.012642, -0.034363, -0.010610, -0.059372, -0.065603, 0.092432, 0.080996, 0.014402, 0.000236, 0.019867, -0.070175, -0.153267, 0.135404, -0.047366, -0.040101, 0.039834, 0.018120, -0.013618, 0.017390, 0.024835, 0.163566, -0.102867, 0.022904, 0.093103, 0.104202, -0.037771, 0.006129, 0.040545, 0.095153, -0.111009, -0.110664, -0.088920, -0.017361, 0.031385, -0.006495, -0.020575, 0.022010, -0.038953, 0.013077, -0.000324, 0.012837, -0.030892, 0.049880, 0.031844, 0.028410, -0.030928, -0.069624, -0.135343, -0.021423, -0.066259, 0.008567, 0.246965, -0.063982, -0.135436, -0.021172, 0.039143, -0.092947, -0.065645, 0.037399, 0.084813, 0.043844, 0.068269, 0.016724, 0.089006, -0.018411, -0.039556, -0.060011, -0.079200, 0.058761, -0.062437, -0.100371, -0.080930, -0.086029, 0.009488, 0.111497, 0.012715, 0.061611, 0.093963, 0.087779, -0.028987, 0.027760, 0.052673, 0.023518, -0.019882, -0.043408, -0.020078, -0.052895, 0.074511, -0.101798, -0.125796, 0.023231, -0.024251, 0.034962, 0.045475, -0.102106, -0.077722, -0.063633, 0.009631, 0.065453, -0.021514, 0.008112, 0.029804, 0.076016, -0.065488, 0.018540, -0.042435, -0.019643, -0.047802, 0.050887, -0.034797, 0.075585, 0.093652, -0.001727, 0.091349, -0.052415, -0.078730, 0.019100, 0.012038, 0.012871, 0.164809, -0.025836, 0.055403, 0.082143, 0.069894, 0.091553, -0.118454, -0.072574, 0.053794, 0.076144, 0.050259, -0.053371, 0.009393, 0.016797, 0.067570, 0.088168, -0.058463, -0.036379, 0.107910, 0.025140, -0.069008, 0.100839, -0.066571, -0.026669, -0.048605, 0.096133, 0.122242, -0.015470, -0.062073, 0.182864, 0.005303, -0.029866, -0.017548, 0.016714, -0.000398, -0.039046, -0.073288, 0.040837, 0.043264, -0.097171, -0.125736, 0.057082, 0.064725, -0.130753, 0.130899, -0.079952, 0.087388, 0.000590, -0.006702, -0.004755, 0.001751, 0.102287, -0.021513, -0.015591, 0.088630, -0.005095, 0.044143, 0.006845, 0.018375, 0.062154, 0.149880, 0.033551, 0.007678, -0.085318, 0.056166, 0.081315, -0.081007, -0.020812, -0.001075, 0.024872, -0.039352, -0.029224, -0.003352, 0.010181, -0.005232, -0.021098, 0.167102, 0.054357, -0.023656, 0.021103, 0.039875, 0.082567, -0.036591, -0.011655, -0.082704, 0.060778, -0.001012, 0.015127, -0.019418, -0.020601, 0.031032, 0.196928, 0.023205, -0.029519, -0.050397, -0.054656, 0.051627, 0.059264, -0.099708, 0.046542, -0.033881, 0.050834, 0.068340, 0.035923, 0.053702, 0.039351, -0.028387, 0.017190, -0.056959, 0.115273, -0.003725, 0.089480, -0.163057, -0.067299, 0.034995, 0.071370, -0.056317, 0.030065, -0.074531, -0.101962, -0.027410, -0.012261, -0.057652, -0.042301, -0.097365, -0.094285, -0.064127, 0.083251, -0.131275, -0.050874, 0.024814, 0.094692, -0.065982, -0.181298, -0.025917, -0.118770, -0.048541, -0.047417, 0.006247, -0.091422, 0.056766, -0.017578, 0.048342, 0.048849, 0.071007, -0.084106, 0.041582, 0.013468, -0.165701, 0.110293, -0.088475, -0.019681, 0.052524, -0.018810, 0.026697, -0.048286, 0.066785, -0.105155, -0.129353, 0.085709, -0.074296, 0.119408, 0.037590, -0.118665, -0.052829, 0.106503, -0.078082, -0.018110, -0.099990, 0.041836, -0.115754, -0.107734, 0.010415, 0.086606, 0.033408, -0.057230, 0.100190, 0.003551, 0.016390, 0.107766, -0.071791, 0.083845, -0.107574, 0.064344, -0.009518, 0.042030, -0.001690, -0.097601, 0.278583, -0.057879, 0.055657, -0.099052, -0.101918, 0.027242, -0.017680, 0.006301, 0.027495, -0.058213, -0.107805, -0.012585, 0.070842, 0.049483, 0.035814, -0.068908, -0.133254, 0.005984, -0.077641, 0.108110, 0.025934, -0.072332, -0.070413, 0.099887, 0.021530, 0.010027, -0.044755, 0.027247, -0.137600, -0.051782, 0.041118, -0.001573, 0.112732, -0.136872, -0.061230, -0.117119, 0.080098, 0.020777, -0.049934, -0.004578, -0.007335, 0.026683, -0.029976, -0.011307, 0.042390, -0.114555, 0.057691, 0.047059, 0.049216, 0.131356, -0.143832, 0.199922, -0.080010, -0.002201, -0.014368, -0.007269, 0.094932, -0.036883, -0.016224, 0.085083, -0.036013, -0.048284, 0.128580, -0.054512, 0.024300, 0.068074, 0.060750, -0.014218, 0.111147, -0.014413, -0.123937, 0.068774, 0.073014, -0.096420, 0.100398, 0.010058, -0.072663, -0.101035, -0.009995, 0.003915, 0.072966, -0.043710, -0.031992, 0.032832, 0.024942, 0.074206, -0.018361, -0.048708, -0.056223, 0.110677, 0.008977, -0.010558, -0.023834, 0.074625, -0.006910, 0.101136, 0.015708, 0.142865, -0.041198, 0.043769, 0.033016, 0.040554, -0.081834, -0.011210, -0.093455, -0.030144, 0.026203, -0.073134, -0.040282, 0.062886, 0.021500, 0.017761, 0.134074, -0.127773, -0.006869, 0.025112, 0.081306, -0.036816, -0.070729, -0.053538, 0.071583, 0.030710, 0.036676, 0.011669, -0.104086, -0.073147, -0.053145, 0.058530, 0.061759, -0.024015, 0.008778, 0.042125, 0.027142, -0.088582, -0.052353, -0.086733, 0.086657, -0.007763, 0.016261, 0.047640, 0.038580, -0.060863, 0.063189, 0.000331, 0.177431, -0.054063, -0.107095, -0.027978, -0.022781, 0.015725, -0.116641, 0.084252, 0.020677, -0.048146, -0.088841, -0.060831, -0.016156, 0.024496, 0.012966, -0.034895, -0.023987, -0.019930, -0.090647, 0.066456, -0.008320, -0.059393, -0.008170, -0.081593, -0.143214, -0.056466, 0.036398, -0.021610, -0.034119, -0.125758, -0.094615, 0.040139, -0.085728, 0.021665, 0.094026, 0.072900, -0.018140, 0.036260, 0.068360, -0.043106, 0.023160, -0.009964, 0.106409, 0.021289, 0.005186, -0.056043, -0.081078, -0.083274, -0.050536, 0.210160, -0.080091, 0.047322, 0.077057, -0.023965, -0.105567, 0.016644, -0.171228, -0.058049, -0.083273, 0.037793, -0.039435, -0.079218, 0.098140, -0.105352, -0.044735, -0.012875, 0.014935, -0.046919, 0.087830, -0.039789, 0.031288, -0.183957, -0.011470, 0.092776, 0.013019, -0.018147, 0.042261, -0.017977, -0.010071, 0.053833, -0.014522, 0.181062, -0.000299, 0.039398, -0.015981, -0.016834, -0.002185, 0.033739, 0.008513, 0.007194, -0.101483, -0.017608, -0.147284, 0.063318, 0.003135, -0.173187, 0.182125, -0.090645, 0.054894, 0.000036, 0.022145, 0.035336, 0.046009, 0.000037, -0.042257, 0.073622, -0.118764, -0.068424, -0.028484, -0.022943, -0.004764, -0.022332, 0.004338, -0.090154, 0.012556, 0.038792, 0.054933, -0.046895, -0.051130, -0.004786, 0.093026, 0.053494, 0.013049, -0.086922, 0.023746, 0.000392, -0.054153, -0.018051, 0.081825, 0.001653, -0.008237, 0.137277, -0.014390, -0.126009, -0.129642, 0.089419, -0.024367, 0.007501, -0.003672, 0.026044, -0.051903, 0.034842, -0.038066, 0.082357, 0.064495, -0.012255, -0.028023, 0.128218, 0.146838, 0.017285, 0.004393, -0.043338, -0.018000, -0.109415, -0.095878, -0.123069, -0.098786, -0.125404, 0.025211, 0.033886, 0.098496, 0.102023, -0.039967, -0.065993, -0.005784, 0.023363, -0.007859, 0.003676, -0.047161, -0.071880, -0.057952, -0.108366, -0.037558, 0.089104, -0.021675, -0.027219, 0.007798, -0.105201, 0.061438, -0.033613, -0.038835, 0.082577, 0.090807, 0.088917, -0.102546, -0.034404, -0.004243, -0.015688, 0.091377, 0.026109, -0.119774, 0.028941, -0.019740, -0.060420, -0.082996, -0.038512, 0.042935, -0.071205, -0.030695, 0.064598, 0.028220, 0.087651, 0.143755, 0.065775, -0.020837, 0.027880, 0.064439, -0.018999, -0.020758, -0.088283, -0.039407, 0.036264, 0.054101, 0.067232, 0.011468, 0.000171, -0.014184, -0.003983, -0.075599, 0.000883, -0.000486, 0.065652, -0.108884, -0.047350, -0.018787, -0.054731, 0.009614, 0.086706, -0.064456, -0.025332, -0.068688, -0.029311, 0.103277, -0.014376, -0.079264, -0.103077, 0.032037, -0.033408, -0.022908, 0.011416, -0.104484, 0.061537, 0.048162, 0.038401, -0.030779, 0.053641, 0.040428, -0.009693, -0.043845, -0.045270, -0.021317, -0.000805, 0.083649, -0.035699, -0.046873, -0.081992, -0.043535, -0.048622, 0.038178, -0.040442, 0.019480, 0.024673, 0.029937, 0.023777, 0.017190, -0.016310, 0.015911, -0.060582, 0.108435, -0.025926, 0.013665, -0.021463, 0.014950, -0.043235, 0.012765, -0.043776, -0.016110, 0.090199, -0.051349, 0.083870, 0.039589, -0.010312, 0.119025, -0.120941, -0.032560, -0.136545, -0.041806, -0.066347, 0.082976, -0.011857, 0.034551, 0.077118, 0.090550, 0.001466, -0.010971, 0.086982, 0.022192, -0.048783, 0.089196, 0.142857, 0.137358, -0.113918, 0.092072, -0.033549, -0.106250, 0.085220, -0.068553, -0.078354, 0.196556, -0.067501, -0.007951, 0.038297, -0.041176, 0.029028, -0.002427, 0.016960, 0.038263, -0.046782, -0.016308, -0.114557, 0.046738, 0.001816, 0.089451, 0.009939, 0.095389, 0.027703, 0.049987, -0.096907, 0.047182, -0.001402, -0.026769, 0.052427, -0.025739, 0.025402, -0.065826, -0.013190, 0.073331, 0.250202, -0.005976, -0.011659, -0.009688, -0.027355, 0.009763, 0.047550, 0.004714, -0.035918, 0.019096, -0.052654, -0.106470, -0.011208, -0.015544, -0.190858, 0.154095, -0.091132, -0.008378, -0.100753, 0.025840, 0.077627, -0.067841, -0.020534, 0.067053, -0.018073, 0.034598, -0.091828, -0.014102, 0.099775, 0.006896, -0.068306, 0.152607, -0.054302, -0.044040, -0.011182, -0.012017, 0.010776, -0.131902, -0.087162, 0.060497, -0.018642, 0.039748, -0.005377, -0.047806, -0.075256, -0.033170, -0.080034, 0.173423, -0.022373, 0.019714, 0.175030, 0.082508, -0.085652, -0.100740, 0.053476, -0.057829, 0.004537, 0.054266, 0.088340, -0.035656, 0.102200, -0.023136, 0.140036, -0.058025, 0.084458, 0.038912, 0.007024, -0.014943, -0.056327, 0.055733, 0.011162, -0.099265, 0.063043, -0.000403, -0.062690, -0.039603, 0.040619, -0.023631, -0.045307, 0.028097, 0.063763, 0.128711, 0.051989, -0.101264, -0.022243, 0.021933, -0.065566, -0.055840, -0.040053, -0.082570, 0.025061, -0.029442, 0.009208, 0.004226, -0.053959, -0.033286, 0.092806, -0.082119, 0.015180, -0.098902, -0.089764, -0.067334, -0.056047, -0.061116, -0.068655, 0.066225, 0.025563, -0.056777, -0.090337, -0.044102, -0.018018, -0.020161, 0.104952, -0.053359, -0.059914, -0.009170, -0.010329, 0.031320, 0.075551, -0.001233, 0.055422, -0.014209, -0.034013, -0.118475, 0.013595, -0.053521, 0.053273, -0.011766, -0.032986, -0.093042, -0.035770, -0.057005, -0.118687, -0.011903, 0.062157, 0.026772, 0.028329, 0.081817, 0.047235, 0.023078, 0.044746, 0.049080, -0.110069, 0.068280, -0.093515, 0.030269, 0.049131, 0.070460, -0.028937, -0.082644, -0.049048, 0.108602, 0.058624, 0.004793, -0.151511, 0.023237, -0.061539, -0.001322, 0.024258, 0.081674, -0.092061, -0.016548, 0.009588, -0.042813, 0.018403, 0.047041, -0.135424, 0.016667, -0.104405, -0.061020, 0.014442, -0.052067, -0.055317, -0.046643, -0.084538, -0.022119, -0.131224, -0.075300, -0.032746, -0.060439, -0.003793, 0.048379, -0.116251, 0.041495, -0.132958, -0.052739, -0.026759, 0.019309, 0.110677, 0.007637, 0.004795, -0.037061, -0.051668, -0.053913, -0.115348, 0.101094, -0.007928, 0.019051, -0.037113, 0.035998, 0.035052, 0.058163, 0.065435, 0.040287, -0.051838, -0.029610, 0.050907, -0.036066, -0.043143, 0.067276, 0.056246, 0.084819, -0.031353, -0.190842, -0.076211, -0.071728, -0.055696, -0.006363, -0.051950, 0.012437, -0.077352, -0.062065, -0.020787, -0.102685, 0.035407, 0.024970, -0.054668, 0.035302, -0.074178, 0.033997, -0.041402, 0.017255, -0.171279, -0.018363, 0.062000, 0.005212, 0.100328, 0.070641, -0.024813, -0.048435, 0.026779, 0.054162, 0.021641, -0.055206, -0.095956, -0.146627, 0.093971, -0.047447, 0.110279, 0.009886, -0.133669, 0.098879, -0.091240, 0.032005, -0.092599, 0.127474, -0.022471, 0.183448, -0.065042, -0.029221, 0.035642, -0.020942, -0.062313, -0.092217, -0.034473, 0.061972, 0.009755, -0.029734, -0.109484, -0.005799, 0.201232, -0.079637, -0.086848, -0.005180, 0.018744, -0.089567, -0.063354, 0.071640, 0.157406, 0.008414, 0.024380, -0.039987, -0.132675, -0.104351, 0.076104, 0.019648, 0.098061, -0.104231, 0.086941, -0.114892, 0.045832, 0.066257, 0.069598, -0.043833, -0.041767, 0.094181, 0.068656, -0.071524, -0.007652, 0.019866, -0.040722, -0.012043, -0.029298, -0.108960, 0.026673, -0.140345, 0.028019, 0.034487, -0.014445, 0.009204, 0.088784, -0.011814, -0.087640, -0.016882, -0.026203, -0.104694, -0.055014, 0.002176, 0.058802, -0.032004, -0.076924, -0.095243, -0.102465, -0.040631, -0.007239, -0.056115, -0.023670, -0.031673, 0.080558, 0.053586, -0.061654, -0.001364, -0.079547, 0.027646, -0.020378, 0.000729, 0.045783, -0.036540, 0.122626, 0.055188, 0.113084, 0.016355, -0.001548, 0.077880, 0.090228, 0.082259, -0.121031, 0.007043, -0.088789, -0.183353, 0.075786, -0.001555, -0.113367, 0.055999, -0.038497, -0.127717, -0.001233, 0.043623, -0.014082, -0.011808, -0.034237, -0.008874, -0.044826, -0.026612, 0.099155, 0.047977, 0.097710, -0.062539, -0.061321, -0.012269, -0.008921, 0.023798, 0.043772, -0.011972, 0.139178, -0.001059, -0.095402, -0.041389, 0.040550, 0.074532, 0.037617, -0.048984, 0.086841, 0.090230, -0.078089, 0.176808, 0.049820, -0.024504, 0.012094, 0.068073, 0.018261, -0.067119, 0.086676, 0.106998, -0.055935, 0.094153, 0.098101, 0.046271, 0.184613, 0.010239, -0.018566, 0.026990, 0.048648, -0.030979, -0.032053, 0.032793, 0.083984, 0.045571, -0.102510, 0.008481, -0.025885, -0.044592, -0.027226, -0.050343, 0.022883, -0.096350, 0.070917, 0.079146, 0.072466, -0.047832, 0.029603, 0.121633, -0.031997, -0.083900, -0.084147, -0.032401, 0.007485, -0.013519, 0.026229, 0.033928, 0.067949, -0.162978, -0.047072, 0.078547, -0.013650, -0.044715, 0.084992, 0.113298, -0.099462, -0.009192, 0.054946, 0.012677, 0.073308, 0.057158, -0.034388, 0.008904, -0.128881, -0.050415, 0.070788, 0.080250, 0.080917, -0.100223, 0.022595, -0.050558, 0.018425, 0.096366, -0.011651, -0.057602, -0.010121, 0.103940, 0.119169, 0.042244, -0.034285, 0.025692, -0.056986, 0.002376, -0.047969, 0.074268, 0.041588, -0.032918, 0.029881, -0.000055, -0.058110, 0.053797, -0.060333, 0.089380, -0.028495, -0.010304, -0.032505, 0.026596, -0.058511, 0.098074, 0.053956, 0.134783, 0.020700, 0.090803, 0.006248, -0.045619, -0.048372, -0.090047, 0.044874, 0.048377, -0.022240, -0.018796, -0.041660, -0.007453, -0.015697, -0.004127, 0.034340, 0.020545, -0.027109, -0.051093, -0.027275, -0.103005, 0.179245, -0.027352, -0.029590, -0.005323, -0.048309, 0.031866, 0.031701, 0.082365, 0.058687, -0.117576, 0.031149, 0.051847, 0.060110, 0.077982, -0.122297, -0.018223, 0.096280, -0.020919, -0.053068, -0.018994, 0.028265, -0.060376, 0.003401, -0.123519, -0.063207, -0.034648, -0.100883, -0.068923, -0.016011, 0.015235, 0.034389, 0.076030, 0.080257, -0.029763, 0.034347, -0.013729, 0.046164, -0.004266, -0.042699, 0.200603, -0.067890, -0.098639, -0.068401, -0.047398, -0.019989, -0.118257, 0.099879, 0.170212, 0.021965, 0.022968, 0.019023, 0.097611, 0.011641, 0.076718, -0.034380, -0.102788, 0.137190, -0.127354, -0.038896, -0.002419, -0.058483, -0.005218, 0.076622, -0.045391, 0.051192, 0.047533, 0.003571, -0.086707, 0.031465, -0.013596, 0.084892, 0.064571, -0.012866, 0.008476, -0.018377, 0.079606, 0.051212, -0.055156, 0.106001, -0.030326, 0.071062, 0.065947, -0.054151, -0.059564, -0.112201, -0.004945, -0.054609, 0.057632, 0.029965, -0.126813, 0.194433, -0.045286, 0.021886, -0.020646, -0.048512, -0.188961, 0.032882, -0.112728, 0.052090, -0.023486, 0.040842, 0.177380, 0.030088, -0.051458, -0.149970, 0.090475, 0.102921, 0.044947, -0.048755, -0.099813, 0.055218, 0.144687, 0.053087, 0.097634, -0.097783, 0.057863, 0.030765, 0.033879, -0.056983, 0.000617, 0.015712, 0.078508, 0.014210, -0.053868, 0.070760, -0.111410, 0.049747, -0.010487, 0.040237, -0.106338, -0.052581, -0.114751, -0.148464, -0.022765, -0.103013, 0.020196, -0.085666, 0.070420, -0.040868, -0.018474, -0.014719, -0.059495, 0.017232, -0.071404, 0.001386, 0.064152, -0.039781, -0.058715, -0.034582, 0.011287, 0.024399, -0.102099, 0.002314, 0.062472, 0.041467, -0.050236, -0.064059, -0.057823, -0.056931, 0.009346, 0.060509, 0.100600, -0.054686, 0.056914, 0.102035, 0.074871, -0.112218, -0.249768, 0.010380, 0.088302, -0.072438, 0.010000, 0.083297, -0.021268, 0.058064, -0.034162, -0.013765, -0.113647, 0.048644, -0.068822, -0.044382, 0.036736, -0.002750, 0.175942, 0.008268, 0.054300, 0.226593, -0.035840, 0.026602, -0.069498, -0.087576, -0.088536, 0.034008, 0.016930, 0.010951, 0.052074, 0.055968, 0.031745, -0.012772, -0.020399, 0.012353, 0.050415, 0.039949, -0.051906, -0.024885, -0.002309, -0.023054, -0.088455, 0.004393, -0.045487, -0.048722, -0.032368, 0.040213, -0.022644, -0.089475, -0.061317, -0.045353, 0.029636, -0.124618, -0.092354, -0.026260, -0.070533, 0.088729, -0.067042, -0.001527, 0.065499, -0.004150, -0.072567, -0.026521, -0.012374, 0.009223, -0.072901, -0.133851, 0.003228, 0.050713, 0.023131, -0.060953, 0.083259, 0.042845, -0.051615, -0.156577, -0.094849, 0.020366, 0.109381, 0.061631, 0.071227, -0.078846, -0.046667, -0.008253, 0.081428, 0.150685, -0.057398, -0.082296, -0.066507, 0.052360, -0.152807, 0.219462, -0.010970, -0.024646, 0.141766, -0.140603, 0.097160, -0.072554, -0.010775, 0.144807, 0.017626, 0.003075, -0.089338, 0.073784, 0.070506, -0.121372, 0.022272, 0.054053, -0.157090, -0.014422, -0.025577, 0.020030, -0.029154, -0.069038, -0.084581, -0.013930, -0.002588, 0.020682, -0.045090, 0.039115, 0.109962, 0.084015, -0.023245, 0.142349, -0.012273, -0.072243, -0.087596, 0.028088, 0.026416, 0.038481, 0.131468, -0.112614, 0.004550, 0.015974, 0.101274, 0.000910, -0.116401, 0.104873, 0.106868, 0.047940, 0.026046, -0.064567, 0.061621, -0.088544, -0.006538, 0.039291, -0.135760, 0.124257, -0.084277, -0.035809, 0.034178, 0.017399, -0.020851, 0.151378, -0.059992, 0.014380, 0.056496, 0.061743, -0.031263, -0.094073, 0.033899, 0.104496, 0.111316, -0.027205, -0.126287, -0.044352, 0.013085, 0.021685, -0.100100, 0.046929, -0.088215, -0.009957, 0.088571, -0.107293, 0.028612, 0.008967, -0.013099, 0.036208, -0.005002, 0.020802, -0.089824, 0.068624, -0.077558, 0.097815, -0.067058, 0.042212, -0.023064, 0.023586, 0.026509, 0.035947, -0.044267, -0.011889, -0.142139, 0.023684, 0.030261, -0.035484, 0.082994, 0.070762, -0.051754, -0.065231, 0.131293, 0.098411, 0.038238, 0.000334, -0.004262, 0.077967, 0.057200, 0.101605, 0.028553, 0.100346, -0.061773, -0.002946, 0.128999, 0.024415, 0.050163, 0.087821, -0.014280, -0.077323, 0.001993, 0.047125, -0.043491, 0.061285, 0.093859, 0.100077, 0.061555, -0.047126, 0.061772, 0.031835, 0.147929, -0.024017, 0.101687, 0.094721, -0.049234, 0.006888, -0.007045, 0.053397, -0.040134, -0.158373, 0.103303, -0.009314, 0.039924, 0.116102, -0.106351, -0.065178, -0.027034, 0.060095, 0.084639, -0.074487, -0.013893, 0.045100, 0.077693, -0.081390, -0.001321, -0.155351, 0.047035, 0.084511, -0.030238, 0.130963, -0.095140, -0.028088, 0.009555, -0.079095, 0.018352, 0.097835, 0.027059, 0.048548, -0.089829, 0.018840, 0.048483, 0.021747, 0.041649, -0.048461, 0.077293, 0.052213, -0.171076, 0.072136, 0.053342, 0.024652, -0.027427, -0.039036, 0.043517, -0.053804, 0.076929, 0.052562, 0.087895, -0.056570, 0.108720, -0.032709, -0.068310, -0.113089, 0.035254, -0.037728, -0.055218, 0.113778, -0.093776, 0.014651, -0.012084, -0.001531, 0.106392, -0.049461, -0.075144, -0.053936, 0.062459, 0.003667, -0.000314, 0.093543, 0.030860, 0.003684, -0.091511, 0.041776, 0.056789, -0.091962, 0.060668, -0.032528, -0.109412, 0.022787, 0.031190, 0.062600, 0.037586, 0.081934, 0.156028, -0.050136, -0.119277, -0.122328, -0.054973, 0.040803, -0.036705, -0.147711, 0.063715, 0.050095, 0.103771, 0.153720, 0.075228, 0.013486, 0.062097, 0.063490, 0.008576, 0.050626, -0.007744, -0.098153, 0.042455, -0.009003, 0.036665, 0.060695, -0.133695, -0.030544, -0.014931, 0.055784, -0.099603, -0.012559, -0.059270, -0.101138, -0.092106, -0.020146, -0.066633, -0.088193, 0.010503, -0.017306, -0.091167, -0.003726, 0.055381, 0.001102, -0.017283, 0.035613, 0.104875, 0.008798, 0.038220, -0.101594, -0.079212, -0.029781, -0.075626, -0.000993, -0.045911, -0.003576, -0.008276, -0.018259, -0.023433, -0.012296, -0.088456, 0.035178, 0.092945, 0.007186, 0.012136, 0.072050, 0.080531, 0.037558, -0.064171, 0.062272, -0.015268, -0.070975, -0.062049, 0.017104, -0.001946, -0.031200, 0.077934, -0.015629, -0.003864, 0.081230, 0.045580, -0.013392, -0.020497, -0.072707, 0.189217, -0.116712, -0.019166, 0.191010, -0.019965, 0.016398, -0.002738, -0.129146, -0.089319, 0.010122, 0.099501, -0.033049, 0.030343, 0.102148, 0.016035, 0.015611, 0.027640, 0.070653, 0.096164, 0.018443, 0.070968, -0.097070, -0.013847, 0.081980, -0.123132, -0.035457, 0.005477, 0.012087, 0.032361, -0.036009, -0.116841, -0.045793, -0.134802, -0.084756, 0.028358, -0.085982, 0.013731, -0.085668, 0.078165, -0.029480, -0.001324, -0.073573, 0.047331, 0.093169, 0.055772, 0.064835, 0.120982, 0.044943, -0.034651, 0.058247, 0.042933, -0.103893, 0.118527, -0.007256, 0.021311, 0.032344, 0.005104, -0.023578, 0.026511, 0.051685, -0.056167, 0.066884, -0.026949, -0.122586, -0.085412, 0.064048, 0.034785, 0.056528, -0.015648, -0.115763, 0.018300, 0.021508, -0.037534, 0.139728, 0.061087, -0.009996, 0.027088, 0.016750, -0.096962, -0.022191, 0.021785, 0.248352, -0.157897, 0.062952, -0.016658, -0.048177, -0.113361, 0.010087, 0.059004, 0.091479, -0.061890, -0.072042, -0.117334, 0.059559, 0.027154, 0.021349, 0.121259, -0.124757, 0.006474, -0.050612, -0.025519, -0.009409, -0.109716, -0.069387, -0.048307, -0.029608, -0.031792, -0.003567, -0.004875, 0.014297, -0.059099, -0.068928, 0.104021, -0.049977, -0.000708, 0.097936, -0.015153, -0.071267, -0.111373, -0.052700, -0.036507, 0.120074, 0.036018, -0.053443, 0.034682, 0.037514, -0.072514, -0.040988, 0.057534, 0.060875, -0.115811, 0.091882, 0.036508, -0.036103, -0.032315, 0.109185, 0.042465, -0.033720, 0.052143, 0.023650, 0.050269, -0.012860, -0.056755, 0.029972, -0.075703, -0.056243, 0.053712, 0.022415, -0.022748, -0.075758, -0.041100, 0.042238, -0.107255, -0.006902, -0.027876, -0.057858, -0.080219, -0.129130, -0.083669, 0.021255, -0.016153, 0.042990, 0.024378, 0.026782, -0.151495, -0.072692, 0.007705, 0.055881, -0.125719, -0.079223, 0.066175, 0.009353, -0.155184, 0.002431, 0.197152, 0.009065, -0.098249, -0.072072, -0.059674, 0.033786, 0.167887, -0.030599, 0.063273, -0.048404, 0.092408, 0.117993, 0.043592, -0.088645, 0.004253, 0.098335, 0.059298, -0.034404, 0.022191, 0.031344, -0.086984, 0.089058, 0.031905, 0.031658, -0.043174, -0.041408, 0.103082, 0.014277, -0.140040, -0.132226, -0.044919, 0.052671, -0.039075, -0.059007, 0.007212, 0.069177, -0.058924, 0.069895, 0.026427, 0.013676, -0.037901, -0.052979, -0.183095, 0.025737, -0.037701, -0.005872, -0.076042, 0.026428, 0.022015, -0.188551, -0.035686, -0.090708, 0.072218, -0.035128, -0.017154, 0.057794, -0.045341, -0.045914, -0.032208, -0.030724, 0.101489, -0.004019, 0.028732, -0.033150, 0.095575, -0.027248, 0.192098, -0.078648, -0.102606, -0.087022, 0.010507, 0.006556, -0.006246, 0.046681, -0.050627, -0.007773, 0.029821, 0.077349, -0.080791, 0.061693, -0.063195, -0.023334, 0.125293, 0.135106, -0.040504, -0.042885, -0.054216, -0.034052, 0.030531, 0.040580, 0.069969, -0.068888, 0.145343, -0.118888, 0.011027, 0.065346, 0.038642, 0.023266, 0.000581, 0.128229, -0.010882, -0.013571, 0.050602, -0.070334, 0.014717, -0.006050, -0.057616, -0.041737, 0.098883, -0.064017, 0.014969, 0.064425, -0.001923, -0.073317, -0.150520, -0.072543, -0.009006, 0.132366, -0.030667, -0.002786, -0.048510, -0.001713, 0.025510, 0.011711, 0.080920, 0.002976, 0.005660, 0.076943, -0.122887, 0.035989, -0.075736, -0.057094, -0.110073, -0.080139, -0.074328, -0.012171, -0.080821, 0.072915, 0.023065, -0.101935, -0.072059, -0.046169, -0.089270, -0.033676, 0.066188, 0.123980, -0.077778, 0.048414, 0.039079, 0.005529, 0.070239, 0.015113, 0.005513, 0.104990, -0.104029, 0.012154, 0.021067, -0.038589, 0.058356, 0.107906, 0.010557, 0.020870, 0.052715, -0.070412, 0.152864, -0.043246, -0.023074, 0.017489, 0.000776, 0.063443, -0.081840, 0.071847, 0.078457, 0.026002, -0.035355, -0.003639, -0.004952, 0.085168, 0.016234, 0.070096, 0.014791, -0.158115, -0.068252, 0.065076, -0.009001, 0.060835, 0.089383, 0.011590, -0.045778, 0.089497, 0.039996, 0.016342, 0.087749, -0.061697, -0.226110, 0.020762, 0.076138, -0.086729, 0.116554, 0.074748, 0.068453, 0.029701, -0.071165, 0.005832, -0.067400, -0.052528, 0.028596, 0.055457, -0.038735, 0.087028, -0.128691, -0.001480, 0.093329, -0.076668, 0.022695, 0.003820, 0.131870, -0.143766, -0.004548, -0.112393, 0.101046, 0.000753, 0.019280, -0.048256, -0.064019, -0.078219, 0.051482, 0.046041, -0.058553, -0.014038, -0.088926, -0.054376, -0.038234, -0.016231, 0.132566, -0.026430, 0.054086, 0.075141, 0.018221, 0.125512, -0.030372, -0.088651, 0.022334, -0.066187, 0.024191, 0.002416, 0.068058, 0.072976, -0.017948, -0.079404, -0.027781, 0.015629, -0.080458, -0.033806, -0.025691, 0.011492, -0.084928, 0.021648, -0.051255, 0.037960, 0.000068, -0.160479, 0.055802, 0.050235, -0.034436, -0.085242, -0.177187, 0.057056, -0.010626, 0.068886, -0.060003, 0.055738, 0.048481, -0.153936, -0.096324, 0.045341, -0.070168, 0.050904, 0.008814, 0.012647, -0.075386, -0.081846, -0.028049, 0.044295, 0.064648, 0.061603, 0.071153, 0.033886, -0.073380, 0.013187, 0.037212, 0.187332, -0.101996, 0.010657, 0.023086, -0.059926, 0.041824, 0.050604, 0.028358, -0.049290, -0.057584, -0.065445, -0.020296, -0.024126, 0.033804, 0.010695, 0.080470, -0.135758, 0.050434, -0.007487, -0.082264, 0.047009, -0.051224, -0.036911, 0.046048, 0.014967, 0.005487, 0.040774, 0.037345, 0.055784, 0.040774, -0.082623, 0.038903, -0.036392, 0.010159, 0.058395, 0.002778, -0.049586, -0.039538, 0.024719, 0.088463, 0.002166, 0.056518, 0.027580, -0.018931, -0.102980, 0.077433, -0.010085, -0.023363, -0.077265, -0.055007, 0.170342, 0.065359, 0.004968, -0.003845, 0.138992, -0.072905, 0.022695, 0.008373, 0.034081, -0.014660, -0.060894, -0.097195, 0.112954, -0.052077, -0.001869, -0.018337, 0.072295, -0.055247, -0.075361, 0.095208, -0.021393, 0.002810, -0.038995, 0.064869, -0.014700, 0.001205, 0.053877, 0.000983, -0.002755, -0.056495, 0.126407, -0.041189, 0.048995, -0.003864, 0.007966, -0.015605, -0.106053, -0.018656, -0.101104, -0.086908, -0.073019, 0.028355, -0.034443, -0.086459, -0.057924, -0.035979, -0.099743, -0.106195, 0.125493, -0.150387, -0.092959, -0.064606, 0.032851, -0.002965, -0.136225, -0.041750, -0.013732, 0.097964, 0.010942, -0.026090, 0.111076, 0.074764, 0.001041, 0.066693, -0.032347, -0.049971, 0.081456, 0.085687, 0.087476, -0.076531, 0.040144, 0.072739, -0.061740, -0.060102, -0.138193, 0.080267, 0.021123, 0.051434, -0.092036, 0.069591, -0.092711, 0.009970, -0.006995, -0.014288, 0.012267, 0.015187, -0.051099, 0.021958, -0.004681, 0.007720, 0.031314, 0.029048, -0.040877, -0.071507, 0.001559, 0.028728, -0.067689, 0.066578, 0.028255, -0.086646, 0.043398, -0.011273, -0.068204, -0.122990, 0.010182, 0.049734, -0.126753, 0.004235, -0.014792, -0.030219, -0.037930, 0.133899, -0.001338, -0.007914, 0.031564, 0.020087, -0.042228, -0.038726, 0.045284, 0.076560, -0.026424, 0.063257, -0.018608, -0.027373, 0.042681, -0.091270, 0.072739, -0.041911, -0.178752, 0.025775, -0.037868, 0.053971, -0.108990, 0.134402, -0.017399, 0.052789, -0.021720, 0.127445, -0.154930, -0.093678, -0.054709, 0.065490, -0.105578, 0.028363, 0.038644, -0.065637, -0.060984, -0.017924, -0.050541, -0.024998, 0.000094, 0.082278, -0.082817, 0.022546, -0.051483, -0.059514, -0.036532, 0.019060, 0.005488, 0.058681, 0.009999, 0.068319, -0.105612, 0.000248, 0.059875, -0.142426, -0.031931, -0.041050, 0.082011, 0.010703, 0.029753, 0.105504, 0.064569, -0.135077, -0.096590, 0.027526, 0.060309, 0.015943, -0.020833, -0.007358, -0.013346, 0.050156, 0.067231, 0.058609, 0.019413, -0.049715, 0.053777, -0.000880, -0.038317, 0.037254, -0.044337, 0.050429, 0.021161, -0.052500, 0.052456, -0.004570, -0.040690, 0.066709, 0.083503, -0.075604, -0.020291, -0.053880, -0.032686, -0.028597, 0.052725, 0.001147, -0.172548, 0.046792, 0.066353, -0.048688, -0.064861, -0.048235, -0.011549, -0.120355, 0.029976, 0.035826, -0.016920, -0.098936, -0.002240, -0.001673, -0.041169, -0.105389, -0.051783, -0.015913, 0.039002, -0.001357, 0.049107, 0.073755, 0.040351, -0.092531, 0.033263, 0.034560, -0.122390, 0.112037, 0.085265, -0.064735, -0.004119, -0.262016, 0.080038, 0.041566, -0.111980, -0.071560, 0.035421, -0.036686, 0.124547, 0.094412, -0.008933, -0.082907, 0.013435, -0.013619, 0.000825, -0.041720, -0.058369, 0.277599, -0.130260, 0.012053, 0.016382, 0.076567, 0.013777, -0.045476, -0.089086, -0.001236, -0.064306, 0.023625, -0.107180, 0.049917, 0.020193, 0.020964, 0.209164, 0.038838, 0.069019, 0.075766, 0.043631, 0.063358, -0.005752, 0.025100, 0.055455, -0.078814, -0.061287, -0.046507, -0.040452, 0.056512, 0.026240, -0.106134, -0.010908, -0.100818, 0.023489, 0.107727, -0.102686, -0.047070, -0.093973, 0.077894, 0.055021, -0.055932, -0.062547, 0.098742, 0.039857, 0.078121, 0.033097, 0.097846, 0.015305, -0.040037, 0.154660, -0.028781, -0.135690, 0.066874, -0.049310, -0.092206, -0.065440, -0.017112, 0.144716, 0.041519, -0.021972, 0.054877, -0.064121, -0.065509, 0.008819, -0.009000, 0.041371, -0.103379, -0.021751, 0.001772, 0.052715, -0.029577, -0.068184, 0.014296, -0.022068, -0.034342, -0.020103, -0.034188, -0.018424, -0.117078, 0.006321, -0.053106, 0.175713, 0.009935, 0.010950, 0.082995, -0.081969, -0.077018, 0.098817, 0.032848, 0.067352, 0.121519, 0.030857, -0.031527, -0.020968, 0.031298, -0.033800, 0.167881, -0.038107, 0.010840, -0.103984, 0.003296, -0.045042, 0.021166, -0.104958, -0.030301, -0.003128, 0.038721, -0.033568, 0.091755, 0.059990, -0.053074, 0.060640, 0.046019, 0.006709, -0.080540, 0.100501, 0.009809, 0.084630, 0.035063, -0.140137, 0.066073, 0.019952, 0.078105, 0.046497, -0.039039, -0.056081, -0.019899, 0.102085, -0.026501, -0.134769, -0.017923, 0.043268, 0.034830, 0.043849, -0.039185, -0.031427, -0.050359, -0.059341, 0.050059, 0.104619, -0.030776, 0.039948, 0.062222, -0.056489, 0.001332, 0.106134, 0.019226, 0.071109, 0.019898, 0.032934, 0.029215, -0.102196, -0.090926, 0.011931, -0.043930, -0.084537, -0.079709, -0.102358, -0.068232, 0.021289, -0.055250, 0.046281, 0.073941, -0.159326, -0.008287, -0.012690, 0.001598, 0.044801, 0.042024, 0.020648, 0.081412, -0.052816, -0.003467, 0.039978, 0.111896, -0.007570, -0.054204, 0.040648, -0.056243, -0.014912, 0.084599, -0.110130, 0.169222, -0.000410, -0.002040, -0.011186, -0.062535, 0.002792, 0.019391, 0.076671, 0.001033, -0.054225, -0.076547, -0.058106, 0.080715, 0.046791, -0.041656, -0.101759, -0.006539, -0.019774, -0.114513, 0.061149, 0.048312, -0.082481, 0.051994, -0.029644, 0.012881, 0.020433, -0.016528, 0.089931, -0.044118, 0.047128, 0.072456, 0.116396, -0.034202, -0.084716, 0.088305, 0.047400, -0.136295, -0.014698, 0.029854, 0.026217, -0.077088, -0.031942, 0.014555, -0.115727, 0.090903, -0.006537, 0.043551, 0.021728, -0.022698, 0.080685, 0.044376, 0.085942, -0.060296, -0.103955, -0.131348, -0.008751, -0.079045, 0.067183, 0.078243, -0.024656, -0.085803, -0.048749, 0.036583, -0.079619, -0.179480, 0.071156, 0.108535, 0.058985, 0.030883, -0.082954, 0.105949, -0.097554, -0.053556, 0.005149, -0.070092, 0.077842, -0.102559, -0.140837, -0.126067, -0.099997, -0.010395, 0.005576, -0.051498, 0.016057, 0.070427, 0.006730, 0.021854, 0.039858, -0.050410, 0.079864, 0.018942, -0.031599, -0.087583, -0.077850, -0.032768, 0.040199, -0.085791, -0.010658, 0.011405, -0.059278, 0.096100, -0.024770, 0.031848, -0.005723, -0.065953, 0.097433, -0.013809, -0.041713, -0.119591, 0.147219, 0.055238, -0.054664, 0.004363, 0.065324, -0.028155, -0.013834, -0.100053, -0.083420, 0.005332, 0.015797, 0.009076, -0.064539, -0.067891, 0.109326, -0.006639, -0.049199, -0.032129, -0.048698, -0.018407, -0.015578, -0.095716, -0.147896, -0.001975, 0.054726, -0.092586, -0.026623, -0.034292, 0.032099, -0.007513, -0.046998, 0.038554, -0.070779, 0.053881, -0.009848, -0.031460, -0.034524, -0.102748, 0.006380, -0.033721, 0.082732, -0.016270, -0.003352, 0.019372, 0.007548, -0.052903, -0.048199, -0.072746, 0.071361, 0.054003, -0.047992, -0.006509, 0.040145, 0.059091, 0.034493, -0.043437, -0.031349, 0.037770, 0.031778, -0.007591, -0.028817, 0.049571, -0.105592, -0.048334, -0.077666, -0.038064, 0.058533, -0.037664, 0.023488, 0.036370, -0.025687, 0.038959, -0.028719, -0.041006, 0.053757, -0.083225, -0.025291, 0.175511, 0.070692, -0.060037, -0.017477, -0.046512, 0.004175, -0.056214, 0.017622, 0.077711, 0.079001, 0.014928, 0.012642, 0.036199, -0.016856, -0.020699, -0.114384, 0.028785, -0.030112, -0.094894, 0.049010, -0.029719, -0.063109, -0.077134, 0.162402, 0.014301, -0.050292, -0.107207, 0.016131, 0.005849, 0.174063, -0.054329, -0.029256, -0.033420, -0.022269, 0.005742, -0.050735, 0.057603, 0.025611, -0.104290, -0.000598, -0.109352, 0.053224, -0.005724, 0.067978, 0.009784, -0.143367, -0.066816, -0.000709, 0.030146, 0.057253, -0.088705, 0.088933, -0.013982, -0.011610, -0.082511, 0.075629, -0.010839, 0.109998, -0.070412, -0.024997, -0.067626, -0.045269, 0.016899, 0.016528, 0.119258, -0.111987, 0.085761, 0.011715, -0.156992, 0.035074, -0.016466, 0.080590, -0.014283, 0.040601, -0.018136, 0.041142, 0.063695, 0.000487, 0.029627, -0.196565, 0.095110, 0.144362, 0.017689, 0.007406, 0.033705, -0.077199, -0.101280, 0.053085, 0.050913, -0.097472, 0.089395, 0.023446, -0.008220, -0.047983, -0.085736, -0.087938, -0.030979, -0.079493, 0.039746, -0.034030, -0.095374, 0.058887, -0.008439, -0.024007, 0.083340, 0.056101, 0.017869, 0.008699, 0.105427, -0.024860, 0.095420, 0.009726, -0.077732, 0.184723, -0.029161, 0.055443, -0.003232, 0.126516, 0.080293, -0.103615, -0.040403, -0.003579, -0.044243, 0.098993, -0.104945, -0.138070, -0.042281, 0.068822, -0.065741, -0.006313, 0.136558, -0.055422, -0.023878, -0.001801, 0.133608, 0.028327, -0.041515, -0.094083, 0.053499, -0.009900, 0.030521, 0.046004, -0.033471, 0.014610, -0.130003, 0.031234, 0.059939, -0.073067, 0.107870, 0.023583, 0.182573, -0.014612, 0.005896, -0.042947, -0.046635, -0.080384, 0.012452, 0.026986, 0.071188, 0.077714, -0.071942, 0.007327, 0.107166, -0.019343, -0.014424, 0.022070, -0.040775, -0.052808, 0.063741, 0.066051, 0.063296, 0.131615, 0.052224, 0.099711, 0.169729, 0.075509, -0.006251, -0.059236, 0.090047, -0.078543, 0.090459, 0.005184, -0.025226, 0.021500, 0.022132, -0.069262, 0.049633, -0.039470, 0.004259, 0.048290, -0.158239, -0.084580, 0.004550, -0.019327, -0.020036, 0.076562, -0.137756, 0.071945, -0.008814, -0.063887, -0.005137, -0.051131, 0.001913, 0.020233, -0.005326, -0.029365, -0.099119, 0.144969, 0.040679, 0.093189, -0.032114, 0.089684, 0.042228, -0.034984, -0.002188, 0.063444, -0.012688, -0.120588, 0.099135, -0.032243, -0.033102, -0.054960, 0.033353, 0.030382, -0.067328, -0.062831, 0.108744, 0.101525, 0.068209, -0.042330, 0.046544, 0.058393, -0.052773, -0.085447, 0.075472, 0.072389, 0.041909, -0.049312, 0.099522, 0.134308, -0.041255, -0.019950, 0.036127, 0.025639, 0.050220, 0.049933, 0.059781, -0.093359, -0.009670, -0.068166, -0.078708, 0.068772, 0.095644, 0.008438, 0.015475, 0.010586, -0.219607, 0.061990, 0.056017, 0.004131, 0.093427, -0.019379, 0.015478, -0.040895, -0.089637, -0.049768, 0.042062, -0.016149, 0.051301, 0.101668, -0.095560, 0.085790, -0.096672, -0.046301, 0.053331, -0.116911, -0.031102, -0.025986, 0.160430, -0.157384, 0.085599, -0.008865, -0.044282, 0.048513, 0.054031, -0.110519, 0.106200, -0.032231, 0.021592, -0.049522, 0.017282, 0.078344, -0.050626, -0.056452, 0.042373, 0.031171, 0.117303, 0.109750, 0.064630, 0.104713, 0.005268, 0.055639, 0.059937, -0.078864, 0.031889, -0.127040, 0.033336, -0.173375, 0.202361, -0.063651, 0.063606, 0.044017, -0.036110, 0.026827, -0.029440, 0.120686, 0.086586, -0.073483, 0.136758, -0.085559, 0.023660, -0.109308, 0.061021, -0.015709, 0.167853, -0.137792, 0.094430, 0.005199, 0.056041, 0.151215, 0.015297, -0.076435, 0.079012, 0.000657, -0.054147, -0.110667, -0.022123, 0.060788, 0.063893, 0.066523, -0.014294, 0.034643, -0.078597, 0.093324, 0.058027, 0.087640, -0.133583, -0.115181, 0.020641, 0.066647, 0.054926, -0.000390, 0.056179, 0.169404, -0.041817, 0.030121, 0.038646, 0.031132, 0.069330, -0.075089, -0.027946, 0.067767, 0.054791, -0.019431, -0.084043, -0.029393, -0.051041, -0.095497, 0.036808, -0.030821, 0.012201, -0.017802, 0.067213, 0.057053, 0.038546, 0.085388, 0.075324, 0.041742, 0.049289, -0.077026, 0.002866, -0.006446, -0.001533, 0.016203, 0.203292, -0.061762, 0.045399, -0.096704, -0.085677, 0.016546, -0.082478, 0.024234, 0.037838, -0.078442, -0.005646, -0.015488, -0.083028, 0.017368, -0.105491, -0.031465, 0.210006, -0.021288, 0.025223, 0.191790, -0.126707, -0.022578, -0.085955, -0.127268, 0.039506, 0.058860, 0.096655, 0.005180, 0.030873, 0.064088, -0.032927, 0.115810, 0.017878, 0.062328, -0.014858, -0.053767, 0.047118, -0.042576, -0.030292, 0.100877, -0.133208, 0.082947, 0.051048, -0.049100, 0.045580, -0.018421, -0.060463, 0.006208, 0.039906, -0.047689, 0.004370, 0.077072, -0.079745, -0.017023, 0.061730, -0.055751, 0.043999, -0.014499, -0.054469, 0.034218, 0.122996, 0.004803, 0.160425, 0.031485, -0.085371, 0.110854, 0.012992, -0.105252, -0.040099, 0.000919, -0.098540, 0.056505, -0.038004, 0.100061, -0.034447, 0.086999, 0.049162, 0.004367, -0.040664, -0.133576, -0.010734, -0.126441, 0.033288, -0.041758, 0.100166, 0.014181, -0.071707, -0.193329, 0.023075, 0.125015, -0.061402, -0.041920, -0.059913, -0.037120, -0.063239, -0.062271, 0.055140, 0.028295, -0.141261, 0.044982, -0.107642, -0.041909, -0.021559, 0.106421, -0.002407, -0.010626, 0.086292, 0.050117, -0.109760, -0.009995, -0.089354, -0.034635, 0.128281, -0.123074, -0.045000, 0.027613, 0.017733, 0.030610, -0.067696, -0.036151, 0.027271, 0.037055, 0.030693, -0.117243, 0.014191, 0.072384, -0.070384, 0.002770, 0.063973, 0.062682, -0.045336, -0.024214, -0.093240, 0.033857, -0.099695, 0.065784, 0.122308, 0.121233, -0.006471, -0.055739, -0.041949, 0.011557, -0.044889, -0.035090, 0.221626, -0.131218, 0.035567, 0.166423, 0.001496, 0.078369, -0.142125, 0.058816, -0.079337, 0.083758, -0.114977, -0.029687, -0.053761, 0.019872, 0.044259, 0.086845, -0.070760, 0.088475, 0.063956, 0.067489, 0.014552, -0.084215, 0.021105, -0.074260, -0.044623, -0.038010, -0.112646, -0.016038, -0.114383, 0.068989, -0.080576, 0.080007, 0.057846, 0.122580, 0.063879, -0.064409, -0.102602, -0.023698, 0.037729, -0.020821, 0.037244, 0.062173, 0.056461, -0.054771, 0.053322, -0.039474, -0.095501, -0.018895, -0.043655, 0.012897, -0.091846, -0.099057, -0.038455, -0.012524, -0.012222, -0.075412, 0.102429, -0.074682, 0.076668, -0.050511, -0.103283, -0.002480, -0.062759, -0.030521, -0.051931, 0.049773, 0.012468, -0.034247, -0.021720, -0.065314, -0.025238, -0.053113, 0.034006, -0.081058, 0.016743, -0.075134, 0.046205, 0.083875, -0.011267, 0.089898, -0.093619, 0.029269, 0.071136, 0.041004, 0.025885, -0.099018, 0.041683, 0.002070, -0.009698, -0.040165, 0.083416, 0.029895, -0.006549, 0.070197, -0.038508, 0.179511, -0.008945, 0.059224, 0.041273, -0.100766, 0.084754, 0.040313, 0.043554, -0.036636, -0.094837, -0.082690, 0.002004, 0.011158, 0.085872, -0.052451, -0.047478, 0.001528, -0.086970, -0.065570, 0.076482, 0.007192, -0.032255, -0.009063, -0.060588, 0.043832, -0.107758, 0.087449, -0.058396, 0.089093, 0.047236, 0.107163, 0.050387, 0.118853, -0.052020, -0.010459, -0.059090, -0.092266, -0.048445, 0.034751, 0.013077, 0.026658, -0.082598, 0.000646, 0.051884, 0.070150, 0.061909, -0.023943, -0.112118, -0.088970, 0.062962, -0.002577, 0.022063, 0.106204, -0.121415, 0.051369, -0.029734, -0.035113, 0.176970, 0.023461, -0.022715, -0.004244, -0.065215, 0.075973, -0.031428, -0.099858, 0.047788, -0.049314, 0.021138, -0.026111, 0.027214, 0.007810, 0.093060, 0.004908, 0.011708, -0.010108, -0.058982, -0.052722, -0.097053, 0.023402, -0.056785, -0.023885, 0.101652, -0.073651, -0.018597, -0.001237, -0.184518, 0.171357, -0.058395, 0.064220, -0.066803, -0.138114, -0.028275, -0.019458, 0.059138, -0.064031, -0.078059, 0.120678, 0.070977, 0.042615, -0.088062, 0.029990, 0.044121, 0.025754, 0.116834, 0.152043, -0.041557, -0.147227, 0.017364, -0.002325, -0.052267, -0.020179, 0.050573, -0.019862, -0.027067, -0.207841, -0.112442, -0.038488, -0.027097, -0.075745, 0.009538, 0.011150, 0.082089, -0.086183, 0.044557, 0.135813, 0.121165, -0.003712, -0.010598, -0.051415, -0.010729, 0.098784, 0.105097, 0.078562, 0.085626, 0.054953, 0.016094, 0.006479, 0.042220, 0.041853, -0.096350, 0.144866, 0.038659, -0.103015, -0.025910, -0.072955, -0.053937, 0.031282, 0.033395, 0.055150, -0.011875, 0.048990, 0.141442, 0.016511, -0.072043, -0.083458, 0.086261, -0.031247, -0.040637, 0.048560, -0.071921, 0.038904, -0.045345, 0.037392, 0.035050, -0.155978, -0.060423, 0.090039, -0.067768, -0.161457, 0.065470, 0.119017, 0.056399, -0.040403, 0.002096, -0.049788, 0.054440, 0.065135, -0.056129, -0.117141, 0.113288, 0.022316, -0.089357, 0.109285, 0.072190, 0.108483, 0.184387, -0.088732, 0.076239, 0.102192, 0.008553, 0.036915, 0.035274, -0.010086, -0.058646, -0.010843, 0.043834, 0.004324, 0.180252, -0.060322, -0.042688, 0.035275, -0.003925, 0.007252, 0.042557, 0.040634, 0.069564, 0.026498, 0.067564, -0.022503, -0.081374, -0.026997, -0.028604, 0.092701, -0.064894, -0.035429, 0.054803, -0.027064, -0.039130, -0.048204, -0.075619, -0.022248, -0.112530, -0.050375, 0.044589, -0.085602, -0.071987, -0.031904, -0.026715, 0.074411, -0.060565, -0.033587, -0.014443, 0.036134, 0.041643, 0.079036, 0.048490, 0.072637, -0.066946, 0.087797, -0.099649, 0.113110, 0.005750, 0.074685, -0.115568, 0.060495, 0.057840, -0.059957, -0.027774, -0.023111, 0.009350, 0.076710, -0.006227, -0.020348, 0.043733, 0.069055, -0.136570, -0.077146, 0.106684, -0.044468, 0.010920, -0.059829, 0.057146, -0.054298, 0.021997, 0.046805, -0.009610, -0.057413, 0.014168, -0.016547, -0.044268, 0.085730, 0.018008, -0.074318, 0.260504, -0.054058, -0.073171, -0.014403, -0.070149, -0.043872, -0.001630, -0.020543, 0.131342, 0.056754, 0.007656, 0.072034, 0.077293, 0.014925, 0.087538, 0.009122, -0.151993, 0.002904, -0.142909, 0.072119, -0.021975, 0.008441, -0.040616, 0.005755, -0.075992, 0.015406, -0.063793, 0.056385, -0.013751, 0.107669, -0.004565, 0.077715, -0.026875, -0.076054, -0.065973, -0.014551, 0.096740, -0.047869, 0.046152, -0.013699, -0.017137, -0.087212, 0.066452, 0.005965, 0.044128, -0.011045, 0.022774, 0.034438, 0.004963, 0.057929, -0.061459, 0.152027, -0.115958, -0.087718, -0.012762, 0.049650, 0.056056, 0.043263, 0.011805, 0.103866, 0.022769, -0.067229, 0.182969, -0.024589, -0.022235, -0.035836, 0.013539, -0.042160, 0.153453, -0.141728, 0.041673, 0.002152, 0.057989, 0.090864, 0.029008, -0.030426, -0.002684, 0.009830, -0.025950, 0.014385, -0.001174, -0.058999, -0.020562, -0.089600, -0.068991, 0.000906, -0.026609, -0.022215, -0.056475, 0.026257, -0.015547, -0.000552, 0.011072, 0.066506, 0.054044, 0.000776, -0.057927, 0.132052, 0.006060, -0.116539, 0.024950, -0.077856, -0.001937, -0.017572, -0.100435, 0.067783, -0.031671, -0.061483, -0.039173, 0.004082, 0.032507, -0.083769, 0.124484, -0.072871, 0.022910, -0.062741, -0.080018, -0.012459, 0.042435, 0.002443, 0.070363, 0.047711, 0.018339, -0.080537, 0.027030, 0.051653, 0.066224, 0.032361, 0.048573, 0.009568, 0.031123, 0.008727, -0.065823, -0.071772, 0.071070, 0.022807, 0.072425, 0.135536, 0.071856, 0.094153, -0.000826, -0.084061, -0.017747, -0.073588, 0.267041, -0.081492, 0.065287, -0.148518, -0.040286, -0.046153, -0.016675, 0.146646, -0.076398, -0.059570, -0.035165, -0.018608, -0.062160, 0.049820, 0.045493, 0.178394, -0.021006, 0.071382, 0.032924, -0.071982, 0.051083, 0.095949, 0.001801, -0.009888, -0.005070, 0.009357, 0.068320, 0.044834, 0.052671, -0.069583, -0.011767, -0.107786, -0.040907, 0.032577, 0.022909, -0.020491, -0.012678, -0.076069, -0.002536, -0.033339, -0.087528, -0.009140, -0.037142, 0.007318, -0.070223, 0.041344, 0.033820, 0.029350, 0.030326, -0.059948, -0.089295, -0.017517, 0.159170, -0.094245, 0.063437, -0.102137, -0.052543, 0.076090, -0.075754, 0.002242, -0.068305, 0.066739, -0.043487, 0.024765, 0.001897, 0.004057, -0.147296, 0.058119, -0.135131, -0.119995, 0.086239, -0.016101, -0.044986, 0.084787, -0.105107, -0.088624, -0.000855, 0.134267, 0.066923, 0.027883, -0.086278, 0.070807, -0.050945, -0.031734, 0.058521, -0.051394, -0.001113, 0.017333, -0.040226, 0.022352, 0.028562, -0.097126, -0.007005, 0.034297, 0.051333, -0.021890, 0.137855, -0.106395, -0.001108, 0.051017, -0.027066, -0.053851, -0.088245, 0.030262, 0.008297, -0.038559, 0.126650, 0.015059, 0.022512, -0.087017, -0.020264, -0.060283, 0.102853, -0.010632, -0.038538, -0.081665, -0.096409, -0.006489, 0.003444, -0.118097, -0.067747, -0.013509, -0.027016, 0.024892, 0.014892, -0.106894, -0.083881, -0.060640, 0.080161, 0.019554, -0.036536, -0.137587, 0.006578, -0.100711, -0.027206, 0.111671, -0.046478, 0.054996, 0.008755, -0.023759, 0.023945, 0.149430, -0.017172, 0.013462, -0.036126, 0.021653, 0.024001, 0.013556, 0.133668, 0.057434, 0.059546, 0.063450, -0.005396, 0.024596, 0.115506, 0.044517, 0.015611, -0.021326, 0.031128, -0.021896, 0.009449, -0.019422, 0.042520, 0.031618, -0.003124, -0.095353, 0.027656, -0.023248, 0.018752, -0.006271, 0.058181, 0.035513, -0.077174, 0.009133, 0.102983, -0.001155, -0.056026, 0.154759, -0.025559, -0.146850, 0.190490, -0.022584, 0.043062, -0.053233, -0.031125, 0.018171, -0.041571, -0.025069, 0.057749, 0.099609, -0.040344, -0.084032, -0.085493, -0.012254, 0.032198, -0.017943, 0.035362, -0.064983, -0.037596, -0.022601, -0.090731, 0.092567, -0.002597, -0.034527, 0.056937, 0.051725, -0.020015, 0.054819, -0.075311, 0.139039, -0.067946, -0.001538, 0.096259, 0.029408, -0.073395, 0.017132, 0.044492, 0.029636, -0.074688, -0.048250, -0.038441, -0.020321, -0.027597, 0.043343, 0.148028, -0.044511, -0.015861, 0.005061, -0.024901, 0.091173, 0.012188, 0.069812, 0.045690, -0.023957, 0.064771, 0.022723, -0.069762, -0.127665, -0.107128, -0.013405, 0.171282, -0.042949, -0.023839, -0.019535, 0.011561, 0.078728, -0.154440, -0.079502, 0.115688, 0.046427, 0.022393, 0.014181, 0.001781, -0.061937, 0.013332, 0.077894, 0.015948, 0.044347, -0.038491, 0.036627, -0.011972, -0.002294, -0.093699, 0.165676, -0.028065, 0.015337, -0.014943, -0.007257, -0.008276, 0.120150, 0.106465, 0.037775, -0.007966, 0.010842, 0.062960, 0.026772, 0.037528, 0.043078, -0.066232, 0.048859, -0.063220, -0.067805, 0.094773, 0.016566, -0.072078, -0.009588, -0.105950, 0.023243, -0.074430, 0.004862, -0.049973, 0.078237, -0.033665, 0.001453, -0.007313, -0.049024, 0.096073, 0.056989, -0.031374, 0.072549, 0.128210, -0.072292, 0.132988, 0.052077, -0.121778, 0.086721, -0.095164, -0.010291, 0.191886, -0.023121, -0.022195, -0.055543, 0.022971, 0.013054, -0.044076, -0.043420, 0.031176, -0.030883, 0.088648, -0.035954, -0.039001, 0.026518, 0.062608, -0.066141, 0.107758, -0.025359, 0.037355, -0.148151, -0.014808, 0.001697, -0.053228, 0.017682, 0.004447, 0.105475, 0.050384, 0.034219, -0.016814, 0.252265, -0.172018, 0.022141, -0.067914, -0.006995, 0.009315, 0.094865, -0.009517, 0.022568, 0.026401, -0.084386, -0.016690, -0.055692, -0.053205, -0.110279, 0.089975, -0.129677, 0.065235, -0.019408, -0.020030, -0.077740, 0.044764, -0.090607, 0.036062, 0.026289, 0.084139, 0.061484, 0.020228, 0.080808, -0.004812, -0.007347, 0.197982, 0.030604, -0.090946, 0.109127, 0.059924, -0.015222, -0.123168, -0.029604, 0.040179, 0.119586, 0.015031, -0.008079, 0.034593, -0.113827, -0.027588, 0.077439, 0.210908, 0.014765, -0.084702, 0.196520, -0.057689, -0.078403, -0.086453, 0.037274, -0.063733, -0.041084, -0.053351, 0.064351, 0.030579, 0.095029, -0.081181, 0.010462, -0.001428, 0.038632, 0.007930, 0.119962, 0.093424, -0.018833, -0.062829, -0.046425, -0.027796, -0.000106, -0.058724, -0.052239, -0.121493, -0.067753, -0.078102, 0.068037, 0.078403, 0.026327, -0.006905, -0.030596, -0.086118, -0.012136, -0.034205, -0.002092, -0.018071, -0.092425, -0.037050, 0.029286, 0.022822, -0.000251, 0.118590, -0.132862, -0.084281, 0.115303, 0.033657, 0.014613, 0.047476, -0.111634, 0.140074, 0.025649, 0.009696, -0.058422, -0.099986, -0.024109, 0.033106, -0.048759, 0.079433, 0.145566, 0.021405, -0.001291, 0.070285, -0.059671, -0.074221, 0.043885, 0.006487, -0.032706, -0.041690, 0.087543, -0.053273, -0.051306, 0.010261, 0.124873, 0.019265, 0.083183, -0.070844, -0.008787, 0.001865, -0.049468, 0.138005, 0.071285, -0.084382, -0.016393, 0.124953, 0.049922, -0.035783, 0.021388, -0.088423, 0.083828, -0.065895, 0.006681, 0.140451, -0.091696, 0.003958, -0.024260, 0.056455, -0.062621, -0.075902, 0.078795, 0.096670, 0.038403, 0.067490, 0.004563, -0.086007, -0.076107, -0.010881, 0.020358, 0.137307, 0.042080, -0.063026, 0.055145, -0.019705, 0.012450, -0.053544, -0.119192, 0.028052, -0.000181, -0.009223, -0.110854, 0.044951, 0.005396, 0.003738, -0.062762, -0.090787, -0.031107, 0.010795, -0.057679, 0.023426, -0.084605, 0.053329, 0.062564, -0.028447, -0.122092, -0.050836, -0.004763, 0.092910, 0.115312, 0.038769, 0.042121, -0.023733, -0.035547, -0.093482, -0.080795, -0.012627, 0.087830, -0.012311, 0.056392, -0.023938, -0.037261, 0.037845, 0.037903, -0.015613, -0.142453, -0.105387, 0.018013, -0.037066, -0.090125, -0.069955, 0.092901, -0.004814, -0.063686, -0.046353, 0.079900, 0.032388, 0.036163, 0.034256, -0.065191, 0.017723, 0.017121, 0.102934, -0.049271, -0.109795, 0.091172, -0.045056, 0.026298, 0.053514, -0.108149, -0.102435, 0.028430, -0.021026, -0.049424, -0.037935, -0.068139, 0.069483, 0.066060, 0.058204, -0.057108, 0.046436, -0.011090, 0.098102, 0.102718, 0.078810, -0.043571, -0.122666, -0.025897, -0.123532, 0.179871, -0.038856, 0.025549, 0.004552, -0.088021, -0.041493, -0.091732, -0.000463, 0.099581, -0.115173, 0.069952, -0.099643, 0.097953, 0.049913, -0.095248, -0.015482, 0.021664, -0.095365, 0.031413, -0.124338, 0.080054, 0.038028, -0.112233, 0.082680, -0.028288, 0.048726, -0.002672, -0.019940, 0.023210, 0.048573, -0.023730, -0.085303, 0.058593, 0.111578, 0.003809, -0.075432, -0.035920, 0.075620, 0.032311, 0.165734, 0.005442, 0.000250, -0.076915, -0.040265, 0.056250, -0.102121, -0.029425, 0.082996, -0.059177, -0.018162, -0.029465, -0.004928, -0.071213, -0.011821, -0.028913, 0.193708, 0.059331, -0.104037, 0.101288, 0.006066, -0.030303, -0.053668, 0.156990, -0.004757, 0.036243, 0.075772, -0.033847, -0.090172, 0.014390, 0.039466, 0.035477, 0.082863, -0.121801, -0.047955, 0.013743, 0.028298, -0.054191, -0.104690, 0.041086, 0.036226, 0.030342, 0.017275, -0.059725, -0.064000, -0.061082, 0.056627, 0.077453, 0.092956, 0.149949, -0.088570, 0.138951, -0.067795, 0.008730, -0.023935, 0.054845, -0.034773, -0.033205, -0.013498, -0.071534, 0.041711, 0.086961, 0.170111, 0.009977, -0.097178, -0.030035, 0.090212, 0.120250, 0.083248, -0.069930, 0.024263, 0.110754, 0.102147, -0.002450, -0.014722, -0.079947, 0.022250, 0.055487, 0.061369, -0.041705, 0.058175, 0.040329, 0.021955, 0.035283, -0.064315, 0.119035, 0.110864, -0.032011, -0.054280, -0.012514, -0.144553, -0.026793, 0.005150, -0.103770, 0.030778, 0.066748, -0.075702, 0.070096, 0.036316, 0.094282, 0.018519, 0.091575, 0.048976, 0.006591, -0.005587, 0.017867, 0.043498, -0.068175, -0.062391, -0.045640, -0.116397, -0.109674, -0.042081, -0.092997, -0.017449, 0.014717, -0.026517, -0.103291, 0.020326, 0.062907, -0.018338, 0.019179, 0.054931, -0.083900, 0.014045, 0.117378, 0.057422, 0.002997, 0.027706, 0.029948, -0.094062, -0.132497, 0.064303, 0.075287, -0.003508, -0.051658, -0.003355, 0.021032, -0.088416, -0.038479, 0.032754, -0.019131, 0.003189, -0.016145, 0.092534, 0.077290, -0.003146, 0.029746, 0.002596, -0.022460, -0.001788, -0.064774, -0.041081, -0.043726, -0.026060, 0.039025, -0.107899, 0.079376, -0.014824, 0.094512, 0.004292, 0.028613, 0.037393, -0.010021, 0.044830, -0.059253, -0.001678, 0.053211, -0.125613, 0.060042, 0.024159, 0.006361, -0.023827, -0.099475, -0.042607, 0.037217, -0.090254, -0.038220, -0.075317, 0.004415, -0.145191, 0.133840, 0.017787, 0.052178, 0.019437, 0.015483, 0.039551, -0.108060, 0.036400, 0.065414, -0.067558, 0.091309, 0.050071, -0.152149, -0.007308, -0.048934, -0.012844, 0.022564, 0.031447, -0.042673, -0.014571, -0.099429, 0.042046, -0.028522, 0.003106, 0.116896, 0.087969, 0.126692, 0.042237, 0.062817, 0.113631, -0.018772, -0.049457, 0.043728, 0.054645, 0.180011, 0.035634, -0.044727, -0.002337, 0.030666, -0.025829, 0.088505, 0.012193, -0.066703, -0.002584, -0.050194, 0.128186, 0.020368, -0.049546, 0.065119, 0.050849, -0.036636, 0.095296, -0.028983, 0.117177, 0.075750, 0.107505, -0.039437, 0.028649, 0.108955, -0.015692, 0.122926, 0.086056, 0.083066, 0.006409, -0.064826, 0.016118, 0.078244, -0.036058, -0.085419, 0.042323, 0.093303, -0.025827, -0.036347, 0.015371, 0.062475, -0.102707, 0.070292, 0.043019, 0.017544, -0.004385, 0.004924, 0.072845, 0.066110, -0.056557, -0.054237, 0.088601, -0.037247, 0.058554, 0.012394, 0.014180, -0.011584, -0.145246, 0.057836, 0.097022, -0.123773, 0.046281, 0.040157, 0.124509, -0.161162, 0.118398, 0.060910, -0.038316, 0.002351, 0.035405, -0.077707, 0.030027, -0.127853, 0.035879, 0.024486, 0.087440, 0.037096, -0.006693, -0.061866, -0.038247, 0.008612, 0.116168, 0.070897, 0.045663, 0.011294, 0.032255, 0.087862, -0.001617, -0.019630, 0.119971, -0.034395, 0.025311, -0.025250, 0.172631, 0.017422, 0.024820, 0.072423, -0.062024, 0.049204, 0.074946, 0.039216, 0.019925, -0.013987, -0.102471, 0.003898, 0.061867, -0.007648, -0.005447, -0.111664, -0.043691, -0.010130, -0.051323, -0.029288, 0.026169, 0.049265, 0.092453, -0.061189, -0.002393, -0.003444, -0.051633, 0.033369, -0.068504, 0.010335, 0.010541, -0.061308, -0.018836, 0.028218, -0.087513, 0.033760, -0.050634, 0.005365, 0.018976, 0.052329, -0.119969, 0.111222, -0.117936, -0.059238, 0.008894, -0.109725, -0.001224, 0.081512, -0.043498, -0.146743, 0.001177, 0.001010, -0.018464, 0.069748, 0.074826, -0.020412, 0.013565, -0.020120, 0.035104, 0.007090, 0.009245, -0.137085, -0.067182, 0.031706, 0.003712, 0.071363, -0.047859, -0.093263, 0.042281, -0.012168, -0.010052, -0.156718, 0.032601, -0.004809, 0.049125, 0.033506, -0.045619, -0.022353, -0.121865, 0.055333, 0.076447, 0.020889, -0.017755, -0.013273, 0.022837, -0.004840, -0.123861, 0.103038, -0.024473, -0.151462, -0.027298, -0.030062, -0.109654, -0.051215, -0.067868, -0.039482, 0.026436, 0.034565, 0.018917, 0.012588, 0.037502, -0.070878, -0.108546, -0.061214, 0.020386, 0.135871, -0.070127, -0.068370, 0.074895, -0.009317, 0.033080, 0.095563, -0.043794, 0.011651, 0.039369, -0.104021, -0.034759, 0.065281, -0.072397, 0.065236, 0.036718, 0.085907, 0.058237, 0.044313, -0.049302, 0.004883, 0.027726, -0.000543, 0.030960, -0.009659, 0.080031, 0.087195, 0.099509, 0.019056, 0.060962, -0.022341, 0.062099, 0.056830, 0.152338, 0.047239, 0.047846, 0.129691, -0.021038, 0.044691, 0.145294, -0.013737, 0.045319, -0.000390, -0.075302, 0.134425, -0.065241, -0.036623, 0.078672, 0.026825, -0.057700, -0.048651, 0.015573, 0.015003, 0.032485, -0.037483, 0.035237, -0.077740, -0.065259, -0.117091, -0.044305, 0.011256, -0.083466, -0.015317, 0.040714, 0.067536, 0.033795, 0.050693, 0.053123, 0.116082, -0.140843, 0.017170, 0.095582, -0.017836, -0.034251, 0.113411, -0.074492, 0.000687, 0.074320, -0.053465, -0.044278, 0.083327, 0.033276, -0.029512, 0.149545, -0.134606, -0.016783, -0.109387, -0.003077, -0.001824, -0.097595, 0.011371, 0.049646, 0.087083, 0.094151, -0.054080, -0.082677, 0.053997, 0.066108, -0.016454, 0.056827, -0.076154, -0.002903, -0.033015, -0.041248, 0.044487, -0.057276, -0.098914, 0.006634, 0.017861, 0.000240, 0.020361, -0.076576, -0.080627, -0.044653, 0.070557, 0.178059, 0.086358, -0.014687, 0.058194, 0.063733, 0.031176, 0.009591, 0.057892, -0.108951, 0.055205, 0.090790, 0.058841, -0.017586, 0.119259, -0.046964, 0.103907, -0.044969, 0.040645, -0.040616, 0.100167, -0.019481, 0.067885, -0.004680, -0.019540, -0.057927, 0.021444, 0.054501, 0.010394, -0.049755, 0.010898, 0.026237, -0.077490, -0.002510, 0.102659, 0.015811, 0.081444, -0.126180, -0.007251, -0.033063, 0.108781, -0.057130, 0.070348, 0.063137, 0.018564, 0.011225, 0.059010, 0.001855, -0.011072, 0.016505, 0.070375, -0.014461, -0.073701, 0.045626, -0.122010, 0.027171, -0.038846, -0.117761, 0.014635, -0.000887, 0.036164, 0.074808, 0.055545, 0.062255, 0.074592, -0.075703, -0.015062, 0.050293, -0.047725, 0.024052, -0.033919, -0.062428, -0.065345, -0.016997, -0.078396, -0.032262, -0.033918, -0.027990, 0.014652, -0.075977, -0.006887, -0.087273, 0.005766, 0.007674, -0.020692, -0.003763, 0.030820, 0.016416, 0.038275, -0.021637, 0.091917, -0.047305, -0.023174, 0.010263, -0.068992, 0.058853, -0.050687, -0.030088, -0.071540, 0.010619, 0.045472, 0.069017, -0.027386, 0.090008, 0.053373, 0.022856, -0.006108, 0.119000, -0.082487, -0.010064, 0.133975, -0.029418, 0.060068, 0.088234, -0.045700, -0.099088, -0.020257, -0.023503, 0.105924, -0.130689, -0.021009, -0.015367, -0.109150, -0.042952, 0.055223, -0.069334, -0.125402, 0.048856, 0.096606, -0.130474, -0.052996, -0.127311, -0.054113, 0.049972, 0.054392, -0.105363, 0.134328, -0.078261, 0.030938, 0.011443, -0.038497, 0.047670, 0.010683, -0.049436, 0.018918, -0.030656, -0.084312, 0.036368, -0.045410, 0.007869, 0.012635, -0.013090, -0.125653, -0.223670, 0.054630, -0.154475, 0.049415, -0.036087, 0.092829, 0.006495, 0.009956, -0.056118, -0.094702, -0.037499, 0.089953, -0.028650, -0.031786, -0.031438, 0.065501, 0.054030, -0.009699, 0.086451, 0.029066, 0.047805, -0.081190, 0.117394, -0.006775, -0.026958, 0.204499, -0.095480, -0.042513, 0.189263, -0.021762, -0.045313, 0.052200, 0.022678, 0.178480, -0.083640, -0.065341, -0.047242, -0.054966, 0.089530, -0.049675, 0.045603, -0.081885, -0.030144, 0.069578, 0.105522, 0.077961, -0.020129, -0.141061, 0.028865, 0.029947, -0.057284, 0.037028, 0.019657, 0.096500, -0.093517, 0.013980, 0.006974, 0.232234, -0.091188, -0.073818, 0.038687, -0.058829, 0.028675, 0.081208, 0.028334, -0.006807, 0.066063, 0.054294, -0.067406, 0.014571, -0.080450, -0.119058, 0.184492, -0.093518, -0.006014, -0.065818, 0.021570, -0.021967, -0.004757, -0.035299, 0.001284, 0.046043, 0.110067, -0.077371, -0.071786, 0.118523, -0.000634, 0.032261, 0.229193, 0.034757, -0.123078, 0.002566, 0.022661, -0.017068, -0.103028, -0.047274, 0.163998, 0.036644, 0.072823, -0.078996, 0.041327, -0.017449, -0.029884, -0.082842, 0.234664, -0.040026, 0.044009, 0.098114, -0.076877, 0.040721, -0.092031, 0.094128, -0.108883, 0.017602, -0.015913, 0.028934, 0.026760, 0.096115, -0.019499, 0.083619, -0.080959, 0.106327, -0.047955, 0.056742, 0.066887, -0.012282, 0.033965, -0.023582, -0.032503, -0.052135, 0.076398, -0.072039, -0.090417, -0.050512, 0.049889, 0.003636, 0.099724, 0.049035, 0.078328, 0.093736, -0.159042, 0.098074, 0.010226, -0.016445, -0.042679, -0.069487, -0.101742, 0.060116, -0.081451, 0.039128, 0.079488, -0.052211, 0.017114, -0.023623, -0.044489, 0.059584, 0.035772, -0.060913, -0.144877, -0.017546, -0.037802, -0.144782, 0.005282, 0.028669, 0.038174, -0.124494, 0.026701, 0.092122, -0.028641, -0.091567, -0.075639, -0.107590, 0.061366, -0.090784, 0.013237, 0.031246, -0.071137, 0.133893, 0.000714, -0.042115, -0.052121, -0.061155, -0.016084, 0.052728, -0.021703, -0.130774, -0.063617, -0.128224, 0.009332, -0.114496, -0.116793, -0.046595, -0.012194, -0.023840, -0.024224, -0.067392, -0.002154, -0.014621, -0.059791, -0.066286, 0.129278, -0.077481, -0.007878, 0.018401, 0.003867, 0.026027, -0.069872, -0.015886, -0.025062, -0.026831, 0.037713, -0.100150, -0.053571, -0.006337, -0.112975, -0.021699, -0.119552, -0.003249, -0.038478, 0.046470, -0.047520, 0.044382, -0.024906, -0.083871, -0.109858, 0.043149, -0.074936, 0.065016, 0.075109, -0.005298, 0.024814, 0.064103, 0.012255, -0.069300, -0.014677, -0.012680, 0.022566, -0.050553, 0.041177, -0.006595, 0.050833, -0.145934, -0.045991, -0.052627, -0.068473, 0.111731, -0.057605, 0.049316, -0.003846, 0.013967, -0.014740, -0.048907, 0.029438, -0.040204, -0.046135, -0.047928, 0.030311, 0.024202, -0.037936, 0.030506, 0.067689, 0.051881, -0.157144, -0.017882, -0.079887, 0.005526, 0.056715, -0.008538, 0.018846, 0.045948, -0.009049, 0.051666, 0.027727, -0.087196, 0.056404, -0.000839, -0.037107, -0.116189, -0.036239, -0.126411, -0.043571, -0.050559, -0.042535, -0.024151, 0.110149, -0.039922, 0.121325, 0.013939, -0.020923, -0.036949, -0.072516, 0.070693, -0.079653, 0.073066, 0.070695, -0.030180, -0.038219, -0.040724, 0.003972, 0.077350, -0.032980, -0.045985, 0.059245, 0.011334, -0.073786, 0.110917, 0.023633, -0.085390, 0.054785, 0.081767, 0.056352, 0.016282, -0.097952, 0.139615, 0.033438, 0.006214, 0.016429, 0.087212, 0.003561, -0.007211, -0.034288, 0.101694, -0.046751, -0.119664, -0.107851, 0.046067, -0.053550, -0.009432, 0.055463, -0.078687, 0.002410, -0.025515, -0.015162, 0.036514, 0.039672, 0.018982, -0.050603, 0.067716, -0.057142, 0.023418, -0.043609, -0.056828, -0.085671, 0.023117, 0.259541, 0.051427, -0.064165, -0.071207, -0.034707, 0.000432, -0.112639, -0.063635, 0.130775, 0.082037, -0.029627, -0.008253, -0.018195, -0.098425, -0.032496, -0.098238, -0.017520, 0.039813, -0.061577, -0.042540, -0.033587, -0.034761, -0.060325, 0.087100, -0.103899, 0.014594, 0.051421, -0.021385, -0.016042, -0.013166, 0.000839, 0.108411, 0.021505, -0.037452, -0.042058, -0.087529, -0.020173, 0.063169, -0.088849, 0.037956, -0.113689, 0.035228, 0.106161, 0.002643, -0.030022, -0.081394, 0.069330, -0.061158, -0.026877, -0.007661, 0.001998, 0.115434, 0.027336, 0.098798, 0.005674, 0.090028, 0.006455, 0.024905, 0.036079, -0.128997, 0.003081, 0.004102, -0.194727, -0.025943, -0.005270, -0.169933, 0.018346, 0.015660, 0.010781, 0.074126, -0.035551, -0.041710, 0.146682, -0.101210, -0.039952, 0.038920, -0.008587, -0.027564, -0.037928, 0.099529, 0.020072, 0.107459, 0.087303, -0.026416, 0.022190, -0.035375, -0.085559, 0.017103, 0.072817, -0.083909, -0.058548, 0.008688, -0.058869, 0.045734, 0.028010, 0.002990, 0.044763, -0.095211, 0.147620, 0.105689, 0.010308, -0.020353, -0.055340, -0.016183, -0.120277, -0.069770, 0.041784, -0.024290, 0.033349, -0.003963, 0.067679, 0.206146, -0.124058, 0.003263, -0.010360, -0.059260, -0.094160, -0.011669, 0.034690, 0.051238, -0.031821, -0.083177, 0.028358, -0.017846, 0.083030, 0.022517, 0.019583, 0.053900, -0.196041, -0.033672, 0.047603, -0.007343, 0.042501, 0.057017, 0.047756, 0.020492, -0.017018, -0.001757, -0.099830, -0.022002, 0.075503, 0.015166, 0.056322, 0.100904, -0.186357, 0.027410, -0.013319, 0.013470, -0.008301, 0.026964, 0.067301, -0.016303, -0.002496, -0.005882, -0.041888, -0.013841, 0.005083, 0.015500, -0.020954, -0.086742, 0.084365, -0.022925, 0.015192, 0.076543, -0.023345, 0.048082, -0.007281, -0.062928, 0.161428, 0.040136, -0.004775, 0.064387, 0.092476, 0.090968, 0.035426, 0.082579, 0.014834, -0.075231, -0.010163, 0.052298, 0.127670, -0.008520, -0.048906, 0.036592, -0.022053, 0.077904, 0.036508, 0.074991, 0.074503, 0.028568, 0.003414, -0.050626, 0.002555, 0.028358, -0.018081, -0.078544, 0.020364, 0.030746, 0.090429, -0.116884, -0.079874, 0.059921, -0.107757, 0.093593, -0.066114, 0.075345, 0.089546, -0.137380, -0.038705, 0.033939, -0.007903, -0.027803, -0.044442, -0.016907, -0.075644, 0.006438, -0.034688, -0.001762, 0.041623, -0.032741, -0.046546, 0.091323, -0.049976, -0.071736, -0.026218, 0.165649, 0.034172, -0.078052, 0.070315, -0.048712, -0.026955, 0.092786, 0.031668, -0.097157, -0.127701, -0.073293, -0.029210, 0.040196, -0.040237, -0.120823, 0.111353, 0.048575, 0.113357, 0.007459, 0.008207, 0.068795, -0.033773, -0.057806, 0.104163, -0.095390, -0.081364, -0.022509, 0.032380, 0.085165, 0.008486, 0.091619, 0.115001, -0.036212, -0.072920, 0.107317, 0.071209, -0.018991, 0.025416, -0.091977, 0.124234, 0.059632, -0.039682, -0.103600, -0.026832, -0.072724, -0.035034, -0.019618, 0.135206, -0.046593, -0.089394, 0.128852, -0.060924, -0.112040, -0.164966, 0.157595, 0.059032, 0.052874, 0.061501, -0.050157, -0.025567, 0.063108, 0.073141, 0.064064, 0.015769, -0.035514, -0.081435, 0.044898, 0.083972, -0.023763, 0.105234, -0.055467, -0.040737, 0.046606, -0.057635, -0.028458, -0.056091, -0.027722, 0.031448, -0.045767, -0.007239, 0.009471, -0.012492, 0.082593, -0.007579, -0.036774, 0.054874, 0.013508, 0.017489, 0.052932, 0.050359, -0.001258, -0.094949, 0.084158, -0.144948, -0.023619, 0.125398, -0.041052, -0.079380, -0.090227, -0.132233, 0.021095, -0.105301, 0.025788, -0.005129, -0.107708, 0.041332, -0.011579, -0.038326, 0.021834, 0.039098, 0.157992, 0.098342, -0.054257, 