//Numpy array shape [128, 128]
//Min -0.263556122780
//Max 0.286506682634
//Number of zeros 0

#ifndef W5_H_
#define W5_H_

#ifndef __SYNTHESIS__
fc2_weight_t w5[16384];
#else
fc2_weight_t w5[16384] = {0.0023260870948434, -0.0065534464083612, -0.0077643664553761, -0.0844741016626358, -0.0001241400750587, -0.0402439683675766, 0.0422657839953899, -0.0325938016176224, 0.0410041622817516, 0.0683004185557365, -0.0280364267528057, 0.0566595792770386, 0.0023081605322659, 0.0558255761861801, 0.0127099342644215, 0.0615032352507114, 0.0114502478390932, 0.0621648170053959, 0.0677881464362144, -0.0143049443140626, -0.0776688754558563, -0.0246315486729145, 0.0332281365990639, -0.0345623455941677, -0.0525391325354576, 0.0656669288873672, -0.0606831796467304, -0.0657156407833099, -0.0497112348675728, 0.0168540868908167, -0.0442200601100922, 0.0455410070717335, 0.0188739765435457, -0.0888535752892494, -0.0034757785033435, -0.0063896346837282, 0.0405983962118626, 0.0371670685708523, -0.0721314251422882, -0.1028487831354141, -0.0803058147430420, -0.0665126815438271, 0.0652125030755997, 0.0444121994078159, -0.1364613175392151, -0.1219824552536011, 0.0508734695613384, -0.0814053714275360, -0.0278531517833471, 0.0993532240390778, -0.0345880500972271, 0.0636644214391708, 0.0578524880111217, -0.0915503054857254, 0.0074468660168350, -0.0555488988757133, -0.0957085266709328, 0.0052476157434285, -0.0547837205231190, 0.0044650589115918, -0.1367549151182175, 0.0083381338045001, 0.0393489450216293, -0.0341453254222870, -0.0237101390957832, 0.0228700563311577, 0.0190128311514854, -0.0604078918695450, 0.0626469403505325, 0.0181777514517307, -0.1376902461051941, 0.0628656372427940, 0.0409117639064789, 0.0797007605433464, -0.0098389713093638, 0.0562218092381954, 0.0215038415044546, -0.1161800548434258, -0.0778283104300499, -0.0600527152419090, 0.0173886008560658, 0.0346090532839298, 0.0035316648427397, 0.1621070206165314, -0.0608231611549854, -0.0255229100584984, 0.1078432276844978, -0.1136203631758690, -0.0526596568524837, -0.0172647964209318, -0.0760535150766373, -0.0834574028849602, -0.0174388177692890, 0.0101390508934855, 0.0743630826473236, 0.0059384866617620, -0.0149688934907317, -0.0633101165294647, -0.0165450777858496, -0.0163962841033936, -0.1445453464984894, -0.1015273854136467, 0.0723432302474976, -0.0474658943712711, 0.0412182882428169, -0.0424982085824013, 0.0011165633331984, -0.0173440128564835, 0.0730517283082008, 0.0121999587863684, -0.0177894644439220, 0.0064733535982668, -0.1361429393291473, 0.0955566316843033, -0.0864411219954491, -0.0834757015109062, 0.0460396781563759, -0.0782660022377968, 0.0447312854230404, -0.0996535643935204, 0.0776872932910919, -0.0401918999850750, 0.0838820114731789, 0.0551466643810272, 0.0298382360488176, 0.0164548251777887, -0.0005051156622358, 0.0331615470349789, -0.0053853564895689, -0.0654779076576233, 0.0066775786690414, 0.0583120957016945, -0.0326249673962593, -0.0217045675963163, 0.1097470223903656, 0.0828851386904716, 0.0316548310220242, 0.1592054963111877, 0.0577717684209347, -0.0302242767065763, 0.2015625834465027, -0.0494524314999580, -0.0072085484862328, -0.0428085885941982, -0.1176208779215813, -0.0447030477225780, -0.0073404512368143, 0.0026942554395646, -0.0132660204544663, 0.0450527258217335, -0.0285167377442122, -0.0097071770578623, -0.0372775457799435, 0.0117457918822765, -0.0846927314996719, 0.0183372572064400, -0.0455687344074249, 0.0550773628056049, -0.0758408010005951, 0.1241401880979538, -0.0592973306775093, -0.0885001942515373, -0.1165130436420441, -0.0089877583086491, 0.0782221034169197, -0.0390435643494129, 0.0613275840878487, -0.0373055450618267, -0.0807974785566330, -0.0329165384173393, 0.0029898227658123, -0.0291688814759254, -0.1356070637702942, -0.1744312942028046, 0.0602142922580242, -0.1062719151377678, 0.0509166009724140, 0.0185266807675362, -0.0142013216391206, 0.0693646520376205, 0.0535984598100185, 0.0106852790340781, -0.0766276195645332, -0.0972081422805786, 0.0034611888695508, 0.0282001364976168, -0.0710741505026817, 0.0981975272297859, -0.0523251444101334, -0.0894572585821152, -0.0348891280591488, -0.0655433759093285, -0.0948295071721077, 0.0552521832287312, -0.0290159396827221, 0.0171829294413328, 0.0470706000924110, 0.0021492268424481, -0.0228249989449978, -0.0133961029350758, 0.0503015965223312, -0.0313396453857422, 0.0051264050416648, 0.0419044308364391, -0.0273448787629604, -0.0694623365998268, 0.0215656254440546, 0.0171344503760338, -0.0789835005998611, -0.0942337587475777, -0.0364450253546238, 0.1590117812156677, 0.0417455360293388, -0.1079057455062866, -0.0340434238314629, 0.0129310591146350, -0.0968585759401321, 0.0335079431533813, -0.0664708092808723, 0.1946277618408203, -0.1132319793105125, -0.0181382875889540, 0.1615019589662552, 0.0431695580482483, -0.0354984961450100, -0.0886619985103607, 0.0715755373239517, -0.0977619439363480, 0.0654048696160316, -0.0587474629282951, 0.0047699762508273, -0.0778418183326721, 0.0814353525638580, -0.0448637902736664, 0.0611307434737682, 0.0317362137138844, 0.0281804241240025, -0.0135732032358646, 0.0183811523020267, 0.0488115884363651, -0.0625287741422653, 0.0336392559111118, -0.0192766264081001, -0.1330327242612839, -0.0175788551568985, -0.0716872289776802, -0.0474134534597397, 0.0143851684406400, 0.0508497245609760, -0.0553036965429783, 0.0284373536705971, 0.0354302935302258, 0.0591743178665638, 0.0416670031845570, -0.0951597318053246, -0.0103938011452556, 0.0227216351777315, -0.0122631136327982, 0.0439063683152199, -0.0370192900300026, 0.0889426395297050, 0.0489722490310669, -0.0731707513332367, -0.1132664158940315, 0.0372635982930660, 0.0060456627979875, -0.0328594148159027, 0.0251411627978086, 0.0117150954902172, -0.0022806883789599, -0.0300757121294737, -0.1370635181665421, 0.0862959772348404, 0.1258501261472702, 0.1213227882981300, -0.1232355311512947, 0.0039827520959079, -0.0049792993813753, 0.1258989572525024, -0.0567098893225193, 0.0078771784901619, -0.1079825237393379, -0.0662337541580200, 0.0321162529289722, 0.0084595670923591, 0.0028708938043565, -0.0101165669038892, 0.0124626317992806, 0.0767555460333824, 0.0322584100067616, 0.1287908405065536, 0.0307675730437040, -0.0026756462175399, 0.0989075601100922, 0.0703674182295799, -0.0213789604604244, -0.0568676516413689, -0.0159274060279131, 0.1350339949131012, 0.0687823072075844, -0.1027453914284706, 0.0135706905275583, 0.0624948404729366, 0.0018218973418698, 0.0539225265383720, 0.0843327268958092, 0.0321965813636780, -0.0404459461569786, 0.0446941107511520, -0.0640915855765343, 0.1162013337016106, 0.0170746147632599, -0.0371862985193729, 0.0572905540466309, -0.0560301169753075, 0.0048269843682647, 0.0326608046889305, 0.1120575293898582, 0.0115292677655816, 0.0290964972227812, -0.0539970956742764, 0.0242183171212673, 0.0302472282201052, -0.0318266600370407, 0.0778916999697685, 0.0024240559432656, 0.0426198206841946, -0.0664014145731926, -0.0416485108435154, 0.0426745191216469, 0.0592167750000954, -0.1130097359418869, -0.0229209344834089, 0.0580056756734848, 0.0404061153531075, 0.1226007267832756, -0.0283420272171497, 0.0726689845323563, 0.0211933068931103, 0.0048983725719154, 0.0316914357244968, 0.1239742189645767, -0.0438768938183784, 0.0937469229102135, -0.0205592177808285, -0.0021179914474487, 0.0011167438933626, -0.0132432673126459, 0.1408388614654541, 0.0223906673491001, -0.0307259634137154, 0.0267686285078526, 0.0658448413014412, -0.0591526962816715, 0.0366330929100513, -0.0199903044849634, 0.0142266778275371, 0.0206821095198393, -0.0694089606404305, 0.0970576405525208, -0.0125642810016870, 0.0455094762146473, 0.0520412251353264, 0.0725874081254005, 0.0421044826507568, 0.0113417049869895, -0.0526891462504864, -0.0781856104731560, 0.0539068989455700, -0.0116439945995808, 0.0672819986939430, -0.0603744834661484, -0.0991637259721756, 0.0062241735868156, -0.0099247191101313, 0.0298815593123436, -0.0101795569062233, 0.0027068704366684, -0.0140737369656563, -0.0077578932978213, -0.0052338680252433, -0.0359316878020763, -0.0282599553465843, 0.0380222685635090, -0.0111367870122194, 0.0218665748834610, 0.0268795080482960, -0.0090829757973552, 0.0296621806919575, -0.0221568681299686, 0.0719640180468559, -0.1188221052289009, 0.0138500267639756, -0.0285160671919584, -0.0599632821977139, -0.0393732041120529, 0.0658196806907654, -0.0285088922828436, 0.0489260926842690, 0.0259072985500097, -0.1341108381748199, 0.1429491192102432, -0.0123276403173804, -0.0281897783279419, -0.1541980206966400, -0.0262072756886482, 0.0204379744827747, -0.0866859480738640, -0.0171129480004311, 0.0061389296315610, 0.0485835857689381, -0.0440139733254910, 0.0307721793651581, -0.0543077141046524, 0.0915825739502907, -0.0254098400473595, -0.0488762445747852, 0.0298435930162668, 0.0839545875787735, -0.1099373400211334, 0.1174481511116028, -0.1223863214254379, 0.0320435389876366, 0.0982338860630989, 0.1889384984970093, 0.0043249032460153, -0.0931764990091324, -0.0229640640318394, 0.0362065508961678, -0.0108703523874283, -0.0601406358182430, -0.0012218917254359, -0.0459344536066055, -0.0112523818388581, -0.1316174566745758, 0.0099823791533709, 0.0063319467008114, -0.0311513673514128, 0.0044300467707217, -0.0409489758312702, 0.0229821782559156, 0.0166097432374954, -0.1309042572975159, 0.1264686435461044, 0.0032871200237423, -0.0323502533137798, -0.0342496447265148, -0.0140629606321454, -0.0522450245916843, -0.0175798777490854, 0.0005270912079141, 0.0713978931307793, 0.0327366963028908, 0.0097334356978536, 0.0698744729161263, -0.0997055843472481, -0.1402521133422852, -0.0144561938941479, -0.0591323301196098, 0.2485747635364532, 0.0436843894422054, -0.0144540071487427, -0.1080421730875969, 0.0197850465774536, -0.1153858229517937, -0.0417378917336464, -0.0027126639615744, -0.0062665920704603, 0.0732756927609444, 0.0302389878779650, 0.0349929817020893, 0.0182757787406445, 0.0223115440458059, -0.0587963834404945, -0.1488268524408340, -0.0313010178506374, 0.0278272051364183, -0.0866732001304626, -0.1516846269369125, -0.0384039394557476, -0.1550414562225342, 0.1217400580644608, 0.0450193062424660, 0.0162316486239433, 0.0299817603081465, 0.0900976732373238, -0.0112811541184783, -0.0522024929523468, 0.0807313397526741, 0.0992046222090721, 0.0634343624114990, 0.0577717013657093, -0.0865704342722893, -0.0158668365329504, -0.1486030369997025, 0.0430672988295555, 0.0658592432737350, -0.0243866536766291, 0.0152844451367855, 0.0092803575098515, -0.0194664485752583, 0.0694486498832703, 0.0028991256840527, 0.0860538184642792, -0.0951790064573288, 0.0565742403268814, -0.0373033247888088, -0.0084396935999393, 0.0370209403336048, 0.0078013278543949, 0.1495589315891266, 0.0483394339680672, 0.0417416319251060, 0.0365319624543190, -0.0626562088727951, 0.0157138593494892, 0.0065955477766693, -0.1177295669913292, -0.0314224809408188, -0.1515200734138489, -0.1084935367107391, 0.0143114328384399, -0.0501266084611416, -0.0485143661499023, 0.1031286716461182, -0.0109775420278311, -0.0416478365659714, 0.1407582908868790, -0.0479681827127934, 0.0464691966772079, -0.0759915262460709, -0.0932007655501366, -0.1323046684265137, -0.0196116305887699, 0.0938390865921974, 0.0178917851299047, 0.0304814372211695, 0.0001648570614634, 0.0327553898096085, -0.0389494076371193, 0.0238616410642862, -0.0927931219339371, 0.1115345656871796, -0.0168514493852854, -0.0516746342182159, 0.0442902408540249, -0.0596318505704403, -0.0950917303562164, -0.0247970912605524, -0.0539257824420929, 0.0377177819609642, 0.0525572523474693, 0.0776671841740608, 0.0053953542374074, 0.0336833298206329, -0.0438322573900223, 0.2318892925977707, -0.0456534251570702, -0.0757670328021049, -0.0145323937758803, 0.0372574925422668, -0.0546333678066730, 0.0047862026840448, 0.0235019382089376, -0.0599339008331299, 0.0429204888641834, 0.0200744047760963, -0.1195245385169983, -0.0240597259253263, -0.0769937634468079, -0.0499948859214783, 0.0872597321867943, -0.0610104054212570, 0.1065201312303543, -0.0390414185822010, -0.0708651095628738, 0.0043591870926321, -0.0545444786548615, 0.0411052852869034, 0.0291263163089752, -0.0289469752460718, 0.0257236920297146, 0.0229220669716597, -0.0495741702616215, -0.0247015450149775, -0.0044307396747172, -0.0697008147835732, 0.1513604968786240, 0.0094682583585382, -0.0142253339290619, -0.0294389985501766, 0.0653901249170303, 0.0132296904921532, -0.0513902902603149, -0.0994217544794083, 0.0348037816584110, 0.0843871533870697, 0.0296061616390944, -0.0865373015403748, -0.0334836579859257, -0.1210258752107620, 0.0604160353541374, -0.0558616071939468, 0.0351686552166939, 0.0609772652387619, -0.0751068219542503, -0.1492958068847656, -0.0587988533079624, -0.1184123978018761, -0.0566973015666008, 0.1998180747032166, -0.0497268736362457, -0.0191533379256725, -0.0537352748215199, 0.0371090844273567, -0.0258324649184942, -0.0383557789027691, -0.0577548146247864, 0.0421724095940590, -0.0608211867511272, 0.0035045070108026, -0.0656952336430550, -0.1256800740957260, 0.0911331400275230, 0.1103192791342735, -0.0532526373863220, 0.0423479117453098, -0.0788155645132065, -0.0857062116265297, 0.0213742535561323, 0.0095574222505093, 0.0755478814244270, -0.0376638099551201, -0.0202766936272383, -0.0128067359328270, -0.0109289856627584, 0.0073510562069714, 0.0082287574186921, 0.1389794498682022, -0.0232480298727751, 0.0254036728292704, -0.0121732968837023, -0.0093101952224970, 0.0445822440087795, 0.0230298135429621, 0.1345665007829666, -0.0365804880857468, 0.0369755513966084, -0.1076719835400581, -0.0579179972410202, -0.0480291023850441, -0.0552820563316345, 0.0288034342229366, -0.0196358058601618, 0.0432730726897717, 0.1994536072015762, 0.0626660659909248, 0.0275737270712852, 0.0531847849488258, -0.0066606514155865, -0.0089279441162944, -0.0111685050651431, -0.0625630319118500, -0.0250412821769714, 0.1117248833179474, 0.0706930905580521, -0.1617081016302109, -0.0964892283082008, -0.0297179929912090, 0.0383398383855820, 0.1018588766455650, -0.0222382731735706, -0.0306880939751863, -0.0446100644767284, -0.1397904157638550, -0.1117911115288734, -0.0146669223904610, -0.1213908195495605, -0.0035453564487398, 0.1284383386373520, 0.0182184576988220, 0.0502905733883381, 0.0310853235423565, 0.0140549317002296, 0.0850358009338379, 0.0413677394390106, 0.0960499644279480, -0.0236397814005613, 0.1335027068853378, -0.0193661805242300, 0.0024199769832194, 0.0254621580243111, -0.0181895364075899, -0.0284687355160713, -0.0788021162152290, -0.0866652354598045, 0.0368720814585686, 0.0613669231534004, 0.1229400262236595, -0.0383017957210541, -0.2232000231742859, 0.0508389659225941, -0.0362180955708027, 0.0135541250929236, -0.0352136492729187, 0.0093224225565791, 0.0606622174382210, -0.0733111947774887, 0.0191223099827766, 0.0553178340196609, -0.0167684145271778, -0.0563964843750000, 0.0312112085521221, 0.0147063750773668, 0.0819378048181534, 0.0874581784009933, -0.1089267432689667, -0.0982272028923035, -0.0533530376851559, 0.0367165394127369, 0.0819434672594070, -0.0527861155569553, -0.0579247958958149, 0.0773818418383598, 0.1152274832129478, -0.0487941540777683, 0.0424194261431694, 0.0048509272746742, 0.0012023515300825, 0.0421476736664772, 0.0282371621578932, -0.1117285564541817, 0.0716485753655434, -0.0909278020262718, 0.0452109202742577, 0.0232906900346279, 0.0222414452582598, -0.1100786179304123, 0.1098372787237167, -0.0411897599697113, 0.0764032229781151, 0.0026465072296560, 0.1102003455162048, 0.0048066489398479, -0.0064394008368254, -0.0378297194838524, -0.1491163372993469, -0.0281067676842213, -0.0006817235262133, 0.0363872200250626, 0.1114219278097153, -0.0310494005680084, -0.0205271393060684, 0.0264448933303356, 0.0645288079977036, -0.0268000122159719, 0.0609865561127663, -0.0359946750104427, -0.0653322786092758, -0.0688756853342056, 0.0710573941469193, -0.0639309659600258, 0.1123353689908981, 0.0653151050209999, -0.0179292764514685, -0.1191616952419281, 0.0634281709790230, -0.1014478579163551, 0.0536784976720810, -0.0500148311257362, 0.0701362192630768, 0.0544362105429173, 0.0815603956580162, -0.0088536683470011, 0.0343060530722141, 0.0846681892871857, 0.0893441513180733, -0.1782668381929398, -0.0522160641849041, 0.0807286053895950, 0.0137981018051505, 0.0195416547358036, 0.0206913631409407, -0.0933227241039276, -0.0206153783947229, 0.0872140228748322, 0.0236827544867992, 0.0367727018892765, -0.0875477865338326, -0.0285198260098696, 0.0652846246957779, 0.0417752936482430, -0.0362794511020184, -0.0394378937780857, 0.1578865945339203, -0.0442991070449352, 0.0814706236124039, -0.0577831082046032, -0.0490077324211597, 0.0209283139556646, 0.1075321808457375, 0.0073046865873039, 0.0007418582099490, -0.0244915261864662, -0.0052726701833308, 0.0811094343662262, 0.0044232690706849, -0.0041126091964543, 0.0869916379451752, -0.0401752218604088, 0.0045093358494341, -0.0706506371498108, -0.1591238528490067, 0.0628492310643196, -0.0007304575410672, -0.0843919739127159, 0.0107606109231710, 0.0265754871070385, 0.0220803562551737, 0.0692445784807205, 0.0794969722628593, 0.0898664221167564, -0.0293835662305355, -0.0516662597656250, -0.0831549540162086, 0.0219469610601664, 0.0821602270007133, -0.1073008626699448, -0.0084098661318421, -0.0023920431267470, 0.0369113348424435, 0.1029040738940239, 0.0384780317544937, 0.0457919053733349, 0.0304741207510233, 0.0830655544996262, -0.0183748472481966, 0.0231660790741444, 0.1276249140501022, 0.1050168052315712, 0.0302698407322168, 0.0459816902875900, 0.0641404613852501, -0.1258986443281174, 0.0511453561484814, 0.0892102643847466, 0.0386019609868526, -0.0021389198955148, 0.0003055817214772, 0.1360210627317429, 0.1027034819126129, -0.1393294632434845, -0.0811707973480225, 0.0755511447787285, -0.0313213653862476, -0.0739564299583435, -0.0738059952855110, -0.0768128782510757, 0.0989778637886047, -0.1384583264589310, -0.0726410672068596, -0.0085393395274878, -0.1067449226975441, 0.0528510585427284, 0.0576147176325321, 0.0240719188004732, -0.0758479312062263, -0.0004678379045799, 0.0095244878903031, 0.0809093192219734, 0.0677696168422699, 0.0364825278520584, -0.0880387350916862, -0.0305861998349428, -0.0630418658256531, 0.0031110891140997, -0.0423592962324619, -0.0678254663944244, 0.0938865467905998, 0.0489619262516499, 0.0006969571113586, -0.0129402978345752, 0.0424918867647648, 0.1277101486921310, 0.0863196924328804, -0.0058724847622216, 0.0542997345328331, -0.0598822683095932, 0.1328785717487335, 0.0328963324427605, -0.0883986204862595, 0.0173802394419909, -0.1367204934358597, -0.0076748579740524, 0.0036358432844281, 0.1263120621442795, -0.0556574203073978, 0.0525859259068966, -0.0511004291474819, 0.0368169955909252, 0.0237113889306784, 0.1003309786319733, 0.0344910509884357, -0.0836831703782082, 0.0373136140406132, 0.0842282995581627, 0.0504155941307545, -0.0448853150010109, -0.0725411623716354, -0.0517331883311272, 0.0090850219130516, 0.1775503456592560, 0.0674516335129738, 0.0551379807293415, 0.0041688312776387, -0.0205471608787775, 0.1703152954578400, 0.0588365048170090, -0.0832013785839081, -0.0697576329112053, 0.0803214088082314, -0.0843914076685905, -0.0383450984954834, 0.1026527211070061, -0.0298812054097652, -0.0455002337694168, -0.0780481174588203, -0.0534469150006771, -0.0243446119129658, -0.0127132674679160, -0.1365059465169907, 0.0151727106422186, 0.1414859145879745, -0.0718090534210205, -0.0963803902268410, 0.0360635444521904, -0.0127384476363659, 0.0313563272356987, -0.0366421118378639, 0.0196700096130371, 0.1605481058359146, -0.0861617326736450, 0.0241235680878162, 0.0428162626922131, -0.0371066294610500, 0.0279687698930502, 0.0042896838858724, 0.0108900712803006, 0.0113662816584110, -0.0562551505863667, 0.0276037994772196, -0.1049994081258774, -0.0096517326310277, 0.0437672510743141, -0.1334593147039413, 0.0208636261522770, -0.1212579235434532, 0.0102331824600697, 0.0405402891337872, -0.0540063604712486, 0.0816405341029167, 0.0190926715731621, -0.0534997098147869, -0.0128066763281822, 0.1001850292086601, 0.0653695613145828, -0.0803508237004280, 0.0128720551729202, 0.0080804433673620, -0.1052748039364815, -0.0245989020913839, 0.2132345288991928, -0.0245419461280107, -0.0777925252914429, -0.0603868849575520, -0.0307430606335402, -0.0548375174403191, 0.0133932176977396, -0.1115019097924232, 0.0568398796021938, 0.0236495789140463, 0.0530310012400150, -0.0030760446097702, 0.0560188591480255, 0.0456021986901760, 0.0087006064131856, -0.0519303977489471, 0.0483630448579788, -0.0142243523150682, -0.0626146644353867, 0.1511872112751007, 0.0094583835452795, 0.0624798126518726, -0.0148368934169412, 0.0943149626255035, -0.0695294216275215, 0.0701907277107239, 0.0638667494058609, 0.0596017166972160, 0.0388263612985611, 0.1503208726644516, 0.0834061875939369, 0.1368166953325272, 0.0125808212906122, 0.0536785945296288, 0.0671148821711540, 0.0593177340924740, 0.1453218758106232, 0.0861314088106155, 0.0023970240727067, 0.0049560866318643, -0.1049744412302971, 0.0015775783685967, -0.0244171544909477, -0.1281555294990540, -0.0625154003500938, 0.0639091581106186, -0.0729902163147926, 0.0676229149103165, 0.0382300950586796, 0.0568371899425983, 0.0607878081500530, 0.1180490180850029, -0.0454088672995567, -0.0195484329015017, -0.0102565232664347, 0.0159607902169228, 0.0299215093255043, 0.0202580727636814, 0.0606758520007133, -0.0325504988431931, -0.0323912352323532, -0.0533103533089161, 0.0239126887172461, -0.0423625148832798, 0.0738880485296249, 0.0342858657240868, 0.0397280231118202, -0.0110616143792868, 0.0524999089539051, -0.0764425322413445, -0.1001691892743111, 0.0157100502401590, -0.0593926124274731, -0.0891474410891533, -0.0404306128621101, 0.0047120642848313, -0.0080378735437989, -0.0953676477074623, 0.0249908734112978, -0.0524810180068016, -0.0256866849958897, 0.0042177494615316, -0.0666001588106155, -0.0676762312650681, -0.0753909423947334, -0.0115420389920473, -0.0638310089707375, 0.0327729061245918, -0.1143640577793121, 0.1445734053850174, 0.0187668576836586, -0.0186427161097527, 0.0813010931015015, 0.0266014207154512, -0.0462471768260002, -0.0451829694211483, 0.0824915096163750, 0.0566811002790928, -0.1204781755805016, -0.0584408566355705, -0.0423165075480938, 0.0336108990013599, -0.0082275960594416, 0.0422010645270348, 0.0059603070840240, 0.0989539101719856, 0.0196532495319843, -0.0513719134032726, -0.0136209484189749, 0.0468012094497681, -0.1222449690103531, -0.0522772632539272, -0.0155422585085034, -0.0423640199005604, 0.0076658874750137, -0.1243867278099060, 0.0088575854897499, 0.0508910678327084, 0.0463082306087017, -0.0017234814586118, -0.0113523807376623, 0.0962879955768585, 0.0061807357706130, -0.0699833780527115, -0.0105457780882716, 0.1078661754727364, -0.1162519976496696, -0.0565126352012157, -0.0283867213875055, -0.0827013850212097, -0.0101216873154044, 0.0722413957118988, 0.0025383247993886, 0.0694907903671265, -0.0582696162164211, 0.0361208021640778, 0.0739396438002586, 0.1125270426273346, 0.0787793695926666, 0.0554612316191196, 0.0506742037832737, 0.0245275180786848, 0.0494106747210026, -0.0180645976215601, -0.0730614289641380, -0.0742534324526787, -0.0232544504106045, -0.0190138146281242, 0.0724407061934471, -0.0556720755994320, -0.0414499044418335, 0.0708650499582291, -0.0536678805947304, -0.0220980141311884, -0.0114016998559237, 0.0660949572920799, 0.0101614631712437, -0.0221886541694403, -0.0608230605721474, 0.0413090698421001, -0.0029378044418991, -0.0705928504467010, -0.0613006874918938, -0.0677264109253883, -0.0275118090212345, 0.0139001226052642, -0.1031693071126938, 0.0409434139728546, -0.0601498819887638, 0.0243186485022306, -0.0444460101425648, -0.0603187456727028, -0.0401939041912556, -0.0823385417461395, -0.0955749601125717, 0.0821361243724823, 0.0173075720667839, -0.0223531015217304, 0.0546896308660507, 0.0115221170708537, 0.0005463762208819, -0.0410111509263515, 0.0466002710163593, -0.0356421470642090, 0.0404678769409657, -0.0163357593119144, -0.0029164911247790, -0.0166394431143999, 0.1414933949708939, 0.0132036246359348, 0.1130779609084129, 0.0321697033941746, 0.0355566516518593, 0.1137898638844490, 0.0091663533821702, -0.0143459169194102, 0.1670583784580231, -0.0704430341720581, 0.1100204065442085, 0.0783891528844833, 0.0241204053163528, -0.0163350813090801, -0.0200934763997793, -0.0534235574305058, 0.0358509086072445, 0.1198846250772476, -0.0260680429637432, -0.1386003345251083, 0.0179234184324741, 0.0354752205312252, 0.0283209942281246, 0.0061545032076538, 0.0417427830398083, -0.0374365374445915, -0.0720208659768105, -0.0813469290733337, 0.0498896874487400, 0.0186623893678188, -0.0380123294889927, 0.0136153800413013, 0.0301137603819370, 0.0852379947900772, -0.0543068051338196, -0.0058601642958820, -0.0210111830383539, 0.1913494616746902, 0.0413093827664852, 0.0913993865251541, 0.0891151875257492, 0.0258414186537266, 0.0733858123421669, 0.0951579362154007, 0.0192620251327753, 0.0454952865839005, 0.0386013910174370, -0.0961168482899666, -0.0534832552075386, 0.0163130164146423, -0.0216738898307085, -0.0387784466147423, 0.0387290045619011, -0.0339410416781902, -0.0879591703414917, -0.0438263863325119, 0.0829574763774872, 0.0188439190387726, 0.0776721462607384, 0.0296529699116945, -0.0559146627783775, -0.0134901413694024, 0.0708599537611008, 0.0503163039684296, 0.0773303359746933, 0.1324494779109955, 0.0239523742347956, 0.0433065332472324, 0.1104644462466240, -0.0289811212569475, -0.1404027342796326, -0.0351960249245167, 0.0117320315912366, 0.0610813871026039, -0.1123273745179176, 0.0469626225531101, 0.1314942687749863, 0.1059409081935883, 0.0624951310455799, -0.0647669583559036, -0.0268640387803316, -0.0094996076077223, -0.0124196736142039, -0.0465368293225765, -0.0608256496489048, 0.0590710081160069, -0.0215417537838221, 0.1522780954837799, -0.0721726045012474, -0.0313372202217579, -0.0296791102737188, 0.0662699714303017, -0.0983292683959007, 0.0710538178682327, -0.0402850098907948, -0.0024204433429986, 0.0259149074554443, -0.0057710595428944, 0.0350073054432869, -0.1729175001382828, -0.0156561862677336, 0.0464111194014549, 0.0183727629482746, 0.0317000411450863, -0.0367752946913242, -0.0273292884230614, -0.0481788441538811, 0.0413152500987053, -0.0803420618176460, -0.0090493690222502, 0.0149305397644639, -0.0487801879644394, -0.1005845367908478, 0.0170062128454447, -0.0842300280928612, 0.0586162656545639, 0.0348264314234257, -0.0009500196902081, 0.0112125249579549, 0.0503749474883080, -0.0640803724527359, 0.0336485058069229, 0.0908196941018105, 0.0487956851720810, -0.0098118353635073, -0.0438426248729229, -0.0363184176385403, 0.1095832437276840, 0.0304884687066078, 0.0758121758699417, 0.0822731927037239, 0.0039498582482338, -0.1184144988656044, 0.0361078195273876, 0.0552220158278942, 0.0195788703858852, 0.1407361924648285, -0.0870200917124748, -0.0096456157043576, -0.0095418300479650, -0.0184870306402445, 0.1108305975794792, -0.0309508852660656, -0.0681531727313995, 0.0283793825656176, 0.0624422393739223, -0.0206029415130615, -0.1339669227600098, -0.0160709153860807, 0.0387927256524563, 0.0286287330091000, 0.0572721287608147, -0.0598994605243206, -0.0677471905946732, -0.0595724284648895, -0.0750577673316002, 0.0203186050057411, 0.1127071455121040, 0.0299054961651564, -0.1222122609615326, -0.0484001561999321, -0.0126546192914248, -0.0134918242692947, 0.0972947999835014, -0.0930348709225655, 0.1838008016347885, -0.0307242088019848, -0.0284612439572811, 0.0048611196689308, 0.0685363858938217, 0.0541916415095329, 0.0818682909011841, 0.0235044155269861, 0.0622012726962566, 0.0766491517424583, 0.0394710712134838, -0.1157730445265770, -0.0767656937241554, -0.0969199836254120, -0.0398847013711929, 0.1390252411365509, -0.0302621312439442, 0.0496150255203247, 0.1000426113605499, 0.0730886086821556, -0.0106448875740170, 0.0456220358610153, 0.0065654781647027, -0.0372498370707035, 0.0221847519278526, 0.0378819927573204, -0.0657716393470764, 0.0258505456149578, -0.0507637597620487, -0.0216266997158527, -0.0458008907735348, 0.1749152690172195, -0.0160925872623920, -0.0722947865724564, 0.0402089878916740, -0.0151652628555894, 0.0599384494125843, 0.0268251504749060, -0.0249023772776127, 0.0598570220172405, -0.1008651256561279, -0.0559351742267609, -0.0712264925241470, -0.0569925978779793, 0.0015818045940250, 0.0128958616405725, 0.0351828895509243, 0.0979953482747078, 0.0727338194847107, -0.0021793807391077, 0.1015474572777748, 0.0655316039919853, 0.0382875502109528, -0.1097630187869072, 0.0877608582377434, -0.1553963720798492, 0.0339266769587994, 0.0321268439292908, 0.0739240199327469, 0.0187910236418247, 0.0323904678225517, 0.0289277676492929, -0.0225151982158422, -0.0266807842999697, 0.0204452257603407, -0.0099074840545654, 0.0891321823000908, 0.0857891216874123, -0.0396662168204784, 0.0998740494251251, 0.0175809953361750, -0.0214380342513323, -0.0700632557272911, 0.0106383301317692, -0.0836440920829773, -0.0695615336298943, 0.0048600011505187, -0.0084663899615407, -0.0506847389042377, -0.0933353230357170, -0.0465421527624130, -0.0359097793698311, 0.0606307052075863, -0.0711467489600182, -0.0234579723328352, 0.0434687472879887, 0.0341113694012165, -0.0059230532497168, -0.0356345288455486, 0.0114076528698206, 0.0699814185500145, 0.1458881050348282, -0.0308552887290716, 0.0632993131875992, 0.0466319695115089, -0.0850934609770775, 0.0463352575898170, 0.0386411659419537, -0.0996049195528030, 0.1844057291746140, -0.0542381815612316, 0.0512938387691975, -0.0359346307814121, -0.1050136536359787, 0.0583327896893024, -0.0841380730271339, 0.0750735625624657, -0.0282763149589300, 0.0507645085453987, -0.0246757306158543, -0.1225094720721245, 0.0424551703035831, -0.0344781428575516, 0.0523085966706276, -0.0484424345195293, -0.0147014278918505, 0.0533049777150154, 0.0681741535663605, -0.1591965556144714, -0.0394227392971516, 0.0756451562047005, -0.0799536556005478, -0.0597214959561825, 0.0818742290139198, 0.0264124199748039, 0.0689905583858490, -0.0498854853212833, 0.0243867579847574, 0.2837249934673309, -0.0362787097692490, -0.0219548009335995, 0.0508376695215702, -0.0024712507147342, 0.0547222979366779, 0.1093220338225365, 0.0192556977272034, -0.0289096944034100, -0.0899431258440018, 0.0262086857110262, -0.1217159330844879, 0.0650551691651344, -0.0330648273229599, -0.0147056216374040, 0.0007996808853932, -0.0619262047111988, 0.0791325122117996, -0.0256201121956110, 0.0203992016613483, 0.0513161905109882, 0.0003471901582088, 0.0117359822615981, -0.0232171881943941, 0.0145972343161702, -0.1276761740446091, -0.0429532416164875, -0.0018060802249238, 0.0693842694163322, -0.0302472300827503, 0.0075355228036642, 0.1468287855386734, 0.0058298483490944, -0.1406743675470352, 0.1122070923447609, -0.0002761482901406, 0.0107407178729773, -0.1388743966817856, 0.0392474383115768, 0.0420248396694660, 0.0699412152171135, 0.0779646933078766, -0.0517264716327190, 0.0005878370138817, -0.1110984832048416, 0.0660170093178749, -0.0235825311392546, 0.0000118054203995, 0.0702046528458595, -0.0146633274853230, 0.1614374220371246, -0.0004254386876710, -0.0959732010960579, -0.1366346627473831, 0.1482601165771484, -0.1102549806237221, 0.1191072314977646, -0.0243207551538944, -0.0134008657187223, -0.0253638178110123, 0.0353725999593735, -0.0438766740262508, 0.0292632114142179, -0.0461007878184319, 0.0001094375038520, -0.0777007788419724, 0.0413283668458462, 0.0485860779881477, 0.0983232632279396, 0.0654899924993515, -0.0664117336273193, -0.1055315360426903, 0.0215250290930271, -0.0178983379155397, -0.1181794181466103, -0.1118425950407982, -0.0486823990941048, -0.1013233140110970, -0.0504179336130619, 0.1015167012810707, 0.0307736285030842, -0.0426644273102283, 0.1083324849605560, -0.1202534139156342, 0.0814390257000923, 0.0187082104384899, -0.0343354269862175, 0.0343527197837830, 0.0091428086161613, -0.0304119661450386, 0.0450055561959743, 0.0133277541026473, -0.0567351318895817, 0.0494832284748554, 0.0029038561042398, -0.0581802278757095, -0.0455920137465000, 0.0605190284550190, -0.0117858955636621, -0.0333420746028423, -0.0819589272141457, -0.0298586320132017, -0.0502917021512985, -0.0548216700553894, -0.1021675318479538, 0.0712991654872894, 0.0696316212415695, 0.0878427028656006, -0.0445825457572937, -0.0847039669752121, -0.0417205505073071, -0.0307359173893929, 0.0717358961701393, 0.1085087880492210, -0.0637084245681763, -0.0231602992862463, -0.0733635425567627, 0.0319144800305367, 0.0497134886682034, 0.0575506836175919, -0.0197209697216749, 0.0610565654933453, 0.0125087713822722, 0.0354534313082695, 0.0097941942512989, 0.0079371258616447, -0.0039201574400067, -0.0032281309831887, -0.0544589981436729, 0.0193471834063530, -0.1340192109346390, 0.0755166858434677, 0.0741196796298027, -0.0231100004166365, -0.0557738505303860, 0.0188302509486675, -0.0451541617512703, 0.0015502183232456, -0.0622564628720284, -0.0293982494622469, 0.0020462407264858, 0.0830616801977158, -0.0322180800139904, 0.0187990609556437, 0.0612516701221466, 0.0121412174776196, -0.0039295488968492, 0.1118877753615379, -0.0103661064058542, 0.0104359993711114, 0.0367708839476109, 0.0044372989796102, 0.0375705435872078, 0.0590626411139965, 0.0620539896190166, -0.0129701746627688, -0.1801744550466537, 0.0582198724150658, -0.0844643414020538, -0.0284200012683868, -0.0410650558769703, -0.0543780401349068, -0.1016203090548515, 0.0152778234332800, -0.0199398864060640, 0.0534905493259430, 0.0288078188896179, 0.0933419540524483, 0.0417134910821915, 0.0476455502212048, -0.0048495931550860, 0.0238658916205168, -0.0405789464712143, 0.0891199782490730, -0.1174982264637947, 0.0042942133732140, 0.0598941966891289, 0.0300901141017675, -0.0774986892938614, 0.0317466147243977, -0.0302210468798876, 0.0677613168954849, 0.0493249744176865, -0.0049059782177210, 0.0300607178360224, -0.0887071117758751, 0.0228374321013689, -0.0762514695525169, 0.0222624465823174, 0.0275268461555243, 0.0259303096681833, 0.0563770681619644, 0.0568695552647114, -0.1195138916373253, -0.0819628909230232, -0.0093145789578557, -0.0672620683908463, 0.0548522323369980, -0.0209218803793192, -0.0758241936564445, -0.0205798149108887, -0.0259607546031475, -0.0097116343677044, -0.0491298921406269, 0.0159245710819960, 0.0390875414013863, 0.0490343682467937, -0.0432136505842209, -0.0336674004793167, -0.0443648882210255, -0.0657298490405083, 0.0059553645551205, 0.0196710117161274, 0.0528170540928841, -0.0503581389784813, 0.0844706371426582, 0.0680250898003578, 0.0371603779494762, -0.0562737546861172, -0.0568376407027245, -0.0585515536367893, -0.1471168398857117, -0.0131963184103370, -0.0307004507631063, -0.0990109667181969, 0.0709712728857994, 0.0035704444162548, -0.0778008326888084, -0.0084013408049941, 0.1198385879397392, -0.0787451937794685, 0.0753802135586739, -0.0230784844607115, -0.0068706646561623, -0.0168850254267454, -0.0588242411613464, 0.0516042262315750, 0.0337778627872467, 0.1339453905820847, -0.0576085299253464, 0.0515496022999287, 0.0061733233742416, 0.0235328767448664, 0.0663362666964531, -0.0533946380019188, -0.0284313187003136, 0.1236733049154282, 0.0921842679381371, -0.0751631557941437, -0.0811172872781754, -0.0263243000954390, 0.0616794638335705, 0.0880244895815849, 0.0174631867557764, 0.0286299884319305, -0.0545195564627647, -0.1271653920412064, 0.0879547372460365, 0.0217569358646870, -0.0439105853438377, 0.0708329230546951, 0.0601695477962494, 0.0190847441554070, -0.0445171855390072, -0.0618749745190144, 0.0331580229103565, 0.0068204863928258, 0.0609992295503616, 0.0307040996849537, 0.1106591224670410, 0.2219400554895401, -0.1348809301853180, 0.0815522223711014, 0.0686929002404213, 0.0125571917742491, -0.0453798808157444, -0.0833364576101303, -0.0087734498083591, 0.0561241284012794, -0.0257486850023270, -0.0549043640494347, 0.0400777421891689, -0.0195228159427643, 0.0742557570338249, -0.0685175955295563, -0.0213684123009443, 0.0828210413455963, -0.0741016268730164, 0.0180104263126850, 0.0916382744908333, -0.0066498233936727, -0.0107835158705711, -0.0608066394925117, 0.0581846162676811, -0.0805805921554565, -0.0388942062854767, 0.0645454227924347, 0.0210167691111565, -0.0314639955759048, -0.0623440183699131, 0.0709317624568939, -0.0218033771961927, 0.0625853165984154, -0.0656674802303314, 0.0954385995864868, 0.0124686425551772, -0.0791973769664764, 0.0142196286469698, 0.0475790388882160, 0.0303762331604958, -0.0978301987051964, -0.0182263031601906, -0.0291529875248671, 0.0099968453869224, 0.0148769542574883, 0.0201990883797407, -0.0854191631078720, 0.0588576644659042, -0.0610744915902615, 0.0676437020301819, -0.0399535484611988, -0.0022442082408816, 0.0278436299413443, -0.0874426811933517, 0.0445005893707275, 0.0048456415534019, 0.0119732152670622, -0.0052792662754655, 0.0130137139931321, 0.0893954560160637, -0.0180125720798969, 0.1024841442704201, 0.0332577265799046, 0.0695543289184570, -0.0777015686035156, 0.0642417669296265, -0.0380462259054184, 0.0284021329134703, -0.0920646861195564, 0.0442255213856697, 0.1011144369840622, 0.0934741720557213, -0.0510716289281845, -0.0483917668461800, -0.0260928906500340, 0.0270852092653513, -0.0708822458982468, 0.0489258021116257, -0.0623633526265621, -0.1551757752895355, 0.0983399301767349, -0.0335146412253380, -0.0173041075468063, 0.0099862823262811, 0.0455400757491589, -0.0033157889265567, 0.1287778466939926, 0.0753851905465126, 0.0391303375363350, 0.1089858338236809, -0.0444575510919094, -0.0275327619165182, 0.0535531155765057, 0.0554062835872173, 0.0900015830993652, -0.0489895530045033, 0.0783434882760048, 0.0770139694213867, -0.0887792930006981, 0.0789437144994736, -0.0046595288440585, 0.0551785528659821, 0.0257700346410275, -0.0321328267455101, 0.1662980467081070, -0.0724482536315918, 0.0375751107931137, -0.0283658225089312, 0.0088035864755511, 0.0416046380996704, 0.1013397574424744, -0.0445621088147163, -0.0494646281003952, -0.0316967479884624, -0.1324492692947388, 0.1839906871318817, -0.0327499546110630, -0.0231359563767910, -0.0302580744028091, 0.0218830704689026, 0.0430577546358109, -0.0586674213409424, 0.0795121118426323, 0.0618488565087318, -0.0396390482783318, 0.1510477513074875, 0.0283508580178022, 0.1116830706596375, 0.1696609705686569, -0.0867378115653992, -0.0295095257461071, 0.0121368858963251, -0.1007816419005394, -0.0029500937089324, 0.0336875170469284, 0.0024908683262765, -0.0368813313543797, -0.0336784161627293, -0.1163783296942711, 0.0182078853249550, 0.1075765118002892, 0.0909152328968048, 0.0130818067118526, -0.0536493435502052, 0.0935804173350334, -0.1561473309993744, 0.1277652382850647, 0.0601185299456120, 0.0621277168393135, -0.0451133809983730, -0.0411622896790504, 0.0055821007117629, 0.0650428608059883, -0.1249067410826683, 0.0727434456348419, -0.0631281733512878, -0.0189839638769627, -0.0765506401658058, 0.0868005082011223, 0.0932276323437691, -0.0266497470438480, -0.1885764449834824, 0.0637742206454277, 0.1069990023970604, -0.0174052622169256, 0.0457024052739143, -0.0236912705004215, 0.0874272808432579, -0.0407522656023502, 0.0106898033991456, 0.0038906540721655, 0.0975511670112610, 0.0771265923976898, 0.0138175804167986, -0.1237585842609406, -0.0822993740439415, -0.1255328357219696, -0.0160247720777988, -0.0020801690407097, 0.0284760370850563, 0.0831716209650040, -0.0705308094620705, -0.0491151846945286, -0.0748817101120949, 0.0439330413937569, 0.1409083753824234, 0.1022457927465439, 0.0106421532109380, -0.0209948681294918, 0.0228101331740618, 0.0506522208452225, 0.0891976282000542, 0.0505096651613712, 0.0572507306933403, -0.1285616606473923, 0.0313640683889389, 0.0025214694906026, 0.0452537946403027, -0.0434114150702953, -0.0384958945214748, 0.1307066828012466, 0.0297383889555931, -0.0547028742730618, 0.0307457074522972, 0.0240660533308983, -0.0686282292008400, -0.0133431665599346, 0.0090653253719211, -0.0131652746349573, -0.1347368508577347, -0.0088637378066778, -0.0250075925141573, 0.0773439705371857, 0.0530268773436546, -0.0241130087524652, 0.0425600931048393, 0.0318821854889393, 0.0228073950856924, -0.2195258289575577, -0.0886889025568962, -0.0765736103057861, 0.0890631675720215, 0.0288165546953678, 0.0623086951673031, -0.0339983776211739, -0.0502066202461720, -0.0968964099884033, 0.1252559125423431, 0.1160945072770119, -0.0149238510057330, 0.0282234437763691, -0.0667940303683281, 0.1107084602117538, -0.1057428047060966, 0.1680534780025482, 0.0026866290718317, -0.0096715427935123, 0.0537410452961922, -0.0099063953384757, 0.0029713718686253, 0.0768366605043411, -0.0491801574826241, -0.0225332379341125, -0.0262146890163422, 0.0582439266145229, -0.0311250258237123, 0.0480147339403629, 0.0495371632277966, -0.1376994401216507, -0.0520185306668282, 0.1423779875040054, -0.0475098527967930, 0.0203594826161861, -0.0363497920334339, 0.0247048679739237, -0.0540614835917950, -0.1281458139419556, -0.0535997636616230, -0.1068463921546936, -0.0228627007454634, 0.0710320770740509, 0.0289502814412117, -0.0613613277673721, 0.0766554176807404, 0.0490101613104343, 0.1027088239789009, 0.0243922770023346, 0.0051194550469518, -0.0190780721604824, -0.1225759610533714, -0.0084824347868562, 0.0370378121733665, 0.0686427354812622, 0.2675993144512177, -0.0665008500218391, -0.0288545880466700, 0.0169709641486406, 0.0157437808811665, -0.0035047268029302, 0.0260435547679663, 0.0011480114189908, 0.0198622811585665, -0.0052902190946043, -0.0164456497877836, 0.0266947280615568, -0.0384391285479069, 0.0122836977243423, -0.0019519374473020, -0.0428703166544437, -0.1201527342200279, 0.1204381734132767, -0.0387653149664402, -0.0700573399662971, -0.0040605296380818, -0.0683444961905479, 0.0303216651082039, 0.0140525707975030, -0.0111376335844398, -0.0899797081947327, 0.0648044124245644, -0.0015203896909952, -0.0141839692369103, -0.0685379132628441, -0.0661582052707672, 0.0768633335828781, 0.0532977469265461, -0.0750156119465828, -0.1161115840077400, -0.1133598908782005, 0.0687980577349663, -0.0390575081110001, -0.0804191231727600, 0.0289816744625568, -0.1208899766206741, 0.0004341095336713, 0.0787606015801430, 0.0468579009175301, -0.0324173569679260, -0.0620269514620304, 0.0789387300610542, -0.0255628395825624, -0.0139143615961075, -0.0340901315212250, -0.0864264890551567, 0.0556394197046757, -0.0353624857962132, 0.0477530546486378, -0.0648308172821999, 0.0908533781766891, -0.0390343144536018, -0.1230109333992004, -0.0921754240989685, -0.1083373501896858, -0.0125253666192293, -0.1367980539798737, 0.1403160989284515, -0.0076941782608628, 0.0565795190632343, -0.0040250094607472, 0.0798469483852386, 0.0499559976160526, 0.1943843364715576, -0.0566265285015106, 0.1158306822180748, -0.0763962566852570, -0.0258009452372789, -0.0241402052342892, 0.0064840293489397, 0.0589311271905899, 0.0461776331067085, 0.0315456613898277, -0.0495912507176399, -0.0773988068103790, -0.0614578984677792, 0.0141531880944967, -0.0045113759115338, 0.0431580543518066, -0.0318601094186306, -0.0266802944242954, 0.0936814025044441, -0.0254601147025824, -0.1162306070327759, 0.1211609095335007, -0.0549646876752377, -0.0057480204850435, 0.0970042720437050, 0.0682130381464958, 0.1037411689758301, -0.0200416352599859, 0.0514977760612965, 0.0868218690156937, -0.0661066174507141, -0.0180938318371773, 0.0916617736220360, 0.0939295887947083, -0.0250815432518721, -0.1013057306408882, 0.0075011588633060, 0.0940985456109047, 0.0095385890454054, -0.0229996331036091, -0.1491211056709290, -0.0044554849155247, -0.0300608836114407, -0.0676295235753059, -0.0585814863443375, 0.0037525761872530, 0.0771942064166069, -0.0858269184827805, -0.0451957210898399, 0.1313553154468536, 0.0094350101426244, 0.0492553897202015, 0.0107357734814286, 0.0163028240203857, 0.0533712208271027, 0.0397217981517315, 0.0078461142256856, 0.0289827920496464, 0.0382519699633121, -0.0161190964281559, 0.1572470366954803, 0.0246366914361715, 0.0338162370026112, -0.0062768608331680, 0.0072575402446091, -0.0676576495170593, -0.0761082544922829, -0.0368792712688446, -0.0402653217315674, -0.0635399147868156, 0.0525311455130577, -0.0336546041071415, 0.0954128578305244, -0.0237303245812654, -0.0207595340907574, 0.0063843489624560, -0.1214912012219429, 0.0501932986080647, 0.0075420262292027, -0.0908501893281937, -0.0057623162865639, -0.0407350100576878, -0.1257151067256927, 0.1542964428663254, -0.0311539676040411, -0.0739147961139679, -0.0222763810306787, -0.0138302585110068, -0.0440197773277760, -0.1112103089690208, 0.0477320812642574, 0.1436835676431656, 0.0188640318810940, -0.0631949752569199, -0.0277751684188843, -0.0242439657449722, 0.1286453157663345, 0.0552102550864220, -0.0675392448902130, 0.1106166318058968, -0.0832146257162094, 0.0904685482382774, 0.0331199616193771, -0.0431464277207851, -0.0183335263282061, -0.0958546176552773, 0.0901036784052849, -0.0256977248936892, -0.0589477047324181, 0.0706089511513710, -0.0972797125577927, 0.1841925382614136, -0.1109409034252167, 0.0262119062244892, 0.0720811188220978, -0.1137617081403732, -0.0378067456185818, -0.0403117462992668, 0.0521030239760876, -0.0181675944477320, -0.0652332454919815, 0.0074883536435664, 0.0326427966356277, -0.0814139768481255, 0.0747070759534836, -0.0168468672782183, 0.0733922645449638, 0.0301294233649969, -0.1243321374058723, 0.1154679507017136, 0.0320716165006161, -0.0156085472553968, -0.0473492965102196, -0.0960879474878311, 0.0491677112877369, 0.0633750483393669, 0.1453191190958023, -0.0369868613779545, 0.0151056982576847, 0.0270370747894049, 0.1462296992540359, -0.0159064400941133, -0.1140168160200119, -0.0767571479082108, -0.0654745399951935, 0.0779790878295898, 0.1160265430808067, 0.1290658563375473, 0.0959404036402702, 0.1177481040358543, -0.0050627631135285, 0.1230905726552010, 0.0178985558450222, -0.0625130608677864, -0.0605516359210014, -0.0936211049556732, -0.0226832143962383, -0.1495700776576996, -0.1542203426361084, 0.0677369162440300, 0.1139800250530243, 0.0198942851275206, -0.0729535818099976, -0.1047555878758430, 0.0871090665459633, 0.0361584015190601, -0.1203600019216537, 0.0860024467110634, -0.0096550434827805, 0.1030005216598511, -0.0518947318196297, -0.0271356329321861, 0.0216909628361464, 0.0162067227065563, 0.0061172405257821, 0.0131895896047354, -0.0126264337450266, -0.0022852034308016, -0.0678980872035027, -0.1209513098001480, 0.0164028685539961, -0.0284535009413958, -0.0400953777134418, -0.0618947446346283, -0.0640896782279015, -0.0129030393436551, -0.0807040482759476, -0.0333689153194427, 0.0234479345381260, 0.0393279418349266, 0.0173465721309185, -0.0242562927305698, 0.0862033590674400, -0.0679172500967979, 0.1117201969027519, 0.0362080186605453, -0.0787816792726517, 0.0131076779216528, 0.0209388174116611, -0.0317373201251030, 0.0951864719390869, 0.0590574070811272, -0.0403034798800945, -0.0894216001033783, -0.0335814617574215, -0.0694539919495583, 0.0576521307229996, -0.0750240609049797, 0.0164533667266369, -0.0623342841863632, 0.0783854126930237, -0.1207069680094719, 0.0164231527596712, -0.0688601434230804, 0.0372807867825031, -0.0899281278252602, -0.0085309240967035, -0.0539683289825916, 0.0231008324772120, -0.0340744554996490, -0.0019374928670004, 0.0764342695474625, -0.0069687659852207, -0.1182125583291054, -0.0730477347970009, 0.0262978225946426, 0.0000451807245554, -0.0213233083486557, -0.0871953070163727, -0.0701075494289398, -0.0246865339577198, -0.1149239540100098, 0.0079417573288083, -0.0930307656526566, -0.0324566811323166, -0.0336627252399921, -0.0257681123912334, -0.0768244490027428, 0.0600850060582161, -0.0332115255296230, 0.0256081428378820, -0.0006443702150136, -0.1174246743321419, 0.0260092616081238, 0.0455436557531357, 0.0339565947651863, 0.0056203897111118, 0.1075285300612450, 0.1268215030431747, 0.0602404661476612, -0.0604858063161373, -0.0849302262067795, 0.0156899895519018, 0.1382050216197968, 0.0421151816844940, 0.0809765458106995, -0.0549939572811127, -0.0166435688734055, -0.1168250665068626, 0.0537257231771946, -0.1386314034461975, 0.0280729848891497, 0.0241807438433170, -0.0650787055492401, -0.0671058744192123, 0.0205888524651527, 0.0529986694455147, -0.1201609298586845, 0.0234570838510990, -0.0064331023022532, 0.0657074749469757, -0.0689904466271400, 0.0692316442728043, -0.0612257272005081, -0.0050685117021203, -0.0736728161573410, 0.0736758336424828, 0.0663310214877129, -0.0131444772705436, 0.0029630323406309, 0.0309963040053844, -0.0926597565412521, 0.0178564358502626, -0.0458815246820450, 0.0672184228897095, -0.0739127546548843, -0.0363075807690620, 0.0099837854504585, -0.0919497311115265, 0.0248736105859280, 0.0346893854439259, 0.0018021732103080, -0.0000105797807919, 0.0580024495720863, -0.0209434051066637, 0.0081378137692809, -0.1111202016472816, -0.0009896890260279, -0.0783146768808365, -0.0145893292501569, -0.0200862977653742, 0.0238289386034012, -0.0950856655836105, -0.0271451734006405, 0.0236192047595978, -0.1081051975488663, 0.0531800091266632, 0.0480435825884342, -0.0735820978879929, 0.0485080257058144, -0.1047827526926994, -0.0692952796816826, -0.0529385879635811, 0.0128915552049875, 0.0706858858466148, 0.0623507983982563, 0.0907827094197273, -0.0430628024041653, 0.0095885284245014, 0.1011451259255409, -0.0047484301030636, -0.0679482817649841, -0.0452521666884422, -0.0496064275503159, 0.1412289142608643, -0.0575547665357590, 0.0102194137871265, -0.1058296561241150, -0.0693970993161201, -0.0895337536931038, 0.0261582732200623, 0.0473127029836178, 0.0026992594357580, -0.1157242953777313, -0.0916710942983627, 0.1266109943389893, -0.0651373118162155, 0.0618263669312000, -0.0633637681603432, 0.1184867918491364, -0.0076780207455158, 0.0225057937204838, -0.1161013096570969, 0.0549962744116783, -0.0941614061594009, 0.0742279365658760, -0.0411839112639427, -0.0241013150662184, -0.0868099629878998, -0.0249857753515244, -0.0742582082748413, 0.0805183798074722, 0.0482628904283047, -0.0976590961217880, -0.0204058904200792, -0.0622783154249191, -0.0427349731326103, 0.0275444127619267, -0.1227197498083115, -0.0878384411334991, -0.0559661798179150, -0.1031532362103462, -0.1284109205007553, 0.1094881072640419, 0.0879777148365974, 0.0932248607277870, 0.0194729156792164, -0.0455988831818104, -0.1645366549491882, -0.0579375550150871, -0.0405744388699532, -0.0697022452950478, 0.0405059903860092, -0.0250381696969271, -0.0332197248935699, 0.0891459956765175, -0.0371815450489521, -0.0021614457946271, 0.1003798916935921, -0.0818047896027565, 0.0299144815653563, 0.0684482231736183, -0.0190287400037050, -0.0865634903311729, -0.0145072508603334, 0.0379543974995613, -0.1215713620185852, -0.0188127253204584, 0.0560321286320686, 0.1132108941674232, 0.0940897166728973, -0.0536106675863266, -0.0187386423349380, 0.0050009428523481, -0.0606464445590973, -0.0934844836592674, 0.0481697358191013, -0.0990582257509232, -0.1093707531690598, -0.0616825968027115, 0.0421736910939217, 0.0708087906241417, 0.1061241179704666, -0.0793072283267975, 0.0714748948812485, 0.0341930165886879, 0.0404293127357960, -0.0122292647138238, -0.0329217575490475, 0.0235104039311409, -0.1027145832777023, 0.0141909169033170, -0.0998120084404945, -0.1502262353897095, -0.0464664548635483, 0.0755665525794029, 0.0360961072146893, -0.1232470646500587, 0.0248501934111118, 0.0362271480262280, 0.0416759774088860, -0.0226457640528679, 0.0865819007158279, -0.0131082423031330, -0.0546776205301285, -0.0905036330223083, 0.0310030542314053, -0.0484676100313663, 0.0613732188940048, -0.1086282283067703, -0.0424722358584404, 0.0117216706275940, -0.0048107225447893, 0.0992143303155899, 0.0386989638209343, 0.0023076988290995, 0.0145880673080683, -0.0124377897009254, 0.0787546560168266, -0.0969398915767670, 0.0826433673501015, 0.0176004432141781, 0.0093625234439969, 0.0212474167346954, -0.0862784758210182, -0.0556032098829746, -0.0463960506021976, 0.0173952989280224, -0.0898720324039459, 0.0324482955038548, 0.0656227767467499, -0.0694157928228378, -0.0370074957609177, -0.0617375820875168, -0.1178673505783081, -0.0379727184772491, 0.0351575799286366, -0.0042215292342007, -0.0294509325176477, 0.0427871830761433, -0.0161149855703115, -0.0410725474357605, 0.0071161841042340, 0.0436980351805687, -0.0084495218470693, 0.0750188603997231, -0.0703615173697472, 0.0667844861745834, -0.0748912990093231, -0.1105858013033867, -0.0787401124835014, 0.0609840638935566, -0.0241641327738762, -0.0121016213670373, -0.0130852460861206, -0.0421553142368793, -0.0524480454623699, 0.1200511008501053, 0.0614502280950546, -0.0002825339906849, 0.0654374212026596, -0.1139816045761108, 0.0444370359182358, -0.1157707348465919, -0.0928278490900993, 0.0573028884828091, -0.0783547088503838, -0.0398596525192261, 0.0145977940410376, 0.0784595683217049, -0.0571443922817707, -0.0236913505941629, -0.0328915454447269, 0.0861106514930725, -0.0102055771276355, -0.0883813053369522, -0.0128686493262649, 0.0667331740260124, 0.0614170692861080, 0.0184953417629004, 0.0823402255773544, 0.0222380012273788, 0.0811183676123619, -0.0767701417207718, -0.0396881625056267, 0.0776193365454674, -0.0621025748550892, 0.0498043075203896, 0.0363555997610092, -0.0822820514440536, -0.0344431400299072, 0.0085030030459166, -0.1354905813932419, 0.0636011138558388, -0.0348149463534355, 0.0873789265751839, 0.0348158814013004, 0.0029191456269473, -0.0384980887174606, -0.0449639707803726, -0.0736056640744209, 0.0784894749522209, -0.0343876965343952, 0.0349074080586433, -0.0318124033510685, -0.0373531281948090, -0.0350468121469021, 0.0823266878724098, -0.0012198948534206, 0.0469925589859486, 0.1274369657039642, 0.0119698252528906, -0.0188192911446095, -0.1300873160362244, 0.0899541601538658, 0.0429786927998066, -0.0405909791588783, -0.0243950244039297, 0.0651818290352821, -0.0522488877177238, 0.0174780115485191, -0.0460027307271957, 0.0837828591465950, 0.0033929354976863, 0.0786874592304230, -0.0623064786195755, 0.1057192012667656, 0.0703084468841553, 0.0131386844441295, 0.0467395819723606, -0.0413487926125526, 0.0551963336765766, 0.0406705662608147, -0.0136419553309679, -0.0055366801097989, 0.1729750782251358, 0.0036823933478445, 0.0905445143580437, -0.0104236686602235, -0.0639270544052124, 0.0347882434725761, -0.0421777553856373, -0.0543752908706665, -0.0533971711993217, -0.0650131702423096, -0.0354168973863125, 0.0710057541728020, 0.1372035145759583, 0.1161463633179665, -0.0028881761245430, 0.0587645545601845, -0.0655659809708595, -0.1936413049697876, 0.0089258924126625, 0.1147834211587906, 0.0688318312168121, 0.0202643740922213, 0.0809139981865883, 0.0066905952990055, -0.0649170801043510, -0.0488110706210136, -0.1063716560602188, -0.0324940383434296, -0.0420288331806660, -0.0602897740900517, 0.0296753067523241, -0.0773285180330276, 0.0416072271764278, -0.1130811423063278, -0.0218795556575060, 0.0491692051291466, -0.1220136284828186, -0.0948677733540535, -0.0071035418659449, 0.0922449827194214, -0.0152104273438454, 0.0730170086026192, 0.0814530551433563, -0.0283932518213987, 0.0159089881926775, -0.0242676194757223, -0.1435150206089020, -0.0311723779886961, -0.0158780906349421, 0.0851381495594978, 0.0379434786736965, 0.0336275920271873, 0.0611590929329395, -0.0762928277254105, -0.0060871499590576, 0.0543602667748928, 0.0647134557366371, 0.0822849944233894, 0.0479787401854992, -0.0045628095977008, 0.1296653896570206, 0.0296593550592661, 0.1115491613745689, 0.0113953258842230, 0.0308442991226912, 0.0770968869328499, -0.1066713333129883, 0.0106481518596411, -0.1417829096317291, 0.1698187142610550, -0.0954492241144180, -0.0202775020152330, -0.0290018096566200, -0.0379733406007290, 0.0469346344470978, 0.0821644514799118, 0.0981941372156143, 0.0347774811089039, 0.0371168404817581, 0.1650715917348862, -0.0181691162288189, -0.1216084137558937, 0.0800304040312767, -0.0602338016033173, 0.0115686012431979, -0.0851235687732697, 0.0289691910147667, 0.0357423536479473, -0.0618233010172844, 0.0188634656369686, 0.1582524776458740, -0.0220240391790867, -0.0031331481877714, -0.0393467992544174, -0.0051225428469479, 0.0493257902562618, -0.1244564652442932, 0.0816558673977852, -0.1088219508528709, 0.0042575472034514, 0.0527974106371403, -0.0433575659990311, -0.0748890116810799, -0.0221227537840605, -0.0513081550598145, 0.1034014597535133, 0.0363255590200424, 0.0284734647721052, 0.1136738583445549, -0.1605848520994186, -0.0211088787764311, -0.0531265325844288, -0.1098205968737602, -0.0742267146706581, -0.0418529473245144, -0.1248065009713173, -0.0726425349712372, -0.0883223712444305, 0.0053885695524514, 0.0726845338940620, 0.0545111857354641, -0.0273000821471214, 0.0559695065021515, 0.0275859683752060, -0.1006751582026482, 0.0244138222187757, 0.0626426935195923, 0.0526050552725792, -0.0474989153444767, 0.1312017142772675, -0.1287177354097366, -0.0302274785935879, 0.0744131281971931, 0.0704826489090919, -0.0475986376404762, 0.0112855322659016, -0.0204855930060148, -0.1231542304158211, -0.0569802373647690, -0.0006486617494375, -0.1339647769927979, 0.1059054881334305, 0.1146325990557671, -0.0137377521023154, -0.0877383723855019, -0.2525990307331085, -0.0448628999292850, -0.1045705825090408, -0.0107434401288629, 0.0114910416305065, -0.0497328937053680, -0.1087119951844215, -0.0037516211159527, -0.0015854430384934, -0.0216944869607687, -0.0535602867603302, -0.0931584164500237, -0.0951407179236412, -0.0120291179046035, -0.0727846845984459, 0.0531058572232723, 0.2865066826343536, -0.0743038952350616, 0.0209911167621613, 0.2066250592470169, 0.0024327337741852, 0.0503194890916348, -0.0778264254331589, -0.0948356240987778, -0.0756225883960724, -0.0577481985092163, -0.0730117037892342, 0.0778804048895836, -0.0545484796166420, 0.0837420895695686, 0.0599300079047680, 0.1503500789403915, 0.0633525922894478, 0.0124806370586157, 0.0488576628267765, -0.0516723953187466, 0.1264056861400604, -0.0358904525637627, 0.0416708588600159, -0.0499313399195671, -0.0057480121031404, -0.0335052460432053, -0.1287560462951660, -0.0026412461884320, 0.0032756202854216, 0.0440657697618008, -0.1075775995850563, -0.0409089513123035, 0.0590864010155201, 0.0687400475144386, 0.0258696302771568, -0.0928045809268951, -0.0292786043137312, -0.0361852236092091, 0.0257195327430964, 0.0167951341718435, 0.0610508807003498, 0.0511389970779419, -0.0256421174854040, -0.0356724485754967, -0.0482366681098938, 0.0663635432720184, -0.0380297340452671, 0.0073776505887508, -0.0146830463781953, 0.0450693517923355, -0.0809116363525391, -0.0795114785432816, 0.0472782477736473, 0.0014925244031474, -0.1301731169223785, -0.0805539265275002, -0.0582070462405682, -0.1575305163860321, 0.0049474784173071, 0.0273521486669779, 0.0846667587757111, -0.0213478989899158, 0.0263928733766079, 0.0134875942021608, -0.0076306913979352, 0.0613042227923870, -0.0707947313785553, -0.0441113784909248, -0.0014999605482444, -0.0185066666454077, 0.0053216461092234, -0.0513032786548138, -0.0237974040210247, 0.0378643386065960, -0.0362007394433022, -0.0794882774353027, 0.1040021479129791, -0.0643077567219734, -0.0542630217969418, 0.0774875879287720, 0.0452122986316681, 0.1382786482572556, -0.0625026077032089, 0.0349851846694946, 0.0737157911062241, -0.0612795837223530, -0.0588229782879353, -0.0217834245413542, -0.0293162669986486, 0.0815019384026527, 0.0119079872965813, 0.0235405098646879, -0.0844484418630600, -0.0834085196256638, -0.0558102279901505, -0.0092135807499290, 0.1349719613790512, -0.1090900897979736, 0.0158825404942036, 0.0324823744595051, -0.1325980871915817, 0.0339516848325729, 0.0476222857832909, 0.0278367735445499, 0.0893244817852974, 0.0687780380249023, 0.0976360663771629, 0.0721163228154182, -0.0715764537453651, 0.0742351263761520, -0.0740392431616783, -0.0038027910050005, 0.1131370887160301, -0.0276439841836691, -0.0975205376744270, 0.0969333425164223, 0.0392601452767849, -0.0702378302812576, -0.0352541692554951, -0.1385726183652878, -0.0604903586208820, 0.0634969919919968, 0.1077971383929253, 0.0742907226085663, 0.0877129510045052, -0.0044459300115705, -0.0103735104203224, 0.0819944962859154, -0.1277656108140945, -0.0535705052316189, -0.0645509511232376, 0.1620473116636276, 0.0402979031205177, -0.0566860102117062, 0.0057785767130554, 0.0520950481295586, 0.0593839399516582, 0.0260704848915339, -0.0303675457835197, 0.0149110127240419, -0.0292873717844486, 0.0071442821063101, -0.0720463022589684, -0.0099994037300348, -0.0869231745600700, 0.0777929350733757, -0.0385854989290237, -0.0220232289284468, 0.1216449290513992, 0.0208808295428753, 0.0172208584845066, 0.0657944604754448, -0.0910450965166092, -0.0613465458154678, 0.0935845449566841, -0.0657891184091568, -0.1043239459395409, -0.1208720132708549, -0.0761377587914467, -0.0874477028846741, -0.0488160252571106, 0.0849159583449364, 0.0474814102053642, -0.1103776171803474, -0.0643267408013344, -0.0468799024820328, 0.0383718572556973, 0.0230228193104267, 0.0143387569114566, 0.0117185059934855, 0.0150175662711263, 0.0502944476902485, -0.1342004984617233, 0.0012150638503954, -0.1171367466449738, -0.0331060215830803, 0.1083636358380318, -0.1981314122676849, -0.0319632217288017, -0.0039115347899497, -0.0908315852284431, 0.1275543421506882, -0.0250934530049562, 0.0537505857646465, -0.0604973547160625, 0.0189030598849058, 0.0244584493339062, 0.0152482064440846, 0.0654381290078163, -0.0764092057943344, -0.1169480159878731, 0.0581330247223377, 0.0756681188941002, 0.1190869286656380, -0.0389203727245331, 0.0028744905721396, 0.0811124369502068, -0.0129782790318131, 0.1266231089830399, 0.1985099017620087, 0.1099526137113571, -0.2047772258520126, 0.0555649921298027, 0.0380224511027336, 0.0040435711853206, -0.1716747432947159, -0.0848850533366203, -0.0082301115617156, 0.0315518379211426, -0.1786248832941055, -0.0733141377568245, -0.0251943599432707, 0.0042411331087351, -0.0143716558814049, 0.1012493595480919, 0.0113889286294580, 0.0850026607513428, 0.0365474969148636, -0.1159973591566086, 0.0832415521144867, 0.1227311939001083, 0.1013491824269295, -0.0528524443507195, -0.0738185495138168, -0.0866125747561455, 0.1190452203154564, 0.0835583209991455, 0.0595566257834435, 0.0767124295234680, 0.0156162474304438, -0.0711480081081390, -0.0569576323032379, -0.0573364496231079, -0.0371988527476788, -0.0386648550629616, 0.0937438309192657, -0.0891176760196686, -0.1600963175296783, -0.0472953356802464, -0.0486578568816185, -0.1285143941640854, 0.0404276438057423, 0.1600286513566971, -0.0237964261323214, 0.0699017196893692, 0.0128472270444036, 0.0739301890134811, 0.0600903704762459, 0.0433223061263561, -0.0697847157716751, -0.0366769470274448, 0.0342411026358604, 0.0511361062526703, 0.1321740299463272, -0.0827050656080246, -0.0302746798843145, -0.0723965540528297, -0.0666742175817490, 0.0986368209123611, -0.0782048255205154, 0.0952753722667694, -0.0188088435679674, 0.1194306686520576, -0.0466288179159164, 0.0842596590518951, 0.0530654042959213, 0.0049473824910820, -0.0921426638960838, -0.0925303548574448, -0.0575446188449860, 0.0265229418873787, 0.0347059406340122, -0.0168785005807877, 0.0751830637454987, 0.0434650853276253, -0.0670533627271652, -0.0111278155818582, 0.0036500794813037, 0.0464310832321644, 0.0398243926465511, 0.0392291322350502, 0.0630610063672066, 0.0240135062485933, 0.1338715404272079, 0.1779166907072067, -0.0446090511977673, 0.0407054275274277, 0.0467626750469208, 0.0165908690541983, -0.0203556697815657, 0.0054224068298936, -0.1774447411298752, 0.1061211004853249, 0.0212420038878918, -0.0893330425024033, -0.1103659346699715, 0.0602178946137428, -0.0904295295476913, -0.0863851308822632, 0.0652036145329475, 0.0117227602750063, 0.0562919415533543, -0.0303530376404524, -0.1736819297075272, -0.1768468916416168, 0.0171645712107420, -0.0515848137438297, -0.0018565293867141, 0.1055909916758537, -0.1148319393396378, 0.0598718635737896, -0.0380450934171677, -0.0663792192935944, -0.0265523735433817, -0.0518144667148590, 0.0474999509751797, -0.0027858286630362, 0.0697821825742722, -0.0721866637468338, 0.0154258869588375, 0.0353005118668079, -0.0030102471355349, 0.0350047089159489, 0.0276963189244270, -0.0469070263206959, 0.0658041983842850, -0.0688790082931519, -0.0278959833085537, -0.0668335407972336, 0.0213035698980093, -0.0426901020109653, -0.0963229238986969, 0.0283609926700592, 0.0210170559585094, 0.0249838102608919, -0.0651336684823036, 0.0936773717403412, 0.1078512072563171, -0.0333952456712723, -0.0262229852378368, 0.0364572629332542, 0.0577575378119946, -0.1624359637498856, 0.0206600688397884, 0.0800374522805214, 0.0008048678282648, 0.0716891214251518, -0.0769805535674095, -0.1003388091921806, -0.0850810259580612, 0.0749047845602036, 0.0376108065247536, 0.0320476032793522, -0.0817674100399017, 0.0529954098165035, -0.0131985032930970, -0.0831621885299683, 0.0385545343160629, -0.0460411384701729, -0.0390448234975338, -0.0673026666045189, 0.0346100330352783, 0.0256332978606224, 0.0396181531250477, -0.0804463550448418, 0.0356462337076664, 0.0166832208633423, 0.0605923011898994, 0.0795744955539703, 0.0146623915061355, 0.0273212790489197, 0.0396397635340691, 0.0189029742032290, 0.0833582803606987, -0.0746821761131287, -0.0199771989136934, -0.0243489928543568, 0.0783858373761177, 0.0129019441083074, -0.0608721636235714, -0.0306337848305702, -0.0511923953890800, 0.0410832203924656, -0.1036249920725822, 0.0161170270293951, 0.0375209040939808, -0.0625872984528542, -0.0056135891936719, -0.0681540220975876, -0.0701004862785339, -0.0332383178174496, 0.0354111790657043, -0.0980785116553307, -0.0785745233297348, -0.0122520551085472, 0.0108244596049190, -0.0386294759809971, 0.0249122250825167, -0.1021169871091843, -0.0291018821299076, 0.0433962456882000, 0.0483546517789364, -0.0947455987334251, -0.0193923562765121, -0.1263291984796524, 0.0304329581558704, 0.0656668841838837, 0.1010735929012299, -0.0021300213411450, -0.0349664017558098, 0.0351562574505806, -0.0802440494298935, -0.0253562852740288, -0.0510180220007896, -0.1307517141103745, -0.0169714577496052, 0.0743056535720825, 0.0117903836071491, -0.0856191888451576, -0.0139534315094352, -0.0340643152594566, -0.0896487906575203, -0.0738904923200607, -0.0350659973919392, 0.0453169308602810, -0.0099572250619531, -0.0143653592094779, -0.0535535812377930, -0.0893763378262520, 0.0015936485724524, 0.1090872660279274, -0.0829712301492691, -0.0566872693598270, 0.1134218499064445, -0.0966224595904350, -0.0621063299477100, 0.2394853830337524, -0.0577786751091480, 0.0408755019307137, 0.0218510664999485, -0.0380706451833248, 0.0960225388407707, -0.0688627436757088, 0.0265997461974621, -0.0306975841522217, 0.0013229469768703, -0.0931386351585388, -0.0095298932865262, 0.0451942421495914, 0.0005280305631459, -0.0021779013331980, 0.0879755094647408, -0.0772263035178185, -0.0376877002418041, 0.0741996020078659, -0.0233789570629597, -0.1027212738990784, 0.1125944480299950, -0.0975161939859390, -0.0136091941967607, 0.0164958462119102, -0.0453357994556427, 0.0282446667551994, -0.0407200492918491, -0.0778303965926170, 0.1521112024784088, -0.0786414742469788, -0.0394259281456470, 0.0276520978659391, -0.0346989147365093, -0.0451150871813297, 0.0211220439523458, -0.0506960637867451, 0.0579259693622589, 0.0387928485870361, -0.0127296829596162, -0.0742206051945686, 0.0271708089858294, 0.0120804151520133, -0.0928765758872032, 0.1101970449090004, -0.0291884168982506, 0.0930333137512207, 0.0160326771438122, -0.0709130167961121, -0.0128166684880853, -0.0606053806841373, 0.0071438401937485, 0.0792078599333763, 0.0343534760177135, 0.0007900775526650, 0.0635882914066315, -0.0069631347432733, 0.0634510666131973, -0.0555980987846851, 0.0348087623715401, 0.2368138581514359, -0.0400160141289234, -0.0972473770380020, -0.0618950501084328, 0.0379550084471703, -0.0253210589289665, -0.1763233393430710, -0.0086868340149522, 0.1491558253765106, 0.1062200665473938, -0.0426031090319157, -0.0402499176561832, 0.0724194198846817, -0.1384406983852386, -0.0288016702979803, -0.0064817331731319, 0.0093931369483471, 0.0686714202165604, -0.0850602164864540, -0.1933755278587341, 0.0404544919729233, -0.0631662309169769, -0.0093336896970868, 0.0965875759720802, -0.0325010865926743, -0.0178342498838902, -0.0289642028510571, -0.0218430217355490, -0.0494892522692680, 0.0051737194880843, 0.0434157177805901, 0.1563998311758041, -0.0334547571837902, 0.0829822942614555, -0.0757849663496017, -0.0398504696786404, 0.0653637796640396, 0.0376443602144718, -0.1309542059898376, 0.0194502826780081, -0.1211825683712959, -0.0036395278293639, 0.0268603097647429, -0.0496903546154499, 0.0547194555401802, 0.0494480207562447, 0.0035544096026570, 0.0112262926995754, 0.0526632107794285, 0.0831279605627060, -0.0681920126080513, 0.1213898211717606, -0.1164285689592361, 0.0204617232084274, 0.0338239446282387, 0.0037464515771717, 0.0668704435229301, -0.0531046167016029, -0.0465165041387081, -0.0046556969173253, -0.0101932855322957, 0.0367217399179935, -0.1420328319072723, 0.0644376650452614, 0.0409702360630035, -0.1517033576965332, -0.0326622128486633, -0.0421234555542469, -0.1222833544015884, 0.0567026324570179, 0.0394214801490307, -0.0649438947439194, 0.0931056588888168, -0.1308227330446243, 0.0859530344605446, -0.0573331974446774, 0.0325232855975628, 0.0542648360133171, -0.0807875394821167, 0.1305700987577438, -0.0110033908858895, 0.0580282732844353, -0.0681851059198380, 0.0589181073009968, 0.0508383400738239, -0.0071164122782648, 0.0550742633640766, 0.1945812702178955, 0.0640689879655838, -0.0951806753873825, 0.0849659889936447, 0.0754011720418930, -0.0644267126917839, -0.0523123033344746, -0.0019869315437973, -0.0140317939221859, 0.0763582512736320, -0.2062976807355881, -0.0545861013233662, 0.0078627960756421, 0.1133801862597466, -0.0331757925450802, -0.0406138077378273, 0.0654508918523788, 0.0445560924708843, -0.0628888383507729, -0.0120510533452034, 0.0892009511590004, 0.1173740625381470, 0.0567444339394569, -0.0389382354915142, -0.0080461511388421, -0.0095735425129533, 0.1138495877385139, -0.0341830216348171, -0.0291159916669130, 0.0733613967895508, 0.0231737755239010, -0.0876660794019699, -0.0466956235468388, -0.0042580501176417, -0.0311949476599693, -0.0747978016734123, 0.1138883978128433, 0.0338192805647850, 0.0171157494187355, 0.0748037099838257, -0.1137640774250031, -0.0007304106256925, 0.0070366640575230, 0.0892829373478889, 0.0716868117451668, -0.0386950187385082, 0.0285514667630196, 0.1173093840479851, -0.0657783895730972, -0.0574861876666546, -0.1602661311626434, 0.0906887799501419, -0.0693509057164192, -0.0614061281085014, 0.0561545379459858, -0.0514101311564445, -0.0299069900065660, -0.0933436751365662, 0.0809315443038940, 0.0344323590397835, -0.1792817860841751, 0.0799747481942177, 0.0503671839833260, 0.1541185528039932, -0.0203590206801891, 0.1347597688436508, 0.0741741806268692, 0.0780226811766624, -0.0293268486857414, 0.0216899327933788, -0.1129005253314972, 0.0660126805305481, -0.0058799707330763, -0.0570538267493248, 0.0358773060142994, 0.0001216994860442, -0.0690571144223213, 0.0337086357176304, -0.0008850003359839, 0.0459249317646027, 0.0477620549499989, 0.1123440191149712, 0.0483980253338814, 0.0153525089845061, 0.1641648709774017, 0.0847853124141693, -0.0195226743817329, 0.0000982243873295, 0.0040691369213164, -0.0590033233165741, -0.0236078388988972, 0.0984185561537743, -0.0996156260371208, 0.0858469158411026, 0.0275668837130070, -0.0974069014191628, 0.0931485965847969, 0.0299656670540571, -0.0783658698201180, -0.0157227031886578, -0.0585705302655697, 0.0066977944225073, 0.0236644241958857, 0.0090025300160050, -0.0810177996754646, 0.0053695603273809, -0.0835040286183357, -0.0670059099793434, 0.1286467015743256, 0.1376799046993256, -0.0550978034734726, 0.1350420415401459, 0.0078066862188280, -0.0546495616436005, -0.0859363824129105, -0.0092585869133472, -0.0116302594542503, 0.0637377798557281, -0.0126415751874447, -0.0343628972768784, -0.0106104956939816, -0.0593720301985741, -0.0656025111675262, 0.0924315080046654, 0.0809962972998619, 0.0144021082669497, 0.0002356095501455, 0.0198667403310537, -0.0701746046543121, -0.1532674282789230, 0.1354038417339325, -0.0473657250404358, -0.0401007346808910, 0.0398341566324234, 0.0181196667253971, -0.0136184999719262, 0.0173900779336691, 0.0248348303139210, 0.1635657101869583, -0.1028674319386482, 0.0229036733508110, 0.0931031554937363, 0.1042024940252304, -0.0377712845802307, 0.0061291754245758, 0.0405449792742729, 0.0951534286141396, -0.1110086739063263, -0.1106641143560410, -0.0889199003577232, -0.0173610411584377, 0.0313845798373222, -0.0064951991662383, -0.0205746907740831, 0.0220103915780783, -0.0389528572559357, 0.0130771687254310, -0.0003243781102356, 0.0128370113670826, -0.0308918002992868, 0.0498803220689297, 0.0318441800773144, 0.0284101273864508, -0.0309283528476954, -0.0696238875389099, -0.1353428065776825, -0.0214225221425295, -0.0662585794925690, 0.0085672205314040, 0.2469652891159058, -0.0639815181493759, -0.1354361325502396, -0.0211723670363426, 0.0391428135335445, -0.0929473489522934, -0.0656448528170586, 0.0373994447290897, 0.0848129615187645, 0.0438442863523960, 0.0682686865329742, 0.0167236067354679, 0.0890059620141983, -0.0184105802327394, -0.0395557060837746, -0.0600114837288857, -0.0791996866464615, 0.0587611384689808, -0.0624365285038948, -0.1003705933690071, -0.0809299722313881, -0.0860289856791496, 0.0094883535057306, 0.1114972829818726, 0.0127149261534214, 0.0616107806563377, 0.0939634665846825, 0.0877787098288536, -0.0289872735738754, 0.0277599692344666, 0.0526726171374321, 0.0235179048031569, -0.0198816526681185, -0.0434084981679916, -0.0200777333229780, -0.0528949797153473, 0.0745113193988800, -0.1017984151840210, -0.1257957369089127, 0.0232307706028223, -0.0242512989789248, 0.0349616594612598, 0.0454754382371902, -0.1021060645580292, -0.0777219459414482, -0.0636333227157593, 0.0096311066299677, 0.0654533058404922, -0.0215135626494884, 0.0081119975075126, 0.0298044681549072, 0.0760161057114601, -0.0654881894588470, 0.0185403171926737, -0.0424352996051311, -0.0196431837975979, -0.0478020682930946, 0.0508865267038345, -0.0347971878945827, 0.0755850598216057, 0.0936518013477325, -0.0017265706555918, 0.0913493037223816, -0.0524145960807800, -0.0787297785282135, 0.0190999805927277, 0.0120383342728019, 0.0128705995157361, 0.1648093163967133, -0.0258358716964722, 0.0554025284945965, 0.0821430534124374, 0.0698942467570305, 0.0915526226162910, -0.1184544786810875, -0.0725742205977440, 0.0537943542003632, 0.0761435553431511, 0.0502585396170616, -0.0533709451556206, 0.0093934088945389, 0.0167970284819603, 0.0675698742270470, 0.0881680697202682, -0.0584631077945232, -0.0363785363733768, 0.1079100966453552, 0.0251401104032993, -0.0690083876252174, 0.1008387953042984, -0.0665711537003517, -0.0266692060977221, -0.0486050061881542, 0.0961332023143768, 0.1222421005368233, -0.0154696106910706, -0.0620731636881828, 0.1828636676073074, 0.0053031668066978, -0.0298659484833479, -0.0175475347787142, 0.0167136173695326, -0.0003977221203968, -0.0390464775264263, -0.0732880607247353, 0.0408368259668350, 0.0432640984654427, -0.0971713364124298, -0.1257359832525253, 0.0570824183523655, 0.0647253021597862, -0.1307534277439117, 0.1308988928794861, -0.0799521133303642, 0.0873882621526718, 0.0005899115931243, -0.0067021432332695, -0.0047550825402141, 0.0017508944729343, 0.1022872477769852, -0.0215129051357508, -0.0155907515436411, 0.0886296555399895, -0.0050954930484295, 0.0441429615020752, 0.0068445596843958, 0.0183751136064529, 0.0621540248394012, 0.1498802602291107, 0.0335506424307823, 0.0076784938573837, -0.0853179842233658, 0.0561663210391998, 0.0813153833150864, -0.0810074433684349, -0.0208119638264179, -0.0010753225069493, 0.0248717386275530, -0.0393517911434174, -0.0292241442948580, -0.0033520767465234, 0.0101812938228250, -0.0052318153902888, -0.0210977010428905, 0.1671018600463867, 0.0543571859598160, -0.0236557573080063, 0.0211025364696980, 0.0398754067718983, 0.0825665965676308, -0.0365909859538078, -0.0116545204073191, -0.0827044993638992, 0.0607781969010830, -0.0010115827899426, 0.0151270702481270, -0.0194178856909275, -0.0206014085561037, 0.0310324188321829, 0.1969283372163773, 0.0232050344347954, -0.0295187085866928, -0.0503970496356487, -0.0546557754278183, 0.0516272634267807, 0.0592641681432724, -0.0997078493237495, 0.0465422496199608, -0.0338809080421925, 0.0508337840437889, 0.0683401674032211, 0.0359230563044548, 0.0537021905183792, 0.0393512099981308, -0.0283874236047268, 0.0171902850270271, -0.0569593459367752, 0.1152728274464607, -0.0037251694593579, 0.0894803106784821, -0.1630571484565735, -0.0672990232706070, 0.0349945612251759, 0.0713704079389572, -0.0563168115913868, 0.0300653316080570, -0.0745312571525574, -0.1019624248147011, -0.0274097453802824, -0.0122608765959740, -0.0576523765921593, -0.0423005372285843, -0.0973652228713036, -0.0942854657769203, -0.0641273260116577, 0.0832508727908134, -0.1312745511531830, -0.0508737042546272, 0.0248139705508947, 0.0946915447711945, -0.0659822076559067, -0.1812976598739624, -0.0259168911725283, -0.1187703385949135, -0.0485412478446960, -0.0474171824753284, 0.0062474585138261, -0.0914222449064255, 0.0567659698426723, -0.0175777133554220, 0.0483417287468910, 0.0488485582172871, 0.0710069090127945, -0.0841059908270836, 0.0415817834436893, 0.0134675195440650, -0.1657005548477173, 0.1102930605411530, -0.0884750485420227, -0.0196810904890299, 0.0525244399905205, -0.0188101548701525, 0.0266973786056042, -0.0482864938676357, 0.0667849257588387, -0.1051554083824158, -0.1293531954288483, 0.0857094824314117, -0.0742955729365349, 0.1194077506661415, 0.0375900827348232, -0.1186646521091461, -0.0528288334608078, 0.1065028160810471, -0.0780823007225990, -0.0181103963404894, -0.0999900847673416, 0.0418361015617847, -0.1157535463571548, -0.1077340990304947, 0.0104148564860225, 0.0866057425737381, 0.0334078967571259, -0.0572297945618629, 0.1001898795366287, 0.0035513192415237, 0.0163902658969164, 0.1077662482857704, -0.0717908516526222, 0.0838445574045181, -0.1075739413499832, 0.0643436461687088, -0.0095178438350558, 0.0420304760336876, -0.0016899517504498, -0.0976009219884872, 0.2785828411579132, -0.0578794926404953, 0.0556570775806904, -0.0990524739027023, -0.1019176170229912, 0.0272417385131121, -0.0176803693175316, 0.0063014407642186, 0.0274948216974735, -0.0582129023969173, -0.1078054979443550, -0.0125846052542329, 0.0708421245217323, 0.0494830608367920, 0.0358140654861927, -0.0689076334238052, -0.1332536786794662, 0.0059844912029803, -0.0776409357786179, 0.1081101521849632, 0.0259337164461613, -0.0723320692777634, -0.0704126283526421, 0.0998871251940727, 0.0215302649885416, 0.0100266393274069, -0.0447551459074020, 0.0272465888410807, -0.1376000642776489, -0.0517822392284870, 0.0411175899207592, -0.0015727941645309, 0.1127320453524590, -0.1368721276521683, -0.0612297207117081, -0.1171187758445740, 0.0800975561141968, 0.0207770727574825, -0.0499337166547775, -0.0045783896930516, -0.0073351007886231, 0.0266831871122122, -0.0299762915819883, -0.0113065587356687, 0.0423897840082645, -0.1145553216338158, 0.0576905496418476, 0.0470594987273216, 0.0492163524031639, 0.1313560456037521, -0.1438317149877548, 0.1999222785234451, -0.0800096839666367, -0.0022012055851519, -0.0143675059080124, -0.0072686672210693, 0.0949319452047348, -0.0368833728134632, -0.0162237919867039, 0.0850829258561134, -0.0360128693282604, -0.0482835136353970, 0.1285801082849503, -0.0545116961002350, 0.0242999624460936, 0.0680737420916557, 0.0607501678168774, -0.0142176728695631, 0.1111469119787216, -0.0144129386171699, -0.1239368766546249, 0.0687740221619606, 0.0730136632919312, -0.0964196398854256, 0.1003980860114098, 0.0100578283891082, -0.0726634263992310, -0.1010353788733482, -0.0099950488656759, 0.0039154682308435, 0.0729663074016571, -0.0437100902199745, -0.0319922305643559, 0.0328317210078239, 0.0249422993510962, 0.0742061361670494, -0.0183605365455151, -0.0487081892788410, -0.0562231689691544, 0.1106773689389229, 0.0089767677709460, -0.0105578154325485, -0.0238337274640799, 0.0746253728866577, -0.0069101485423744, 0.1011364758014679, 0.0157083645462990, 0.1428645849227905, -0.0411976054310799, 0.0437689609825611, 0.0330155752599239, 0.0405542962253094, -0.0818341821432114, -0.0112096453085542, -0.0934546515345573, -0.0301444195210934, 0.0262025594711304, -0.0731344670057297, -0.0402817316353321, 0.0628855675458908, 0.0215000230818987, 0.0177609603852034, 0.1340742409229279, -0.1277734786272049, -0.0068693906068802, 0.0251118540763855, 0.0813061892986298, -0.0368157960474491, -0.0707287117838860, -0.0535380207002163, 0.0715834945440292, 0.0307101160287857, 0.0366762988269329, 0.0116694392636418, -0.1040855720639229, -0.0731473416090012, -0.0531448870897293, 0.0585300736129284, 0.0617593564093113, -0.0240153279155493, 0.0087781604379416, 0.0421246849000454, 0.0271418374031782, -0.0885817408561707, -0.0523533672094345, -0.0867327228188515, 0.0866568982601166, -0.0077625964768231, 0.0162607785314322, 0.0476403422653675, 0.0385802574455738, -0.0608633905649185, 0.0631885528564453, 0.0003307078441139, 0.1774310618638992, -0.0540626682341099, -0.1070950254797935, -0.0279782302677631, -0.0227805711328983, 0.0157248154282570, -0.1166406422853470, 0.0842519551515579, 0.0206770822405815, -0.0481457598507404, -0.0888413339853287, -0.0608308836817741, -0.0161557216197252, 0.0244959369301796, 0.0129664428532124, -0.0348948799073696, -0.0239873323589563, -0.0199303962290287, -0.0906466916203499, 0.0664558485150337, -0.0083204628899693, -0.0593933947384357, -0.0081704799085855, -0.0815926119685173, -0.1432141214609146, -0.0564662776887417, 0.0363975539803505, -0.0216098427772522, -0.0341190844774246, -0.1257575601339340, -0.0946149826049805, 0.0401392467319965, -0.0857281833887100, 0.0216650273650885, 0.0940259695053101, 0.0728999823331833, -0.0181402377784252, 0.0362596549093723, 0.0683603361248970, -0.0431061200797558, 0.0231601484119892, -0.0099643589928746, 0.1064085215330124, 0.0212894044816494, 0.0051855640485883, -0.0560433790087700, -0.0810781493782997, -0.0832735151052475, -0.0505360774695873, 0.2101602554321289, -0.0800912752747536, 0.0473221763968468, 0.0770574733614922, -0.0239652879536152, -0.1055668815970421, 0.0166441462934017, -0.1712275445461273, -0.0580490417778492, -0.0832727402448654, 0.0377927199006081, -0.0394351147115231, -0.0792177990078926, 0.0981397777795792, -0.1053516492247581, -0.0447352677583694, -0.0128745017573237, 0.0149353621527553, -0.0469188354909420, 0.0878298133611679, -0.0397887192666531, 0.0312880948185921, -0.1839568465948105, -0.0114698670804501, 0.0927759706974030, 0.0130189908668399, -0.0181474182754755, 0.0422613024711609, -0.0179770980030298, -0.0100707830861211, 0.0538325570523739, -0.0145219853147864, 0.1810624897480011, -0.0002985868486576, 0.0393980890512466, -0.0159812532365322, -0.0168340783566236, -0.0021853744983673, 0.0337391309440136, 0.0085131181403995, 0.0071936193853617, -0.1014829874038696, -0.0176078099757433, -0.1472842097282410, 0.0633180886507034, 0.0031351179350168, -0.1731874793767929, 0.1821253597736359, -0.0906447395682335, 0.0548940561711788, 0.0000360425619874, 0.0221447777003050, 0.0353363975882530, 0.0460088178515434, 0.0000372925278498, -0.0422565564513206, 0.0736218914389610, -0.1187638342380524, -0.0684243440628052, -0.0284840818494558, -0.0229426305741072, -0.0047640223056078, -0.0223315861076117, 0.0043382779695094, -0.0901538580656052, 0.0125563945621252, 0.0387920252978802, 0.0549330562353134, -0.0468945503234863, -0.0511297769844532, -0.0047859577462077, 0.0930255427956581, 0.0534937344491482, 0.0130494022741914, -0.0869223028421402, 0.0237463712692261, 0.0003922828473151, -0.0541534721851349, -0.0180512480437756, 0.0818249210715294, 0.0016529189888388, -0.0082365479320288, 0.1372772455215454, -0.0143902134150267, -0.1260093897581100, -0.1296422034502029, 0.0894185379147530, -0.0243666525930166, 0.0075012790039182, -0.0036720531061292, 0.0260443743318319, -0.0519025437533855, 0.0348424836993217, -0.0380655154585838, 0.0823573842644691, 0.0644949227571487, -0.0122549785301089, -0.0280227959156036, 0.1282177865505219, 0.1468377262353897, 0.0172847993671894, 0.0043931459076703, -0.0433384589850903, -0.0179996509104967, -0.1094152927398682, -0.0958776250481606, -0.1230690628290176, -0.0987864956259727, -0.1254038661718369, 0.0252109952270985, 0.0338860489428043, 0.0984956696629524, 0.1020227670669556, -0.0399666987359524, -0.0659933015704155, -0.0057841809466481, 0.0233629103749990, -0.0078586367890239, 0.0036756852641702, -0.0471608266234398, -0.0718804672360420, -0.0579517297446728, -0.1083656847476959, -0.0375581122934818, 0.0891041010618210, -0.0216754041612148, -0.0272187311202288, 0.0077977455221117, -0.1052010878920555, 0.0614382475614548, -0.0336126834154129, -0.0388346277177334, 0.0825774669647217, 0.0908068493008614, 0.0889173150062561, -0.1025459840893745, -0.0344041585922241, -0.0042426921427250, -0.0156878605484962, 0.0913768708705902, 0.0261085852980614, -0.1197736039757729, 0.0289414525032043, -0.0197401754558086, -0.0604200176894665, -0.0829958170652390, -0.0385120771825314, 0.0429349765181541, -0.0712048113346100, -0.0306954886764288, 0.0645976960659027, 0.0282200556248426, 0.0876507759094238, 0.1437552720308304, 0.0657754316926003, -0.0208370052278042, 0.0278801880776882, 0.0644385442137718, -0.0189985986799002, -0.0207577422261238, -0.0882826000452042, -0.0394072346389294, 0.0362644679844379, 0.0541010461747646, 0.0672324746847153, 0.0114682801067829, 0.0001710861397441, -0.0141835194081068, -0.0039831623435020, -0.0755987837910652, 0.0008826951961964, -0.0004855610895902, 0.0656521841883659, -0.1088837012648582, -0.0473496615886688, -0.0187871605157852, -0.0547312237322330, 0.0096141183748841, 0.0867063254117966, -0.0644561871886253, -0.0253317970782518, -0.0686878710985184, -0.0293114483356476, 0.1032773926854134, -0.0143760386854410, -0.0792641788721085, -0.1030768230557442, 0.0320374667644501, -0.0334081090986729, -0.0229081083089113, 0.0114160180091858, -0.1044841706752777, 0.0615369901061058, 0.0481619238853455, 0.0384012423455715, -0.0307794511318207, 0.0536414086818695, 0.0404277704656124, -0.0096932277083397, -0.0438451319932938, -0.0452704429626465, -0.0213173758238554, -0.0008050696342252, 0.0836493074893951, -0.0356986336410046, -0.0468734242022038, -0.0819924697279930, -0.0435348637402058, -0.0486219823360443, 0.0381782986223698, -0.0404424145817757, 0.0194799043238163, 0.0246732402592897, 0.0299365483224392, 0.0237770844250917, 0.0171895455569029, -0.0163104422390461, 0.0159110873937607, -0.0605820417404175, 0.1084347665309906, -0.0259259250015020, 0.0136645669117570, -0.0214625373482704, 0.0149495555087924, -0.0432350486516953, 0.0127647090703249, -0.0437756851315498, -0.0161104295402765, 0.0901985839009285, -0.0513485781848431, 0.0838702991604805, 0.0395887158811092, -0.0103115998208523, 0.1190252602100372, -0.1209410652518272, -0.0325597822666168, -0.1365445405244827, -0.0418056361377239, -0.0663471072912216, 0.0829763114452362, -0.0118569089099765, 0.0345509834587574, 0.0771178901195526, 0.0905499458312988, 0.0014662452740595, -0.0109710181131959, 0.0869822278618813, 0.0221921075135469, -0.0487826168537140, 0.0891964212059975, 0.1428567022085190, 0.1373580843210220, -0.1139179021120071, 0.0920724570751190, -0.0335486829280853, -0.1062497720122337, 0.0852195248007774, -0.0685526952147484, -0.0783536508679390, 0.1965560913085938, -0.0675013661384583, -0.0079510202631354, 0.0382973589003086, -0.0411763302981853, 0.0290276315063238, -0.0024268638808280, 0.0169599317014217, 0.0382632166147232, -0.0467820614576340, -0.0163078028708696, -0.1145567595958710, 0.0467378683388233, 0.0018163827480748, 0.0894510671496391, 0.0099390484392643, 0.0953887924551964, 0.0277027059346437, 0.0499873608350754, -0.0969073399901390, 0.0471815876662731, -0.0014019701629877, -0.0267688687890768, 0.0524269603192806, -0.0257393158972263, 0.0254015605896711, -0.0658259093761444, -0.0131904622539878, 0.0733312517404556, 0.2502019107341766, -0.0059764757752419, -0.0116585548967123, -0.0096880979835987, -0.0273551624268293, 0.0097634484991431, 0.0475496314466000, 0.0047144880518317, -0.0359184518456459, 0.0190960578620434, -0.0526541881263256, -0.1064701527357101, -0.0112075945362449, -0.0155440084636211, -0.1908581107854843, 0.1540952473878860, -0.0911315456032753, -0.0083778565749526, -0.1007530093193054, 0.0258398223668337, 0.0776269510388374, -0.0678409188985825, -0.0205341577529907, 0.0670526251196861, -0.0180734489113092, 0.0345984622836113, -0.0918280258774757, -0.0141020594164729, 0.0997748970985413, 0.0068963752128184, -0.0683062300086021, 0.1526070833206177, -0.0543021373450756, -0.0440396517515182, -0.0111821619793773, -0.0120173646137118, 0.0107755269855261, -0.1319017261266708, -0.0871624872088432, 0.0604969821870327, -0.0186424143612385, 0.0397483520209789, -0.0053766821511090, -0.0478063262999058, -0.0752561241388321, -0.0331699401140213, -0.0800341367721558, 0.1734230816364288, -0.0223733521997929, 0.0197143517434597, 0.1750296801328659, 0.0825077369809151, -0.0856524184346199, -0.1007401272654533, 0.0534764565527439, -0.0578290149569511, 0.0045369961299002, 0.0542660057544708, 0.0883404314517975, -0.0356562733650208, 0.1022001877427101, -0.0231361687183380, 0.1400364488363266, -0.0580247342586517, 0.0844578891992569, 0.0389121137559414, 0.0070244730450213, -0.0149432634934783, -0.0563265271484852, 0.0557333119213581, 0.0111617008224130, -0.0992650166153908, 0.0630433559417725, -0.0004028061812278, -0.0626901611685753, -0.0396030172705650, 0.0406194590032101, -0.0236307512968779, -0.0453070737421513, 0.0280966777354479, 0.0637634098529816, 0.1287113875150681, 0.0519885830581188, -0.1012644246220589, -0.0222425870597363, 0.0219333823770285, -0.0655658170580864, -0.0558395795524120, -0.0400526486337185, -0.0825702473521233, 0.0250607803463936, -0.0294421520084143, 0.0092079183086753, 0.0042261769995093, -0.0539594367146492, -0.0332856699824333, 0.0928059518337250, -0.0821190103888512, 0.0151802198961377, -0.0989018902182579, -0.0897635817527771, -0.0673339813947678, -0.0560468062758446, -0.0611158981919289, -0.0686546787619591, 0.0662251636385918, 0.0255632586777210, -0.0567773692309856, -0.0903368368744850, -0.0441024079918861, -0.0180177502334118, -0.0201607756316662, 0.1049522757530212, -0.0533592067658901, -0.0599142573773861, -0.0091704549267888, -0.0103288479149342, 0.0313196741044521, 0.0755511671304703, -0.0012330916943029, 0.0554224587976933, -0.0142087601125240, -0.0340134315192699, -0.1184745505452156, 0.0135949142277241, -0.0535214282572269, 0.0532725416123867, -0.0117662828415632, -0.0329856090247631, -0.0930420830845833, -0.0357700958848000, -0.0570050813257694, -0.1186874732375145, -0.0119031528010964, 0.0621567592024803, 0.0267716981470585, 0.0283287949860096, 0.0818172246217728, 0.0472352616488934, 0.0230777002871037, 0.0447455495595932, 0.0490801371634007, -0.1100692525506020, 0.0682801231741905, -0.0935152247548103, 0.0302694179117680, 0.0491314455866814, 0.0704597607254982, -0.0289371963590384, -0.0826435461640358, -0.0490482188761234, 0.1086018830537796, 0.0586244612932205, 0.0047934716567397, -0.1515112072229385, 0.0232374370098114, -0.0615393966436386, -0.0013224139111117, 0.0242577455937862, 0.0816740468144417, -0.0920609682798386, -0.0165481362491846, 0.0095882052555680, -0.0428131856024265, 0.0184028763324022, 0.0470414087176323, -0.1354237049818039, 0.0166669804602861, -0.1044053137302399, -0.0610204190015793, 0.0144422268494964, -0.0520666427910328, -0.0553165040910244, -0.0466429963707924, -0.0845378339290619, -0.0221190322190523, -0.1312237083911896, -0.0753001347184181, -0.0327455960214138, -0.0604393593966961, -0.0037933217827231, 0.0483792237937450, -0.1162508130073547, 0.0414951704442501, -0.1329575181007385, -0.0527389347553253, -0.0267591252923012, 0.0193085167557001, 0.1106769740581512, 0.0076368413865566, 0.0047953939065337, -0.0370614938437939, -0.0516680069267750, -0.0539125129580498, -0.1153482645750046, 0.1010942235589027, -0.0079281432554126, 0.0190505608916283, -0.0371130369603634, 0.0359981581568718, 0.0350524298846722, 0.0581628195941448, 0.0654354616999626, 0.0402866043150425, -0.0518378540873528, -0.0296097304672003, 0.0509068816900253, -0.0360662154853344, -0.0431431196630001, 0.0672755911946297, 0.0562461465597153, 0.0848191753029823, -0.0313531942665577, -0.1908420622348785, -0.0762110874056816, -0.0717280209064484, -0.0556955300271511, -0.0063630333170295, -0.0519501566886902, 0.0124372718855739, -0.0773522928357124, -0.0620647855103016, -0.0207874216139317, -0.1026848107576370, 0.0354070663452148, 0.0249698851257563, -0.0546682775020599, 0.0353022739291191, -0.0741784945130348, 0.0339968279004097, -0.0414016731083393, 0.0172552913427353, -0.1712794005870819, -0.0183629561215639, 0.0620004311203957, 0.0052116322331131, 0.1003284156322479, 0.0706410929560661, -0.0248134322464466, -0.0484354496002197, 0.0267788060009480, 0.0541617497801781, 0.0216414183378220, -0.0552063100039959, -0.0959556400775909, -0.1466268897056580, 0.0939706712961197, -0.0474474690854549, 0.1102788224816322, 0.0098861893638968, -0.1336691081523895, 0.0988792106509209, -0.0912398472428322, 0.0320046022534370, -0.0925987809896469, 0.1274738013744354, -0.0224708262830973, 0.1834475249052048, -0.0650422647595406, -0.0292209833860397, 0.0356420651078224, -0.0209423210471869, -0.0623131468892097, -0.0922169908881187, -0.0344730131328106, 0.0619723424315453, 0.0097545478492975, -0.0297342166304588, -0.1094844564795494, -0.0057989777997136, 0.2012324184179306, -0.0796366631984711, -0.0868478789925575, -0.0051800208166242, 0.0187441576272249, -0.0895674079656601, -0.0633535012602806, 0.0716399326920509, 0.1574061214923859, 0.0084144202992320, 0.0243795029819012, -0.0399870947003365, -0.1326746344566345, -0.1043506413698196, 0.0761040374636650, 0.0196477696299553, 0.0980612337589264, -0.1042312905192375, 0.0869409069418907, -0.1148917526006699, 0.0458319373428822, 0.0662565380334854, 0.0695976316928864, -0.0438332222402096, -0.0417671352624893, 0.0941811576485634, 0.0686558187007904, -0.0715240910649300, -0.0076523688621819, 0.0198656357824802, -0.0407216288149357, -0.0120428660884500, -0.0292983427643776, -0.1089601442217827, 0.0266730636358261, -0.1403449773788452, 0.0280190948396921, 0.0344865359365940, -0.0144453691318631, 0.0092041855677962, 0.0887842550873756, -0.0118136648088694, -0.0876403301954269, -0.0168816056102514, -0.0262026172131300, -0.1046935841441154, -0.0550142116844654, 0.0021756195928901, 0.0588018856942654, -0.0320039130747318, -0.0769235044717789, -0.0952434837818146, -0.1024645492434502, -0.0406311415135860, -0.0072388383559883, -0.0561152137815952, -0.0236697662621737, -0.0316726043820381, 0.0805581733584404, 0.0535863563418388, -0.0616536214947701, -0.0013638146920130, -0.0795466378331184, 0.0276463162153959, -0.0203782636672258, 0.0007286010077223, 0.0457832328975201, -0.0365402698516846, 0.1226255074143410, 0.0551882721483707, 0.1130836978554726, 0.0163546726107597, -0.0015483883908018, 0.0778803154826164, 0.0902275666594505, 0.0822594836354256, -0.1210305243730545, 0.0070426915772259, -0.0887892395257950, -0.1833526641130447, 0.0757856741547585, -0.0015551085816696, -0.1133671477437019, 0.0559985376894474, -0.0384974628686905, -0.1277165561914444, -0.0012332753976807, 0.0436229556798935, -0.0140821328386664, -0.0118079995736480, -0.0342370606958866, -0.0088744033128023, -0.0448256693780422, -0.0266121216118336, 0.0991546288132668, 0.0479769185185432, 0.0977099984884262, -0.0625385418534279, -0.0613210387527943, -0.0122690368443727, -0.0089213373139501, 0.0237983446568251, 0.0437724702060223, -0.0119723714888096, 0.1391778439283371, -0.0010588804725558, -0.0954017117619514, -0.0413893610239029, 0.0405497066676617, 0.0745319277048111, 0.0376173183321953, -0.0489836707711220, 0.0868407711386681, 0.0902297273278236, -0.0780887752771378, 0.1768078804016113, 0.0498204156756401, -0.0245041549205780, 0.0120940674096346, 0.0680728331208229, 0.0182610880583525, -0.0671185478568077, 0.0866755992174149, 0.1069981232285500, -0.0559346824884415, 0.0941531062126160, 0.0981010496616364, 0.0462708212435246, 0.1846128404140472, 0.0102387350052595, -0.0185663327574730, 0.0269895065575838, 0.0486480742692947, -0.0309793502092361, -0.0320530347526073, 0.0327926985919476, 0.0839838087558746, 0.0455705337226391, -0.1025101318955421, 0.0084805842489004, -0.0258846376091242, -0.0445924550294876, -0.0272258333861828, -0.0503426268696785, 0.0228834021836519, -0.0963503569364548, 0.0709174275398254, 0.0791458040475845, 0.0724660009145737, -0.0478324107825756, 0.0296031180769205, 0.1216331347823143, -0.0319968871772289, -0.0839002206921577, -0.0841473340988159, -0.0324008949100971, 0.0074853710830212, -0.0135190887376666, 0.0262290611863136, 0.0339279994368553, 0.0679491609334946, -0.1629782617092133, -0.0470716990530491, 0.0785465314984322, -0.0136496340855956, -0.0447148680686951, 0.0849916264414787, 0.1132984533905983, -0.0994623005390167, -0.0091916145756841, 0.0549463815987110, 0.0126773165538907, 0.0733078718185425, 0.0571582615375519, -0.0343879684805870, 0.0089042233303189, -0.1288809776306152, -0.0504145473241806, 0.0707884430885315, 0.0802498087286949, 0.0809173583984375, -0.1002229601144791, 0.0225952770560980, -0.0505579821765423, 0.0184247270226479, 0.0963658541440964, -0.0116508333012462, -0.0576018579304218, -0.0101214312016964, 0.1039404794573784, 0.1191686838865280, 0.0422439388930798, -0.0342854857444763, 0.0256918221712112, -0.0569863021373749, 0.0023758078459650, -0.0479693189263344, 0.0742675885558128, 0.0415883436799049, -0.0329183563590050, 0.0298814326524734, -0.0000549866308575, -0.0581097044050694, 0.0537966638803482, -0.0603334233164787, 0.0893799960613251, -0.0284948106855154, -0.0103040644899011, -0.0325053855776787, 0.0265959147363901, -0.0585114136338234, 0.0980738475918770, 0.0539560131728649, 0.1347826421260834, 0.0206995122134686, 0.0908029451966286, 0.0062483777292073, -0.0456189922988415, -0.0483722090721130, -0.0900468602776527, 0.0448737852275372, 0.0483768172562122, -0.0222402382642031, -0.0187957212328911, -0.0416598096489906, -0.0074533969163895, -0.0156974717974663, -0.0041267168708146, 0.0343395657837391, 0.0205453895032406, -0.0271089505404234, -0.0510930083692074, -0.0272747799754143, -0.1030053943395615, 0.1792449951171875, -0.0273515712469816, -0.0295903161168098, -0.0053228423930705, -0.0483090579509735, 0.0318661034107208, 0.0317006371915340, 0.0823647901415825, 0.0586868226528168, -0.1175764054059982, 0.0311488155275583, 0.0518469214439392, 0.0601103082299232, 0.0779822021722794, -0.1222973093390465, -0.0182225871831179, 0.0962800756096840, -0.0209189429879189, -0.0530683808028698, -0.0189940910786390, 0.0282645579427481, -0.0603764429688454, 0.0034010147210211, -0.1235188022255898, -0.0632074847817421, -0.0346476733684540, -0.1008828580379486, -0.0689225718379021, -0.0160109344869852, 0.0152353364974260, 0.0343891754746437, 0.0760297179222107, 0.0802567154169083, -0.0297627598047256, 0.0343466997146606, -0.0137291606515646, 0.0461644418537617, -0.0042656813748181, -0.0426989011466503, 0.2006033062934875, -0.0678900033235550, -0.0986391827464104, -0.0684008002281189, -0.0473975986242294, -0.0199886728078127, -0.1182572469115257, 0.0998785868287086, 0.1702115982770920, 0.0219646971672773, 0.0229678098112345, 0.0190229788422585, 0.0976107865571976, 0.0116413226351142, 0.0767179951071739, -0.0343797579407692, -0.1027881801128387, 0.1371904462575912, -0.1273538023233414, -0.0388960950076580, -0.0024191385600716, -0.0584834218025208, -0.0052176611497998, 0.0766222774982452, -0.0453908741474152, 0.0511916913092136, 0.0475328080356121, 0.0035705103073269, -0.0867072790861130, 0.0314647480845451, -0.0135964602231979, 0.0848921015858650, 0.0645712092518806, -0.0128664821386337, 0.0084763988852501, -0.0183765944093466, 0.0796058624982834, 0.0512116290628910, -0.0551559180021286, 0.1060010418295860, -0.0303264167159796, 0.0710617154836655, 0.0659466236829758, -0.0541508235037327, -0.0595641173422337, -0.1122012361884117, -0.0049453331157565, -0.0546085610985756, 0.0576321668922901, 0.0299650710076094, -0.1268129944801331, 0.1944332271814346, -0.0452864952385426, 0.0218856967985630, -0.0206459164619446, 