//Numpy array shape [1, 128]
//Min -0.336654275656
//Max 0.252235978842
//Number of zeros 0

#ifndef W8_H_
#define W8_H_

#ifndef __SYNTHESIS__
fc3_weight_t w8[128];
#else
fc3_weight_t w8[128] = {-0.027459, 0.148715, -0.126598, 0.098225, 0.083970, -0.011478, -0.132023, 0.085353, 0.030353, -0.004343, 0.071381, 0.047809, -0.055119, -0.223653, -0.226565, 0.061198, 0.045605, -0.203155, 0.111196, -0.005337, -0.202775, 0.221097, 0.080375, -0.336654, -0.008219, 0.119657, -0.256458, 0.023014, 0.142159, 0.136264, 0.096168, 0.182191, -0.110165, 0.139528, -0.014256, -0.164270, -0.232163, 0.002693, 0.244741, 0.003004, -0.115865, 0.252236, 0.074892, 0.196777, -0.148905, 0.077326, -0.144757, 0.193160, 0.020452, -0.012258, 0.052152, -0.222780, -0.249652, 0.164665, 0.142243, -0.048463, -0.294215, 0.074718, 0.136876, 0.041164, 0.040753, 0.106896, 0.006680, 0.116940, 0.127811, -0.260349, -0.058607, 0.089527, -0.037323, 0.166029, 0.033233, 0.028340, -0.177203, 0.101136, -0.210856, 0.101469, -0.328869, -0.208038, 0.158494, 0.080909, 0.063414, -0.090192, 0.040073, 0.017505, 0.189546, 0.168287, 0.069949, -0.113689, -0.022095, 0.100733, 0.190253, -0.147951, 0.139048, -0.175325, 0.123484, -0.261842, -0.130375, -0.001112, -0.014995, -0.117954, -0.023621, 0.018215, 0.244095, -0.009024, -0.120824, -0.176212, -0.207315, 0.134414, 0.077106, 0.088870, -0.121005, 0.045115, 0.095810, -0.264149, 0.093025, 0.192987, 0.106042, 0.035645, -0.024924, -0.152152, -0.006981, 0.150372, -0.028569, -0.008624, 0.095598, 0.114075, -0.082642, -0.078185};

#endif

#endif
