//Numpy array shape [1, 128]
//Min -0.336654275656
//Max 0.252235978842
//Number of zeros 0

#ifndef W8_H_
#define W8_H_

#ifndef __SYNTHESIS__
fc3_weight_t w8[128];
#else
fc3_weight_t w8[128] = {-0.0274589899927378, 0.1487153917551041, -0.1265977174043655, 0.0982254967093468, 0.0839704051613808, -0.0114779863506556, -0.1320233345031738, 0.0853529721498489, 0.0303530748933554, -0.0043426877819002, 0.0713805034756660, 0.0478092953562737, -0.0551190152764320, -0.2236527949571609, -0.2265647500753403, 0.0611976385116577, 0.0456049777567387, -0.2031548619270325, 0.1111960709095001, -0.0053369919769466, -0.2027753740549088, 0.2210971266031265, 0.0803752690553665, -0.3366542756557465, -0.0082193734124303, 0.1196574568748474, -0.2564575672149658, 0.0230139400810003, 0.1421586722135544, 0.1362635493278503, 0.0961680561304092, 0.1821906268596649, -0.1101653575897217, 0.1395280957221985, -0.0142560731619596, -0.1642699539661407, -0.2321625202894211, 0.0026930507738143, 0.2447414100170135, 0.0030037988908589, -0.1158647090196609, 0.2522359788417816, 0.0748919770121574, 0.1967774331569672, -0.1489049941301346, 0.0773259997367859, -0.1447570472955704, 0.1931598484516144, 0.0204524863511324, -0.0122584337368608, 0.0521516688168049, -0.2227804213762283, -0.2496518939733505, 0.1646648347377777, 0.1422433257102966, -0.0484628938138485, -0.2942149043083191, 0.0747180506587029, 0.1368764042854309, 0.0411638393998146, 0.0407526157796383, 0.1068964749574661, 0.0066797751933336, 0.1169395744800568, 0.1278109848499298, -0.2603492438793182, -0.0586069971323013, 0.0895267799496651, -0.0373229123651981, 0.1660289466381073, 0.0332334227859974, 0.0283396653831005, -0.1772034615278244, 0.1011356785893440, -0.2108559906482697, 0.1014692708849907, -0.3288690447807312, -0.2080377340316772, 0.1584944427013397, 0.0809094756841660, 0.0634142830967903, -0.0901917144656181, 0.0400727204978466, 0.0175053719431162, 0.1895457357168198, 0.1682873964309692, 0.0699490830302238, -0.1136890649795532, -0.0220950432121754, 0.1007327288389206, 0.1902530342340469, -0.1479512900114059, 0.1390479654073715, -0.1753252893686295, 0.1234840154647827, -0.2618418633937836, -0.1303753554821014, -0.0011124148732051, -0.0149949900805950, -0.1179538145661354, -0.0236213095486164, 0.0182152297347784, 0.2440949380397797, -0.0090236077085137, -0.1208243072032928, -0.1762119978666306, -0.2073151618242264, 0.1344144046306610, 0.0771061256527901, 0.0888700485229492, -0.1210046112537384, 0.0451145693659782, 0.0958097651600838, -0.2641489803791046, 0.0930249020457268, 0.1929872632026672, 0.1060424670577049, 0.0356448516249657, -0.0249238349497318, -0.1521520018577576, -0.0069806659594178, 0.1503721177577972, -0.0285685528069735, -0.0086240088567138, 0.0955984070897102, 0.1140749156475067, -0.0826415345072746, -0.0781846418976784};

#endif

#endif
