//Numpy array shape [64]
//Min -0.122283034027
//Max 0.127217411995
//Number of zeros 0

#ifndef B5_H_
#define B5_H_

#ifndef __SYNTHESIS__
fc2_bias_t b5[64];
#else
fc2_bias_t b5[64] = {0.0137316463515162, 0.1194957420229912, 0.0229071583598852, 0.0537202842533588, 0.0977604091167450, 0.0107256267219782, -0.1222830340266228, -0.1070552989840508, 0.0432146303355694, -0.0834400951862335, 0.0791841074824333, 0.0527976155281067, 0.0266842301934958, 0.0230929329991341, 0.1067265197634697, 0.0632777661085129, 0.0870985910296440, 0.0199480522423983, -0.1166253611445427, 0.0071313669905066, -0.0096688326448202, 0.1272174119949341, -0.0377244576811790, -0.0522290766239166, 0.0158650130033493, 0.0899700000882149, -0.0037487777881324, 0.1227897107601166, -0.0226149298250675, -0.1054564490914345, -0.0124878166243434, 0.0183489881455898, 0.0563804320991039, 0.0597779415547848, 0.0788535922765732, 0.1256315112113953, 0.0601573847234249, -0.0219047162681818, 0.0888753011822701, -0.0350898168981075, 0.0263579394668341, -0.0130748106166720, 0.0604929439723492, 0.0457754842936993, -0.0927541106939316, -0.0212513338774443, 0.1187980994582176, 0.0499815531075001, -0.0370497256517410, -0.0984902679920197, 0.0955362915992737, -0.0589462146162987, 0.0007691339706071, 0.0063735670410097, 0.0988889634609222, 0.0175657086074352, 0.0534484907984734, 0.1171939074993134, -0.1052801758050919, -0.0198996011167765, -0.0266726091504097, -0.0097747920081019, -0.0993327498435974, -0.0019518347689882};

#endif

#endif
