//Numpy array shape [64, 1536]
//Min -0.309632807970
//Max 0.299938857555
//Number of zeros 0

#ifndef W2_H_
#define W2_H_

#ifndef __SYNTHESIS__
fc1_weight_t w2[98304];
#else
fc1_weight_t w2[98304] = {0.0213186554610729, 0.0014424078399315, 0.0539954453706741, -0.0223647654056549, 0.0654314905405045, -0.0533344782888889, 0.0350687727332115, 0.0670353174209595, -0.0577604658901691, 0.0552112609148026, -0.0115158911794424, 0.0603915937244892, 0.0166396368294954, -0.0033086624462157, 0.1183803528547287, 0.0080350600183010, -0.1737431585788727, 0.1087471619248390, -0.0472738966345787, -0.0749582946300507, 0.0028070954140276, 0.0089942831546068, -0.0141582479700446, -0.0240011159330606, -0.0507408417761326, -0.0626611039042473, -0.0934877395629883, -0.0255411453545094, 0.0149369630962610, -0.0177616123110056, -0.0317329354584217, 0.0445676632225513, 0.0066924616694450, 0.0002957058895845, 0.0315702296793461, -0.0029574553482234, -0.0230379309505224, -0.0211837962269783, -0.0662601217627525, 0.0272671412676573, -0.0149953803047538, -0.0832550004124641, 0.0118010025471449, 0.0318524725735188, -0.0650023072957993, -0.1047495678067207, -0.0156549587845802, -0.0080724740400910, -0.0300664603710175, 0.0173433758318424, -0.1232136115431786, -0.0255294814705849, 0.0307550821453333, 0.0444575473666191, 0.0304976273328066, -0.0204128623008728, -0.0260777343064547, -0.0207213256508112, -0.0443213023245335, -0.0507962256669998, 0.0759273990988731, 0.0397909097373486, -0.0577623620629311, 0.0026343965437263, -0.0178449880331755, 0.0040969946421683, 0.1256166249513626, 0.0283048339188099, 0.0898872762918472, 0.0920615941286087, -0.0677915737032890, -0.0065887547098100, 0.0648602172732353, -0.0092220166698098, 0.0113100176677108, 0.0194663647562265, 0.0596919618546963, 0.1551381349563599, 0.0172114502638578, -0.0401519313454628, -0.0444420650601387, -0.0514809787273407, -0.0032771734986454, 0.0595813840627670, -0.0043922234326601, -0.0839922949671745, 0.0224888566881418, 0.0063002305105329, -0.0448379255831242, -0.0021956413984299, 0.0364648588001728, 0.0545732267200947, 0.0488332398235798, -0.0092675834894180, -0.0475958809256554, 0.0227361116558313, 0.0572198666632175, -0.0462876930832863, 0.0632364004850388, 0.0237533207982779, -0.0109645901247859, -0.0184797924011946, 0.0704987943172455, -0.0120908441022038, 0.0151325399056077, -0.0071213315241039, -0.0119857583194971, 0.1258218288421631, 0.0107986982911825, -0.0179542079567909, -0.0045339711941779, -0.0022346512414515, -0.0518335364758968, 0.0878559574484825, -0.0790909901261330, -0.0288923531770706, 0.0521974302828312, 0.0120529467239976, -0.0554772205650806, 0.0535637550055981, -0.1048016846179962, -0.0740000084042549, 0.0071267024613917, -0.0154495434835553, 0.0031360003631562, -0.0094161406159401, 0.0272602420300245, 0.0279144383966923, 0.0309254657477140, 0.0047933300957084, 0.0389696322381496, -0.0737935677170753, 0.0094031868502498, 0.0514838546514511, 0.0520659349858761, 0.0134515454992652, 0.0349424965679646, 0.0091710677370429, 0.0278729274868965, 0.0073155635036528, -0.0033160962630063, -0.1069785729050636, -0.0180832799524069, -0.0462613441050053, 0.0099137304350734, 0.0712425932288170, -0.0680830255150795, -0.0127912759780884, 0.0208196714520454, -0.0136491255834699, 0.0132161229848862, 0.0282807704061270, 0.0190830305218697, 0.0112931653857231, -0.0104071153327823, -0.0356431640684605, 0.0224665533751249, -0.0002580829896033, -0.0269426889717579, 0.0127584543079138, -0.0067229820415378, -0.0101393060758710, 0.0890994071960449, -0.0298240724951029, 0.0863545909523964, -0.0172010138630867, 0.0382835455238819, -0.0043074595741928, 0.0526986047625542, -0.0044800150208175, -0.0086429659277201, 0.0397865623235703, -0.0122451037168503, 0.0573895126581192, 0.0237020496279001, -0.0063004367984831, -0.0804309472441673, -0.0596850924193859, 0.0140618588775396, 0.0300975386053324, -0.0168989878147840, -0.0181466229259968, 0.0479772835969925, -0.0578207783401012, -0.0298317726701498, -0.0254422053694725, 0.0049281367100775, 0.0222067218273878, 0.0452462583780289, -0.0266914740204811, -0.0781443044543266, 0.0077522583305836, 0.0361810326576233, 0.0263433158397675, -0.0534057952463627, 0.0608088225126266, -0.0017111840425059, -0.0449381321668625, -0.0288657844066620, -0.0004594947095029, 0.0240347236394882, -0.0202686954289675, 0.0524808280169964, 0.0393812395632267, -0.0329564437270164, -0.0435625053942204, -0.0467830859124660, -0.0431418269872665, -0.0443557687103748, -0.0193111151456833, -0.0426833480596542, 0.0311564449220896, 0.0537941791117191, 0.0423985943198204, -0.0103218415752053, -0.0915725231170654, -0.0773505568504333, -0.0030660473275930, 0.0218884069472551, -0.0134623395279050, -0.0329719260334969, 0.0468485839664936, -0.0018625607481226, 0.0089393388479948, -0.0022776452824473, 0.0093612903729081, 0.0314594171941280, -0.0117500340566039, 0.0420112088322639, 0.0256518684327602, 0.0412277467548847, 0.0033669671975076, 0.0270870923995972, -0.0071968091651797, -0.0062658763490617, 0.0230603460222483, 0.0152481393888593, -0.0993777662515640, -0.0221241898834705, 0.0458397865295410, -0.0064451275393367, 0.0583568252623081, -0.0215650703758001, 0.0663711279630661, 0.0261842366307974, 0.0102752046659589, 0.0019232444465160, -0.0035624250303954, -0.0185656081885099, 0.0174775309860706, -0.0047975252382457, 0.0052172467112541, 0.0335868187248707, -0.0212216153740883, -0.0231414698064327, 0.0178309492766857, -0.0036997252609581, -0.0337017066776752, -0.0028312036301941, 0.0053742080926895, 0.0455555953085423, 0.0522603020071983, -0.0261584371328354, -0.0518996603786945, -0.0366234704852104, 0.0143969850614667, -0.0505738742649555, 0.0259068179875612, -0.0210574064403772, -0.0373503267765045, 0.0024048343766481, -0.0331807583570480, -0.0292501486837864, -0.0209612324833870, 0.0170018672943115, -0.0502267107367516, -0.0115365022793412, -0.0464880652725697, 0.0160496961325407, -0.0303397513926029, -0.0059037050232291, -0.0018416718812659, -0.0340139307081699, -0.0001184945940622, 0.0320165753364563, 0.0025917054153979, 0.0257950685918331, 0.0279873758554459, 0.0546668171882629, 0.0128313899040222, -0.0182004738599062, 0.0539115890860558, 0.0617784224450588, -0.0281403400003910, -0.0616485849022865, 0.0455314703285694, -0.0189065951853991, 0.0166017282754183, 0.0568310394883156, 0.0366182997822762, -0.0200406797230244, -0.0230000261217356, -0.0646450817584991, -0.0545619130134583, -0.1132597029209137, -0.0041455179452896, -0.0539842620491982, -0.0246304832398891, -0.0749852880835533, 0.0093780942261219, -0.0082662841305137, -0.0426398180425167, -0.0651828944683075, 0.0434455312788486, -0.0296438708901405, 0.0111845796927810, -0.0408323369920254, -0.0700866356492043, -0.0130307264626026, 0.0608484074473381, -0.0096721434965730, 0.0028192254249007, 0.0108257355168462, -0.0380397960543633, 0.0562094859778881, 0.0288708936423063, -0.0876008197665215, -0.0087812747806311, -0.0103199342265725, -0.0360242500901222, 0.0013864052016288, 0.0129891289398074, 0.0467363558709621, -0.0160524602979422, -0.0239749569445848, 0.0478361919522285, -0.0439163744449615, -0.0010914041195065, -0.0233589746057987, 0.0082383602857590, -0.0326341502368450, 0.0132306646555662, 0.0084863761439919, -0.0191628765314817, -0.0007614567875862, -0.0199480392038822, -0.0132298981770873, 0.0331220030784607, 0.0623110830783844, -0.0480062253773212, 0.0020727100782096, -0.0056058191694319, -0.0101234558969736, -0.0328503288328648, -0.0031000317540020, 0.0013733818195760, -0.0588044114410877, -0.0462734550237656, 0.0006679757498205, -0.0353408195078373, -0.0388736613094807, -0.0074636144563556, -0.0143279833719134, -0.0109942564740777, -0.0690950751304626, 0.0461195483803749, -0.0030098359566182, -0.0127975530922413, 0.0853477120399475, 0.0067057870328426, -0.0006523992051370, 0.0593324601650238, 0.0028380325529724, -0.0000255646809819, -0.0090906545519829, -0.0047823507338762, 0.0833774358034134, -0.0070073297247291, 0.0158311706036329, 0.0528439544141293, 0.0196026787161827, 0.0198684930801392, 0.0788559839129448, 0.0045250696130097, 0.0553199499845505, -0.0068404292687774, -0.0021219989284873, 0.0252290815114975, 0.0395318754017353, -0.0411491356790066, 0.0522036328911781, -0.0053690606728196, -0.0094351153820753, 0.0531186461448669, 0.0316205769777298, 0.0751850828528404, 0.0745704174041748, 0.0091065755113959, -0.0086465086787939, 0.0245066098868847, -0.0355804823338985, 0.0274498034268618, 0.0232539419084787, -0.0106016770005226, -0.0391579680144787, 0.0521478950977325, 0.0190439689904451, 0.0552332960069180, -0.0514203384518623, -0.0145241916179657, -0.0111651513725519, -0.0968006476759911, 0.0004947969573550, -0.0014140203129500, 0.0062317233532667, 0.0637775138020515, 0.0071391337551177, -0.0050974069163203, 0.0317616611719131, -0.0276837479323149, 0.0378103144466877, 0.0053198761306703, -0.0833823159337044, 0.0114918751642108, -0.0588032975792885, 0.0038961574900895, 0.0104386331513524, -0.0280256494879723, 0.0118814185261726, 0.0058541521430016, -0.0405310653150082, 0.0353631079196930, 0.0301448088139296, 0.0412368886172771, 0.0510887280106544, 0.0242860335856676, -0.0905538722872734, -0.0718596205115318, 0.0169958472251892, 0.0038992476183921, 0.0299222320318222, -0.0197798013687134, -0.0291947592049837, 0.0322207808494568, -0.0087970839813352, -0.0459085851907730, 0.0189231168478727, -0.0028400656301528, -0.0203640609979630, -0.0204034224152565, -0.0409584902226925, -0.0194896534085274, 0.0119366897270083, -0.0405533052980900, 0.0068010087125003, -0.0019083188381046, -0.0234171003103256, -0.0010487653780729, 0.0229664985090494, -0.0260823369026184, -0.0439535565674305, 0.0767450928688049, 0.0068322666920722, -0.0019625553395599, -0.0401865765452385, -0.0061474405229092, 0.0085191093385220, 0.0076432474888861, 0.0670758187770844, 0.0166787989437580, 0.0262118745595217, 0.0053653242066503, 0.0296665262430906, -0.0077034798450768, 0.0171482656151056, 0.0243749395012856, 0.0445144549012184, -0.0099678682163358, 0.0893952473998070, 0.0191687215119600, -0.0061797858215868, -0.0391021706163883, 0.0662446096539497, -0.0115172425284982, 0.0510669872164726, -0.0355112887918949, -0.0440554693341255, -0.0282087754458189, -0.0100933024659753, 0.0412984043359756, 0.0431978963315487, 0.0168867893517017, 0.0164001267403364, -0.0131934927776456, -0.0468553788959980, -0.0328889042139053, 0.0050046956166625, 0.0331226922571659, 0.0306959282606840, 0.0209206566214561, 0.0017267902148888, 0.0320373103022575, -0.0157245155423880, 0.0443983972072601, 0.0002247604716104, -0.0026805642992258, 0.0001195627846755, -0.0107711087912321, 0.0336930789053440, -0.0358598008751869, -0.0214699599891901, 0.0437001846730709, 0.0047231256030500, 0.0550029762089252, 0.0477404706180096, 0.0070425351150334, 0.0272351577877998, 0.0290094744414091, -0.1027284190058708, -0.0276595316827297, -0.0372254103422165, -0.1723132133483887, -0.0168043784797192, -0.0544759705662727, -0.0385147780179977, 0.0163464024662971, -0.0239456556737423, 0.1079227179288864, -0.0274213012307882, 0.0148654598742723, 0.0293265692889690, 0.0547034330666065, -0.0511189363896847, -0.0884232893586159, -0.0246254466474056, 0.0429532974958420, 0.0112722320482135, 0.0440736785531044, 0.0154817802831531, 0.0471229292452335, -0.0238657854497433, -0.0879992544651031, 0.0026117549277842, -0.0280537586659193, -0.0011214526602998, 0.0198190081864595, -0.0919267088174820, -0.0254766140133142, 0.0507044643163681, -0.0491239130496979, -0.0866627022624016, 0.0102111753076315, -0.1100969538092613, -0.0076975361444056, -0.0092134140431881, 0.0605042390525341, -0.0498180128633976, -0.0329218730330467, -0.0289989020675421, 0.0032276974525303, 0.0266191363334656, 0.0095011889934540, -0.0302580893039703, 0.0005085001466796, 0.0684478655457497, 0.0609838776290417, 0.0378100275993347, 0.0616029985249043, 0.0628751218318939, 0.0271637160331011, -0.0997788682579994, -0.0305675324052572, 0.0684046223759651, 0.0442106537520885, -0.0379124358296394, -0.0239440370351076, 0.0020296354778111, -0.0032871144358069, 0.0601398460566998, -0.0315877273678780, 0.0648529827594757, -0.0510396249592304, -0.0062964311800897, -0.0167083702981472, 0.0266403891146183, 0.0249423570930958, -0.0120919048786163, 0.0608822852373123, 0.0402128994464874, 0.0488532148301601, -0.0617768652737141, 0.0015700460644439, 0.0459338910877705, 0.0087742730975151, 0.0014431861927733, -0.0146816540509462, -0.0013710201019421, 0.0265512019395828, 0.0263086389750242, 0.0252029504626989, 0.0599495358765125, 0.0562029369175434, 0.0468494221568108, -0.0348096266388893, 0.0936907380819321, -0.0383242107927799, -0.0266590099781752, 0.0024616764858365, -0.0049588717520237, 0.1015780121088028, 0.0351814739406109, -0.0555138736963272, 0.0415944010019302, 0.0205074008554220, -0.0454657971858978, -0.0389487966895103, -0.0286362897604704, -0.0866610780358315, -0.0122451800853014, -0.0384132340550423, -0.0225920733064413, 0.0361812934279442, 0.0019333268282935, 0.1602023541927338, -0.0368557870388031, -0.0425438992679119, 0.0295815449208021, 0.0156692061573267, -0.0422611013054848, -0.0320134647190571, -0.0077699343673885, 0.0241933707147837, 0.0201164130121469, 0.0166499391198158, 0.0254448205232620, 0.0479094795882702, -0.0308793745934963, -0.0703387260437012, 0.0754501298069954, -0.0884500667452812, 0.0078178867697716, -0.0013430322287604, -0.0452813804149628, -0.0034328068140894, -0.0209140591323376, -0.1009488254785538, 0.0069535183720291, 0.0165359098464251, -0.0262998566031456, -0.0112379565834999, 0.0436050109565258, 0.0175506733357906, -0.0224466919898987, -0.0448267981410027, -0.0424651131033897, -0.0252079349011183, 0.0350086577236652, -0.0064119468443096, -0.0199842583388090, -0.0019974405877292, 0.0149264307692647, 0.0302306432276964, 0.0188732370734215, 0.0165263973176479, 0.0338469967246056, -0.0062774894759059, -0.1078122481703758, 0.0139727061614394, 0.0111313564702868, 0.0124915651977062, -0.0890744552016258, 0.0051252855919302, -0.0801376998424530, -0.0279835518449545, 0.0734085813164711, 0.0279118157923222, 0.0991796627640724, -0.0375470966100693, -0.0365524366497993, 0.0452198125422001, 0.0643948838114738, 0.0692806914448738, -0.0064247623085976, -0.0062651108019054, 0.0050048748962581, 0.0471334494650364, -0.0215858761221170, 0.0404663719236851, 0.1250639557838440, 0.0190817192196846, -0.0238921996206045, -0.0084659568965435, 0.0687242001295090, 0.0341493524610996, -0.0172998383641243, 0.0210264958441257, 0.0370789431035519, 0.0419598370790482, 0.0124035766348243, 0.0809803530573845, -0.0000871080846991, -0.0547714270651340, 0.0266167577356100, -0.0219391267746687, 0.0176972839981318, 0.1918861567974091, 0.0026851727161556, 0.0408393777906895, -0.0023415919858962, 0.0455657988786697, 0.0382625050842762, -0.0245653074234724, 0.0042671849951148, 0.0117623172700405, 0.0080331545323133, 0.0163349341601133, -0.0526776649057865, -0.0167774576693773, 0.0218039005994797, 0.0418841093778610, -0.0150834228843451, 0.0116665894165635, -0.0017166874604300, 0.0051726242527366, -0.1546576470136642, -0.1148896813392639, -0.0304709970951080, 0.0336721427738667, 0.0324084237217903, 0.0184842888265848, 0.0376832634210587, 0.0314234867691994, -0.0277624335139990, 0.0034018792212009, 0.0796805322170258, -0.0318836718797684, 0.0512312389910221, 0.0540613122284412, -0.0746245086193085, 0.0072709810920060, -0.0077748186886311, -0.0314066000282764, -0.0276035740971565, 0.0380297638475895, -0.0086563061922789, -0.0617471262812614, 0.0569019652903080, 0.0517681129276752, -0.0101405503228307, 0.0128441499546170, -0.0307924784719944, -0.0402053259313107, -0.0207596868276596, -0.0055049448274076, 0.0144080584868789, -0.0028879314195365, 0.0098438179120421, 0.0643640458583832, -0.0245464928448200, -0.0053070890717208, -0.0069056968204677, 0.0269097611308098, -0.1666020601987839, -0.0249985735863447, 0.0167589355260134, 0.0105321351438761, -0.1521301120519638, -0.0356902182102203, -0.0075250864028931, -0.0126658305525780, 0.0806919261813164, 0.0730853527784348, 0.0644252374768257, 0.0728285759687424, 0.0023714329581708, 0.0280711445957422, 0.0501918867230415, 0.0076327458955348, 0.0023670841474086, -0.0762428343296051, 0.0087074488401413, 0.0519743226468563, -0.0397276431322098, -0.0424032919108868, 0.1070053353905678, -0.0119022289291024, -0.0632754936814308, -0.0040846243500710, -0.0052193822339177, 0.0097591942176223, 0.0255327280610800, 0.0633795335888863, 0.1086734235286713, 0.0385723672807217, -0.0002301724016434, 0.0811321958899498, -0.0769603177905083, -0.1034782230854034, -0.0119118243455887, -0.0178683046251535, -0.0467325896024704, 0.1775477826595306, -0.0251241847872734, 0.0436037853360176, -0.0080468170344830, 0.0153138944879174, 0.0458034016191959, -0.0322583392262459, 0.0565352179110050, -0.0141580831259489, 0.0347671359777451, 0.0192113444209099, -0.0341671034693718, -0.0453597679734230, -0.0192092582583427, 0.0175143387168646, 0.0035217946860939, -0.0160378087311983, 0.0279362592846155, 0.0409381501376629, -0.0412314794957638, -0.0254179909825325, 0.0592898353934288, -0.0239383224397898, 0.0492178052663803, 0.0100528839975595, 0.0392595790326595, -0.0447264686226845, -0.0349702648818493, 0.0304398108273745, 0.1812214851379395, 0.0735548436641693, 0.0336950123310089, 0.0451651699841022, -0.0715215951204300, 0.0265469625592232, 0.0718028619885445, -0.0324177518486977, -0.1019240468740463, -0.0262749847024679, 0.0143614523112774, -0.0196448378264904, 0.0283255651593208, -0.0088468361645937, -0.0137043232098222, 0.0381993725895882, -0.0008932587224990, -0.0487586297094822, -0.0885221511125565, -0.0221375524997711, -0.0295859612524509, -0.0101283965632319, 0.0269864350557327, 0.0366143137216568, -0.0183921698480844, -0.0487109571695328, 0.0450279377400875, 0.0215820353478193, -0.0599491856992245, 0.0103648183867335, -0.0164656806737185, 0.0316857509315014, -0.1515082120895386, -0.0213875919580460, 0.0252246949821711, 0.0087258266285062, 0.0351054891943932, 0.0379634611308575, 0.0070489402860403, 0.0174909755587578, -0.0065061086788774, 0.0513612776994705, 0.1090780273079872, -0.0849144831299782, 0.0734299421310425, -0.0328832566738129, 0.0089065190404654, 0.1174439415335655, 0.0606035701930523, 0.0096135940402746, 0.0779419541358948, -0.0092160040512681, -0.0461019761860371, -0.0367841422557831, -0.0712357610464096, 0.1022951453924179, 0.0726669430732727, 0.0676731839776039, 0.0795002877712250, 0.0502230785787106, -0.0117613915354013, 0.0596435740590096, -0.0675102919340134, -0.0449571236968040, 0.0007858151220717, -0.0375330261886120, -0.0066475304774940, 0.1949467211961746, 0.0134252700954676, 0.0748829171061516, 0.0147766321897507, 0.0224018692970276, 0.1080385446548462, 0.0048710959963500, 0.0784431323409081, 0.0480283387005329, 0.0163674913346767, -0.0652102157473564, -0.0161364432424307, -0.0754131823778152, -0.0365349315106869, 0.0989403501152992, -0.0275030806660652, -0.0138555932790041, -0.0311790350824594, 0.0681376308202744, -0.0694073736667633, -0.0268914457410574, 0.0596280395984650, -0.0235104504972696, 0.0088074188679457, 0.0546167530119419, 0.0475242808461189, -0.0634658485651016, -0.0480205044150352, -0.1106494814157486, 0.1534596681594849, 0.0346577949821949, 0.0682162344455719, 0.0255383718758821, -0.0871030911803246, 0.0480994582176208, 0.0019574523903430, -0.0165597256273031, -0.0752916857600212, -0.0714529603719711, -0.0906111747026443, -0.1023995876312256, 0.0025391504168510, 0.0239524133503437, -0.0196024160832167, -0.0285276938229799, 0.0462829843163490, -0.0855709537863731, -0.0822038650512695, 0.0920439735054970, 0.0167931877076626, -0.0706420689821243, 0.0282869488000870, 0.0246527995914221, -0.0805143937468529, -0.0910055786371231, 0.0215349085628986, 0.0248335953801870, -0.0285947863012552, 0.0117691820487380, 0.0170579962432384, 0.0468077398836613, -0.0300114005804062, -0.0600444562733173, -0.0069709802046418, 0.0937052965164185, 0.0367738828063011, 0.0049156975001097, -0.0060969330370426, -0.0303142983466387, -0.0142753878608346, 0.0257536787539721, 0.1144940182566643, -0.0724239647388458, 0.0760895088315010, 0.0495710223913193, 0.0659583956003189, 0.1847912520170212, 0.0210892483592033, 0.0916329175233841, 0.0430077090859413, -0.0105485739186406, 0.0507705956697464, -0.0212122034281492, -0.1237605810165405, 0.0744554772973061, 0.0124991023913026, 0.0843516066670418, 0.0422828420996666, 0.0622984953224659, -0.0025072353892028, 0.0981717258691788, -0.0020482889376581, -0.1044301912188530, 0.0135655282065272, -0.0610729567706585, 0.0198034122586250, 0.1674123108386993, 0.0429203286767006, -0.0191431529819965, -0.0531577356159687, -0.0175797697156668, 0.1088732928037643, 0.0451676882803440, 0.0891639590263367, -0.0247034262865782, 0.0457945540547371, -0.0391518920660019, 0.0502205193042755, -0.1144620627164841, -0.0137684699147940, 0.0445195846259594, -0.0316725000739098, 0.1071042567491531, -0.0322073772549629, 0.0277015492320061, -0.0614632330834866, -0.0516147352755070, 0.0424549281597137, -0.0540222302079201, -0.0853712409734726, 0.0507514439523220, 0.0283137261867523, -0.0576048903167248, -0.0712754577398300, -0.0391635484993458, 0.1722985506057739, 0.0043196273036301, 0.0261600129306316, 0.0134982122108340, -0.0449720285832882, 0.0297813434153795, 0.0324936509132385, -0.0152729339897633, -0.0623247548937798, -0.0684616044163704, -0.2076210379600525, -0.0796043202280998, -0.0328434891998768, 0.0564025230705738, -0.0520554631948471, -0.0393068455159664, 0.0630687698721886, -0.0239889137446880, -0.1019748225808144, 0.1298256665468216, -0.0284188184887171, -0.0698378682136536, 0.0213288608938456, 0.0581161677837372, 0.0165274627506733, -0.0871422663331032, -0.0062969601713121, 0.0186689663678408, 0.0864072889089584, 0.0046200202777982, 0.0068842498585582, 0.0299351103603840, 0.0677827745676041, -0.1602946370840073, 0.0266635920852423, 0.1107152104377747, 0.0544225797057152, -0.0162219777703285, -0.0434076525270939, -0.0289606973528862, -0.1021102666854858, -0.0396038889884949, 0.0296279452741146, -0.0469933226704597, 0.0640295892953873, -0.0146336620673537, 0.0019529614364728, 0.0965730473399162, -0.0631452128291130, 0.0429333746433258, 0.0295804459601641, -0.0231233723461628, -0.0368463769555092, 0.0325248800218105, -0.0225234776735306, -0.0097388820722699, 0.0601828582584858, 0.0908369049429893, -0.0098859369754791, 0.0018835288938135, 0.0001015988964355, 0.0705898776650429, -0.0761940926313400, -0.1236479803919792, -0.0246226061135530, -0.1057035773992538, 0.0137603916227818, 0.1389010250568390, 0.0052244635298848, 0.0103817619383335, -0.1113158985972404, 0.0396827645599842, 0.0491345934569836, 0.0523238293826580, 0.0173684675246477, 0.0825755298137665, 0.0491806827485561, -0.0163456797599792, -0.0151039455085993, -0.0472453385591507, -0.0197767969220877, 0.0146616389974952, -0.0563799552619457, 0.0982668101787567, -0.0743896067142487, 0.0350113734602928, -0.0775914564728737, -0.1056501045823097, 0.0252317357808352, -0.0397097021341324, -0.0847176760435104, 0.0475395396351814, 0.0383647345006466, -0.1101389303803444, -0.0414559729397297, -0.0781017094850540, 0.0936559513211250, 0.0597302280366421, -0.0547884218394756, -0.0246151294559240, -0.0228751637041569, 0.0302522834390402, 0.0267107635736465, -0.1013726070523262, 0.0193514246493578, -0.0225223228335381, -0.0816494524478912, -0.1057360023260117, 0.0184109602123499, 0.0680309385061264, -0.1283818185329437, -0.0455683767795563, 0.0131204333156347, 0.0001798127777874, -0.1056157946586609, 0.1367610394954681, -0.1019559949636459, 0.0038803203497082, -0.0262179691344500, 0.0556809380650520, 0.0398665443062782, -0.0655213594436646, -0.0681898668408394, 0.0323063395917416, 0.0770724639296532, 0.0434496328234673, 0.0241135042160749, -0.0138935539871454, 0.0998974815011024, -0.0584981665015221, 0.0217890664935112, 0.0362649746239185, 0.0276965312659740, 0.1303303092718124, 0.0190554931759834, -0.0306470133364201, -0.0353584215044975, -0.0241457130759954, -0.0148481084033847, 0.0101841911673546, 0.0206550341099501, 0.0961182042956352, -0.0282121486961842, 0.0344021134078503, -0.1427288502454758, 0.0103727923706174, -0.0051741236820817, -0.0333138927817345, -0.0204680748283863, 0.0402190983295441, 0.0400312021374702, -0.0006043772445992, 0.0777515694499016, 0.1280639767646790, 0.0000401248544222, 0.0813417062163353, 0.0133090596646070, 0.0652209892868996, -0.0400712452828884, -0.0783211812376976, -0.0228927824646235, 0.0287500619888306, 0.0339345261454582, 0.1148431226611137, -0.0333300046622753, 0.1323991566896439, -0.0672333091497421, 0.0229663718491793, -0.0814044252038002, 0.0705327168107033, 0.0127913905307651, 0.0831162184476852, 0.0162341948598623, -0.0724532157182693, -0.0595612972974777, 0.0314089134335518, 0.0065007945522666, 0.0158324819058180, -0.0474370792508125, -0.0523862168192863, 0.0255821924656630, -0.0116525581106544, -0.0395601093769073, -0.1113879010081291, 0.0228399224579334, -0.0002029450988630, 0.0366755463182926, 0.0665633231401443, 0.0067241503857076, -0.0549091473221779, -0.0354154556989670, -0.0505748577415943, 0.0293139535933733, 0.0557465106248856, -0.0832895785570145, -0.0407160446047783, 0.0427671037614346, 0.0079582026228309, -0.0066318460740149, -0.0783380866050720, -0.0079854531213641, 0.0352696292102337, -0.0367240048944950, -0.0774404183030128, 0.0429038032889366, 0.0586721785366535, -0.1020128279924393, -0.0555620081722736, -0.0203219465911388, 0.0228990260511637, -0.1002431884407997, 0.0884585827589035, -0.0181476362049580, 0.0991543754935265, 0.0324336662888527, 0.1480672359466553, 0.0800919011235237, -0.0664986744523048, -0.0183019582182169, 0.0250881295651197, 0.0966640189290047, 0.0112943425774574, 0.0442303977906704, -0.0216907430440187, 0.1186999678611755, -0.0246180649846792, -0.0134015707299113, -0.0118065811693668, -0.0130282146856189, 0.0600962415337563, 0.0105896536260843, -0.0278670340776443, -0.0770396143198013, -0.0401793643832207, -0.1025614291429520, 0.0374141000211239, -0.0183200798928738, 0.0733769312500954, 0.0041323499754071, 0.0871597975492477, -0.1045356020331383, 0.0790031179785728, 0.0728265196084976, -0.0929370298981667, -0.0235560052096844, 0.0704798251390457, 0.0161633994430304, -0.0455427244305611, 0.0549522005021572, 0.0740511417388916, 0.0511372983455658, -0.0134129021316767, 0.0286303814500570, -0.0014214575057849, -0.0039633559063077, -0.0480917245149612, 0.0012226891703904, 0.0519061759114265, -0.0044336868450046, 0.0920887142419815, -0.0871100872755051, 0.0828550755977631, -0.0502089373767376, 0.0316029712557793, -0.0905639082193375, -0.0235918741673231, 0.0286796726286411, 0.0484065264463425, 0.0433273687958717, -0.0426731966435909, -0.0062061455100775, 0.0940689966082573, -0.0084615061059594, 0.0415994822978973, -0.0439825393259525, -0.1356072276830673, 0.0274758953601122, -0.0449185371398926, -0.0093202944844961, -0.0984900966286659, 0.0122848851606250, 0.0129085341468453, 0.1862319111824036, 0.0797147527337074, 0.0124723361805081, -0.0623871125280857, -0.0470747612416744, -0.0102599281817675, 0.0186867117881775, 0.0898899808526039, -0.1189288496971130, 0.0091617191210389, 0.0318383127450943, -0.0222742296755314, 0.0031982536893338, -0.1842788308858871, 0.0043336939997971, 0.0283097196370363, -0.0589670315384865, -0.1263380497694016, 0.0559103302657604, 0.0269678104668856, -0.0402396842837334, -0.0861190110445023, 0.0057200933806598, 0.0257335156202316, 0.0035875889007002, 0.0006316362996586, -0.0236036591231823, 0.0266131628304720, 0.0524405613541603, 0.0028169371653348, 0.1138065978884697, -0.0381790846586227, 0.1173118576407433, 0.0094806440174580, 0.0626649633049965, 0.0106686474755406, -0.0159385297447443, -0.0123432055115700, 0.0434905625879765, 0.0025177286006510, -0.0899898633360863, -0.0137837529182434, 0.0489385984838009, -0.1092969849705696, -0.0540887713432312, -0.0070157004520297, 0.0155306141823530, -0.0008972695795819, -0.0619461424648762, -0.0020146754104644, 0.0164170209318399, 0.0168705843389034, -0.0398467071354389, -0.0034602761734277, -0.0406687930226326, -0.0655747130513191, 0.1492023468017578, -0.0563518702983856, 0.0054331137798727, 0.0299661997705698, 0.0035200044512749, 0.0282052922993898, 0.0762747302651405, -0.0133069278672338, 0.0051156543195248, -0.0313034504652023, 0.0026736110448837, 0.0294925700873137, 0.0102584343403578, -0.0007235867087729, -0.0342638269066811, -0.0573796927928925, -0.0017721796175465, 0.0247380472719669, -0.0088479369878769, 0.0746230110526085, -0.0077324523590505, -0.0043283291161060, -0.0242866855114698, -0.0480629988014698, 0.0559436939656734, 0.0191182177513838, 0.0362590327858925, -0.0414009131491184, -0.1009837463498116, 0.0838493257761002, -0.0730939283967018, 0.0309312175959349, -0.0349797010421753, -0.1382506638765335, 0.0736931338906288, 0.0300429090857506, -0.0272581931203604, -0.0860832184553146, 0.0133178178220987, -0.0071772839874029, 0.0823184177279472, 0.0618565343320370, -0.0212942380458117, -0.0577772930264473, -0.0520393177866936, 0.0135293789207935, 0.0566107667982578, -0.0081861373037100, -0.0608628876507282, 0.0027237427420914, -0.0278318747878075, 0.0079547921195626, -0.0389272049069405, -0.1017314791679382, 0.0209300573915243, 0.0030809526797384, -0.0435215309262276, -0.0834100171923637, 0.0496411025524139, 0.0079205799847841, -0.0598288737237453, -0.0538913905620575, -0.0183413755148649, 0.0577154718339443, 0.0360090434551239, 0.0290644671767950, 0.0052226004190743, 0.0177721828222275, 0.0136525100097060, -0.0026909080334008, 0.0128443120047450, 0.0265293493866920, 0.1165377646684647, 0.0238201878964901, 0.1018066182732582, -0.0176597200334072, -0.0285518895834684, -0.0160159394145012, 0.0638334676623344, 0.0530984960496426, -0.0816337391734123, -0.0486402623355389, -0.0782995074987411, -0.1904412358999252, -0.0073213670402765, -0.0019111140863970, 0.0622824057936668, -0.0164348352700472, -0.0086841927841306, 0.0300611164420843, -0.0170436482876539, 0.0655807331204414, -0.0599863417446613, -0.0383445918560028, -0.0106727294623852, -0.0526549331843853, 0.0527854487299919, 0.0127419577911496, 0.0635655894875526, 0.0928643569350243, 0.0281643979251385, 0.0765484869480133, 0.0152082573622465, -0.0621464774012566, 0.0745443478226662, -0.0772400572896004, -0.0260024666786194, -0.0572908073663712, 0.0087958155199885, -0.0236491449177265, -0.0127337956801057, -0.0454028993844986, 0.0185528658330441, -0.0064817871898413, 0.0759616568684578, 0.0550990104675293, -0.0071894209831953, 0.0263897310942411, 0.0990753546357155, -0.0351816713809967, 0.1202641278505325, 0.0011410111328587, -0.0211812928318977, -0.0520656518638134, 0.0324637517333031, -0.0336359478533268, -0.0345641002058983, 0.0020719110034406, -0.0174561534076929, -0.0100348321720958, 0.0572956241667271, 0.0057677957229316, -0.0357134789228439, -0.0926622226834297, -0.0226124860346317, -0.0358286760747433, 0.0056092729791999, 0.0418951772153378, 0.0121582848951221, -0.0431162454187870, -0.1672479957342148, 0.0968836098909378, -0.0228601060807705, 0.0390930324792862, -0.0274605900049210, -0.0139670269563794, -0.0199873447418213, 0.0061341319233179, -0.0617791563272476, 0.0098797930404544, 0.0616370849311352, 0.0779056400060654, 0.0229500401765108, -0.0292189978063107, -0.0475958473980427, -0.1060410737991333, -0.0976627022027969, 0.0191662814468145, 0.0069334865547717, 0.0044326945208013, -0.0339507795870304, 0.0336414314806461, -0.0537905283272266, 0.0406716354191303, -0.0105211846530437, 0.0399214737117290, -0.0381293073296547, 0.0486716628074646, -0.0288673210889101, 0.0236367862671614, 0.0138791957870126, -0.0307706445455551, -0.0221302267163992, -0.0502614229917526, 0.0303547661751509, 0.0269202962517738, -0.0533502213656902, -0.0427305214107037, -0.0004737818962894, 0.1192720755934715, -0.0070332577452064, -0.0340339802205563, 0.0257391333580017, 0.0949747189879417, -0.0668730512261391, 0.0536712817847729, -0.0232233572751284, 0.0032698328141123, -0.0094749741256237, -0.1169422268867493, 0.0146289281547070, 0.0607842020690441, -0.1015763431787491, -0.0451600365340710, 0.0228869747370481, -0.0418633744120598, -0.0126403318718076, -0.0455772690474987, -0.0366426669061184, 0.0008260310278274, 0.0479145050048828, 0.0281482599675655, -0.0309029389172792, 0.1144021898508072, -0.0096393376588821, -0.0588496737182140, 0.0239406321197748, 0.0644097328186035, 0.0022967762779444, 0.0075416471809149, 0.0269684959203005, 0.0067377830855548, -0.0283066388219595, 0.0132034737616777, -0.0746198445558548, -0.0037929262034595, 0.0633400976657867, -0.0112621504813433, 0.0111412210389972, 0.0100450161844492, -0.0527742393314838, 0.0099753327667713, 0.0650241076946259, -0.0985018312931061, -0.0269274711608887, -0.0131012620404363, -0.0166859123855829, -0.0215572584420443, 0.0208671856671572, 0.0460792444646358, -0.0217353254556656, -0.0274165961891413, 0.0656731799244881, -0.0316669084131718, -0.0119256796315312, 0.0486998744308949, -0.0175175331532955, -0.0980455651879311, -0.0807853713631630, -0.0401874519884586, -0.0455520860850811, 0.0060178199782968, 0.0505992136895657, 0.0191133599728346, 0.0422752238810062, 0.0609851479530334, -0.0065744654275477, -0.0225037187337875, -0.0137762594968081, 0.0255544204264879, 0.0220246575772762, -0.0282387565821409, -0.0180257651954889, 0.0284413304179907, -0.0188641659915447, -0.0385756641626358, -0.0226621758192778, -0.0128142163157463, 0.0091616902500391, 0.1469906866550446, 0.0682620257139206, 0.0565035119652748, -0.0093825366348028, 0.0145217329263687, -0.0255877580493689, -0.0421602018177509, -0.0476570650935173, -0.0011277016019449, -0.0124405575916171, 0.0417013429105282, 0.0995468720793724, -0.0068520796485245, -0.0165246389806271, 0.0031758802942932, 0.0239635426551104, 0.0852238759398460, 0.0160283371806145, -0.0030991260427982, 0.0440711528062820, 0.0316456332802773, 0.0092167230322957, 0.0291388127952814, -0.0278090741485357, 0.0321098417043686, 0.0195589549839497, -0.0015080845914781, 0.0802173092961311, 0.0014722882770002, -0.0068848971277475, -0.0106389122083783, 0.0273781977593899, -0.0615606904029846, -0.0351885445415974, -0.0590208470821381, 0.0295028761029243, 0.0251298416405916, -0.0290861222893000, 0.0410747304558754, 0.0683017149567604, 0.0807667374610901, 0.0737535357475281, -0.0671737641096115, 0.0054618204012513, 0.0649414286017418, -0.0060832062736154, 0.0203933808952570, 0.0440914630889893, -0.0086856018751860, 0.0195215605199337, 0.0103271845728159, 0.0536465160548687, 0.0239518713206053, 0.0467369295656681, -0.0775146037340164, 0.0048400191590190, 0.0037408908829093, -0.0617609098553658, 0.0167216695845127, 0.0493771061301231, -0.0377985835075378, 0.0127591034397483, 0.0013114959001541, 0.0500881820917130, -0.0235937088727951, 0.0340424478054047, -0.0480534918606281, -0.0219445638358593, -0.0210267119109631, -0.0577374547719955, -0.0078409519046545, -0.0200405232608318, 0.0598774552345276, -0.0071200612001121, -0.0258638057857752, 0.0302624460309744, 0.0338827893137932, -0.0273737125098705, 0.0605910234153271, -0.0102918054908514, -0.0213667359203100, -0.0176675021648407, 0.1281713843345642, -0.0445113219320774, -0.0306850224733353, 0.0013661454431713, 0.0795974507927895, 0.0211318172514439, -0.0078108222223818, 0.0436342917382717, 0.0139032630249858, 0.0191966593265533, 0.0147284399718046, 0.0288834515959024, -0.0274670440703630, -0.0017836153274402, 0.0867920890450478, 0.0449687466025352, 0.0097827110439539, 0.0360081642866135, 0.0630101934075356, 0.0213027298450470, -0.0465560108423233, -0.0176243819296360, -0.0543025508522987, -0.0031946422532201, 0.0301974341273308, 0.0317979045212269, -0.0253886543214321, 0.0126673206686974, 0.0266336556524038, -0.0400655716657639, 0.0462134517729282, 0.0377995595335960, -0.0508501082658768, 0.1144712939858437, -0.0419746227562428, -0.0524591468274593, -0.0132760815322399, 0.0236448310315609, 0.0362319611012936, -0.0764069482684135, 0.0232963468879461, 0.0059090657159686, -0.0150348320603371, -0.0188676435500383, -0.0624123848974705, 0.0048646917566657, -0.0123861925676465, -0.0741737931966782, -0.0012348705204204, -0.0011344542726874, 0.0308230854570866, -0.0013536299811676, 0.0133535452187061, 0.0219295807182789, 0.0040097660385072, 0.0131538836285472, -0.0080879349261522, -0.0076744370162487, -0.0435012020170689, -0.0014384310925379, 0.0064702760428190, -0.0133997779339552, -0.0008977603865787, -0.0076312767341733, 0.0146387424319983, 0.0284406580030918, 0.0267323870211840, 0.0444792062044144, -0.0264209974557161, -0.0016706157475710, -0.0322070345282555, -0.0871031805872917, 0.0375421904027462, 0.0609829202294350, 0.0274532642215490, 0.0375131033360958, 0.0653816610574722, 0.0017587350448593, 0.0336244925856590, 0.0214307475835085, -0.0318864472210407, -0.0601890869438648, -0.0070523000322282, -0.0259363967925310, 0.0060814339667559, -0.0014160405844450, 0.0170090366154909, 0.0003547909145709, 0.0068107713013887, 0.0287974514067173, 0.0468539781868458, 0.0104335425421596, 0.0555447414517403, -0.0308691989630461, 0.0085845841094851, -0.0456273220479488, 0.0566669404506683, -0.0292029045522213, -0.0058711729943752, 0.1006393656134605, 0.0362364910542965, 0.0082909371703863, -0.0064076185226440, -0.0455645397305489, -0.0191324874758720, -0.0189656447619200, 0.0160988103598356, -0.0159081220626831, -0.0646596997976303, 0.0109960688278079, -0.0604659914970398, 0.0041322163306177, -0.0119610009714961, 0.0015954531263560, 0.0210582204163074, -0.0633158385753632, 0.0034581129439175, -0.0131114264950156, 0.0123096974566579, 0.0300769899040461, -0.0493546873331070, 0.0222972556948662, 0.0182671379297972, 0.0424009189009666, 0.0079761557281017, -0.0776029005646706, 0.0974507257342339, 0.1096944585442543, -0.0320391990244389, 0.0343088246881962, -0.1082604601979256, -0.0962307006120682, 0.0142942341044545, -0.0423352904617786, 0.0000124678699649, -0.0807186365127563, -0.0237434059381485, -0.0094806989654899, 0.0723140761256218, -0.0099248215556145, 0.0034030536189675, 0.0196325574070215, -0.0132895531132817, -0.0247461088001728, -0.0484299287199974, 0.0154725853353739, 0.0311157256364822, -0.1081882715225220, 0.0154684977605939, 0.0096281394362450, -0.0536208450794220, -0.0206381268799305, 0.0332531332969666, 0.0316808931529522, 0.0214709863066673, -0.0133972307667136, 0.0081462431699038, 0.0235948469489813, -0.0006947824731469, 0.0115596204996109, -0.0274351369589567, 0.0733800381422043, 0.0218785665929317, 0.0204148851335049, 0.0292771980166435, 0.0059833442792296, -0.0100049078464508, -0.0370787158608437, 0.0597768388688564, 0.0312030185014009, 0.0025588620919734, 0.0030401775147766, 0.0313116647303104, -0.0132914511486888, 0.0129268551245332, 0.0783336162567139, 0.0046661091037095, -0.0043507274240255, -0.0256539285182953, -0.0144898667931557, 0.0192202161997557, -0.0047019729390740, -0.0285839177668095, 0.0641554147005081, -0.0278771780431271, -0.0273281112313271, 0.0430854260921478, 0.0140535216778517, 0.0631589293479919, -0.0056535084731877, 0.0103788776323199, 0.0643046796321869, -0.0524629689753056, -0.0992051512002945, 0.0061514349654317, 0.1070948690176010, 0.0532948710024357, -0.0154355233535171, -0.0521422065794468, 0.0362420305609703, -0.0281305834650993, -0.0400024503469467, -0.0176898185163736, 0.0125516755506396, 0.0101145785301924, 0.0039193476550281, -0.0651776790618896, 0.0099041322246194, -0.0730865448713303, 0.0667588487267494, -0.0454848036170006, -0.0049918456934392, -0.0203017089515924, 0.0321608893573284, 0.0308786500245333, 0.0082283206284046, -0.0197384841740131, -0.0709372982382774, 0.0428290702402592, -0.0012110690586269, -0.0263283699750900, 0.0096959862858057, 0.0251727439463139, 0.0485372170805931, -0.0222412981092930, 0.0641591027379036, -0.0865500345826149, -0.0587184019386768, 0.0195484757423401, -0.0058820731937885, 0.0470573380589485, -0.0799430534243584, 0.0871010273694992, 0.0529948100447655, 0.0071287648752332, 0.0146026862785220, 0.0998226702213287, 0.0036266301758587, 0.0003310778702144, 0.0245890263468027, 0.0459085553884506, 0.0225025806576014, 0.0012798369862139, -0.0992612093687057, 0.0208472982048988, 0.0125287966802716, 0.0134924864396453, -0.0413626432418823, 0.0725559517741203, 0.0247164480388165, -0.0251308642327785, -0.0045584132894874, 0.0253703054040670, -0.0284826979041100, -0.0370503701269627, 0.0482354760169983, -0.0020909013692290, 0.1019355505704880, -0.0218559354543686, 0.0059571545571089, 0.0312357153743505, 0.0265705883502960, -0.0571492016315460, 0.0261298809200525, 0.0103900209069252, 0.0366988070309162, 0.0266527123749256, -0.0661156475543976, -0.0230540968477726, 0.0528331138193607, 0.0507247447967529, 0.0827867761254311, -0.0106575209647417, 0.0348404124379158, -0.0219503641128540, -0.0048261312767863, 0.0190564859658480, -0.0352033935487270, -0.1071095019578934, -0.0011520383413881, -0.0017884591361508, 0.0407964512705803, -0.0707491710782051, 0.0418120063841343, 0.0470914058387280, -0.0134275183081627, -0.0352417379617691, 0.0168089941143990, -0.0074877669103444, -0.0964199304580688, 0.0140616660937667, 0.1149352788925171, -0.0321395322680473, -0.0101688429713249, -0.0568615160882473, -0.0264205317944288, 0.0007093740277924, -0.0521676316857338, -0.0065671433694661, -0.1184798404574394, -0.0457660965621471, 0.0433945953845978, -0.0555984191596508, -0.0559146665036678, -0.0274463333189487, -0.0171215999871492, -0.0365837588906288, -0.0187984164804220, -0.0224461276084185, -0.0110213765874505, -0.0110358558595181, 0.0109444838017225, 0.0011128989281133, -0.0258706100285053, 0.0068774092942476, 0.0559528768062592, 0.0217046663165092, 0.0825774744153023, 0.0408953316509724, 0.0265304464846849, -0.0490661635994911, -0.0143476128578186, -0.0545307397842407, -0.0241154823452234, 0.0342047661542892, 0.0034082084894180, 0.0292136799544096, -0.0678929537534714, -0.0386264398694038, 0.0734910070896149, -0.0179056245833635, 0.0101607134565711, -0.0089442785829306, 0.0222306903451681, 0.0335940010845661, 0.0143701909109950, -0.0279444102197886, 0.0090133342891932, -0.0194685719907284, -0.0961874052882195, 0.0801958739757538, 0.0232971105724573, 0.0598092526197433, 0.0084861461073160, 0.0591857358813286, 0.0045329080894589, -0.0169417783617973, -0.0160860586911440, 0.0227596834301949, 0.0199029203504324, -0.1233158782124519, 0.0345778986811638, -0.0478512942790985, 0.0976168885827065, 0.0323606319725513, 0.0396100878715515, 0.0045692543499172, 0.0193297881633043, -0.0072692791000009, 0.0219104494899511, 0.0116437077522278, 0.0055302563123405, 0.0202777571976185, -0.0747953504323959, -0.0609333477914333, 0.0593893565237522, 0.0255142841488123, 0.0761889815330505, 0.0102343475446105, -0.0022394207771868, 0.0193498581647873, -0.0148689495399594, 0.0119540747255087, -0.0180941279977560, -0.0270303674042225, -0.0843735337257385, 0.1219014078378677, 0.0841651558876038, -0.0900602415204048, 0.0292820297181606, 0.0183853004127741, -0.0167027190327644, -0.0793569087982178, 0.0319647863507271, -0.0276933107525110, 0.0224758274853230, 0.0183720123022795, -0.0252666454762220, 0.0177718326449394, -0.0665358081459999, -0.0478095598518848, -0.0022683725692332, -0.0521280393004417, -0.0347466282546520, 0.0114192590117455, -0.1329699307680130, -0.0129702938720584, 0.0071287071332335, -0.0478218197822571, -0.0842580199241638, -0.0019373291870579, -0.0154718449339271, -0.0601805187761784, 0.0407586172223091, 0.0020971598569304, -0.0425908267498016, 0.0184329878538847, -0.0026386328972876, 0.0075976243242621, -0.0076274368911982, 0.0349564850330353, 0.0344940833747387, 0.0158515460789204, 0.0824725404381752, 0.0122234644368291, 0.0612927749752998, -0.0026304826606065, -0.0165662951767445, 0.0304299388080835, -0.0403580032289028, 0.0823112726211548, -0.0359200276434422, 0.0623946860432625, -0.1165037900209427, -0.1365690827369690, -0.0296989921480417, -0.0025787423364818, -0.0348503626883030, -0.0782474949955940, -0.0009282977553084, 0.0575547963380814, 0.0478973872959614, -0.0569832324981689, 0.0222735442221165, 0.0359970293939114, 0.0408790782094002, 0.0188665241003036, -0.0133665269240737, -0.0073085352778435, -0.0100336549803615, -0.0162602327764034, 0.0284822750836611, -0.0148267606273293, 0.0291812941431999, 0.0232551489025354, -0.0148753263056278, -0.0434822291135788, -0.0134078413248062, -0.0055810511112213, 0.0524796694517136, -0.0021783495321870, 0.0372989997267723, -0.0486789755523205, 0.0073269228450954, -0.0238975510001183, 0.0252869557589293, 0.0654149875044823, 0.0177676267921925, -0.0089986594393849, -0.0485250614583492, -0.0311373155564070, -0.0255700591951609, 0.0049883257597685, 0.0924457237124443, -0.0937482565641403, -0.0578139051795006, -0.0001699456624920, 0.0056240060366690, 0.0263001825660467, 0.0035981177352369, -0.0254960320889950, 0.0318263359367847, 0.0305555053055286, 0.0331990011036396, -0.0379963777959347, -0.0496692806482315, 0.0073257144540548, -0.0361929759383202, -0.0548130087554455, 0.0240048728883266, -0.0108525389805436, 0.0247175954282284, 0.0225918162614107, -0.0191948749125004, 0.0595237612724304, -0.0119143286719918, 0.0928175747394562, 0.0193680748343468, -0.0935175120830536, 0.0257167201489210, -0.0164743270725012, -0.0121071292087436, 0.0110675524920225, -0.0233446117490530, -0.0132700894027948, -0.0727801620960236, -0.0716647058725357, -0.0266343280673027, -0.0617219805717468, -0.0103446533903480, 0.0182180646806955, -0.0172468870878220, -0.0564496554434299, 0.0315495356917381, 0.0076404660940170, -0.1055465862154961, 0.0452575422823429, -0.0181460212916136, 0.0347960405051708, 0.0801452025771141, -0.0090699251741171, -0.0027250915300101, -0.0021538487635553, -0.0750830620527267, 0.0320686288177967, -0.0224935766309500, -0.0296995788812637, -0.1257746964693069, 0.0182275921106339, -0.0198907572776079, -0.0493134371936321, -0.0028550482820719, -0.0791735202074051, 0.0599552467465401, 0.0105330254882574, 0.0440456010401249, 0.0065803569741547, -0.0163239818066359, -0.0730078369379044, 0.0595960542559624, 0.0765371993184090, 0.0480811260640621, -0.0152432303875685, -0.0051390677690506, 0.0283114612102509, -0.0152434343472123, -0.0662726685404778, -0.0036192929837853, -0.0315251760184765, 0.0160953477025032, 0.0729708671569824, -0.0304211508482695, 0.0390786379575729, 0.0355386734008789, -0.0066819097846746, 0.0740929245948792, -0.0334393233060837, 0.0064370036125183, -0.0392503142356873, 0.0131760388612747, -0.0237889103591442, -0.0235227420926094, 0.0674705356359482, 0.0009775139624253, -0.0365431495010853, -0.0264868699014187, -0.0039866361767054, 0.0250681433826685, 0.0114143425598741, 0.0552008710801601, -0.0918897315859795, -0.0129488511011004, 0.0022693511564285, 0.0069669461809099, 0.0185868088155985, -0.0145878642797470, -0.0465274080634117, 0.0612078905105591, -0.0387667529284954, -0.0528453998267651, -0.0091972714290023, -0.0383366793394089, 0.0076668332330883, -0.0682803466916084, -0.0191668048501015, -0.0128988614305854, -0.0138150816783309, -0.0031149964779615, 0.0016274485969916, 0.0549266375601292, 0.1041170805692673, 0.0635595768690109, 0.1162076666951180, 0.1024936661124229, -0.0784013569355011, 0.0127734346315265, -0.0161521788686514, 0.0791141018271446, -0.0478337965905666, -0.0033614023122936, -0.0002578251296654, -0.0067096888087690, -0.0294110067188740, 0.0023965467698872, 0.0363229997456074, 0.1250198930501938, -0.0246381107717752, -0.0651099458336830, -0.0372525192797184, -0.0117409545928240, 0.0381627008318901, -0.1066420674324036, 0.0272521879523993, -0.0040957187302411, 0.0150576010346413, -0.0567326210439205, -0.0545897521078587, -0.0533951334655285, -0.0149104334414005, -0.0114387562498450, 0.0024360169190913, 0.0405244566500187, -0.0202473364770412, -0.1169739365577698, -0.0782309994101524, -0.0001077276028809, -0.0003611119173001, 0.0358125269412994, -0.0957991406321526, -0.0000999521944323, -0.0056989560835063, 0.0551016293466091, -0.0003714841150213, -0.0794323384761810, -0.1006632298231125, -0.0018812796333805, 0.0434610769152641, 0.0118041597306728, -0.0103452550247312, 0.0237924493849277, 0.0662306547164917, -0.0246736947447062, -0.0725276768207550, -0.0090457396581769, -0.0223427042365074, -0.0302924271672964, 0.0447163395583630, 0.0235922075808048, -0.0199770666658878, 0.0427742004394531, -0.0228848773986101, 0.0690439268946648, 0.0064955693669617, 0.0153418248519301, -0.0289513673633337, -0.0194123424589634, -0.0193316806107759, -0.0273133870214224, 0.0231572948396206, -0.0070769153535366, -0.0838983580470085, -0.0268154479563236, -0.0624133870005608, 0.0076966602355242, -0.0208456180989742, 0.0324947535991669, -0.0026525410357863, 0.1001547127962112, 0.0013088090345263, 0.0967257320880890, -0.0416117869317532, 0.0163503233343363, -0.0297661181539297, 0.0549027882516384, -0.0402537509799004, -0.0516930185258389, 0.0084348944947124, 0.0059568136930466, 0.0428590402007103, -0.0690212920308113, 0.0413603633642197, -0.0888059213757515, 0.0121278185397387, 0.0723717585206032, -0.0197097081691027, 0.1051063835620880, 0.0669293329119682, -0.0036992221139371, 0.0311948377639055, 0.0439918413758278, 0.0044016088359058, -0.0259173009544611, -0.0295348744839430, 0.0472324006259441, -0.0772107541561127, -0.0564353391528130, -0.0487870760262012, 0.0238480139523745, -0.0263882540166378, -0.0652571097016335, -0.0554754510521889, 0.0480398461222649, -0.0081166764721274, -0.0273446794599295, 0.0130886696279049, 0.0016648949822411, 0.0189610142260790, 0.0096651576459408, -0.0016891021514311, 0.0830371230840683, 0.0555103346705437, -0.1235286667943001, 0.0078860810026526, 0.0093008941039443, 0.0626503303647041, 0.0270903706550598, -0.0178391467779875, -0.0444929189980030, 0.0141803910955787, -0.0291944909840822, -0.1097455620765686, 0.0196417942643166, -0.0546045601367950, 0.0509974174201488, 0.0108275907114148, 0.0458428263664246, 0.0286970268934965, -0.0056849126704037, -0.0627234503626823, -0.0478820130228996, -0.0874180197715759, -0.0817405954003334, 0.0297895744442940, -0.0246519185602665, 0.0205777175724506, -0.0227138306945562, 0.0634699687361717, -0.0192245151847601, -0.0122658228501678, -0.0023435445036739, -0.0243717394769192, -0.0005938712274656, -0.0261070858687162, -0.0292169749736786, 0.0062948134727776, 0.0216943230479956, -0.0313668809831142, -0.0228378605097532, -0.0011197953717783, -0.0267084091901779, -0.0512375570833683, 0.0132801169529557, 0.0248617809265852, 0.0099755041301250, -0.0659841299057007, -0.0486338250339031, -0.1202162429690361, 0.0222023744136095, 0.0035508947912604, -0.0180447064340115, -0.0041857105679810, -0.0127626340836287, -0.0110269179567695, 0.0642461478710175, 0.0221940018236637, 0.0230235736817122, -0.0323925763368607, 0.0033537459094077, 0.0402362979948521, -0.0241765379905701, -0.0476558990776539, -0.1078594252467155, 0.0542883388698101, 0.0317603312432766, 0.0269443858414888, -0.0401944033801556, -0.0379722081124783, -0.0312102418392897, -0.0214995648711920, 0.0552938170731068, -0.0161848291754723, 0.0300739090889692, 0.0263514369726181, -0.0201625432819128, 0.0031713861972094, -0.0340167805552483, 0.0608186088502407, -0.0089608300477266, -0.0257619079202414, 0.0240111537277699, 0.0283519141376019, -0.0889596194028854, -0.0344525724649429, -0.0179260764271021, -0.0450784116983414, -0.1274490356445312, -0.2126900404691696, 0.0313671268522739, 0.0411412306129932, 0.0203860886394978, 0.0718774050474167, -0.0052683856338263, -0.0134442783892155, 0.0343779735267162, 0.0033691469579935, 0.0121452100574970, 0.0625208988785744, -0.0603511072695255, 0.0609110519289970, 0.0243014823645353, 0.0453182905912399, 0.0540891364216805, -0.0665001645684242, 0.0061996113508940, -0.0453644581139088, 0.0100103020668030, -0.0683689638972282, 0.0325393490493298, 0.0470768660306931, 0.1035606041550636, 0.0540571808815002, -0.0171825420111418, 0.0786991417407990, 0.0439619794487953, -0.0378545373678207, 0.0953404456377029, 0.0115180071443319, -0.0997956693172455, 0.0759299173951149, 0.0203448124229908, 0.1153117939829826, -0.0096521582454443, 0.0880418121814728, -0.0904884710907936, -0.0314513072371483, 0.0347865112125874, 0.0099462168291211, -0.0351434387266636, 0.0121722389012575, 0.0015130798565224, 0.0620563328266144, -0.0225714519619942, -0.0492719635367393, -0.0627817288041115, -0.0068152486346662, 0.0202406123280525, 0.0002185041521443, -0.0006469169165939, -0.0308437347412109, -0.0310802739113569, -0.1248158067464828, -0.0299881827086210, -0.1146406605839729, -0.0290978122502565, 0.1029907688498497, 0.0071281422860920, -0.0049242824316025, 0.0167042315006256, 0.0751156136393547, -0.0371614284813404, -0.0128368167206645, 0.0419758222997189, -0.0060854186303914, 0.0209352411329746, 0.0003689927107189, -0.0168513208627701, 0.0088137695565820, -0.0582341738045216, -0.0290619432926178, 0.0654203593730927, -0.0046726488508284, -0.0476716198027134, -0.0922904014587402, 0.0229684524238110, -0.0521104112267494, 0.0552395768463612, 0.0220684446394444, -0.0574563145637512, 0.0151343699544668, -0.0802278965711594, 0.0354463122785091, -0.1599908918142319, 0.0048022512346506, 0.0304959807544947, -0.0004989202716388, 0.0191676691174507, 0.0875253975391388, 0.0271478947252035, -0.0335868038237095, -0.0296691581606865, -0.0465304404497147, -0.1038285046815872, -0.1521975845098495, 0.0145659223198891, -0.0170396082103252, 0.0208934079855680, 0.0307201128453016, -0.0575232431292534, -0.0056882645003498, 0.0099913328886032, -0.0062385015189648, -0.0281601846218109, -0.0035507555585355, -0.0106062060222030, 0.0032539255917072, -0.1060424223542213, 0.0254699606448412, 0.0204090401530266, 0.0418257191777229, -0.0275476388633251, -0.0477695241570473, -0.0563172474503517, -0.0241822768002748, 0.0395428165793419, 0.0515336506068707, -0.0009092874825001, 0.0722782462835312, -0.0128891374915838, 0.0929134041070938, 0.0104833347722888, -0.0279029887169600, 0.0705913901329041, 0.0513719804584980, 0.0155859440565109, 0.0851854532957077, -0.0088275177404284, 0.0777757689356804, -0.0045738294720650, 0.0285674650222063, -0.1103928238153458, -0.0327477045357227, 0.0101830074563622, 0.0499361604452133, -0.0342628210783005, 0.1199429109692574, -0.0213497523218393, -0.0007593744085170, -0.0314779169857502, 0.0294961910694838, -0.0037743938155472, 0.0394654124975204, -0.0039509874768555, 0.0009974455460906, -0.0309027284383774, -0.0915408730506897, -0.0019255223451182, -0.0970307290554047, -0.0360761992633343, 0.0190416891127825, -0.0044560944661498, 0.0148244751617312, 0.0219675861299038, 0.0105267660692334, 0.0126653909683228, 0.2076983302831650, -0.0556089617311954, -0.0183275658637285, 0.0368423908948898, -0.0338088572025299, -0.0243292041122913, -0.0337881557643414, 0.0413629002869129, 0.0196206960827112, -0.0071255383081734, -0.0528954528272152, 0.0544712357223034, 0.0405577719211578, -0.0772378593683243, -0.0749854519963264, 0.0393958054482937, -0.0458686165511608, 0.0200091097503901, 0.0788610130548477, -0.0464787296950817, -0.0275484956800938, -0.0683979392051697, 0.0373869687318802, -0.2091156840324402, -0.0243854094296694, 0.0233426634222269, -0.0010689995251596, -0.0174243431538343, 0.0177697185426950, 0.0738663449883461, -0.0461002625524998, -0.0670985653996468, -0.0386765897274017, -0.0605566166341305, -0.0669688805937767, 0.0575085021555424, -0.0144136184826493, 0.0266949385404587, 0.0024299146607518, -0.0310424435883760, -0.0322086960077286, -0.0283201765269041, 0.0166647545993328, -0.0712437033653259, -0.0110944285988808, -0.0071603143587708, 0.0568448156118393, -0.0735355466604233, -0.0375092998147011, 0.0354221872985363, 0.0901710167527199, -0.0779711455106735, -0.0019779917784035, -0.1116080731153488, 0.0102779408916831, -0.0830791965126991, 0.0567742064595222, -0.0379585474729538, 0.0317093618214130, -0.0147865796461701, 0.0437973551452160, 0.1424778848886490, 0.0439394302666187, 0.0400235988199711, 0.0429430566728115, 0.0792412012815475, 0.0533671863377094, -0.0215743631124496, 0.0374236404895782, -0.0502325557172298, 0.0113209439441562, -0.0839711874723434, -0.0370092801749706, -0.0564544610679150, 0.0230388157069683, 0.0039403508417308, 0.0528823547065258, -0.0478829592466354, -0.0379870347678661, 0.0072401948273182, 0.0187562443315983, -0.0665310248732567, 0.0113824279978871, -0.0571858473122120, -0.0677229985594749, 0.0112034576013684, -0.0518091507256031, 0.0455643832683563, -0.0276626143604517, -0.0783581808209419, -0.0126898009330034, -0.0592886470258236, -0.0824923664331436, 0.0799808204174042, -0.0586820803582668, -0.0306895896792412, 0.2621778249740601, -0.0133372070267797, 0.0071479026228189, -0.0096757598221302, 0.0118708200752735, -0.0615540854632854, -0.1554053574800491, 0.0746511518955231, 0.0131258359178901, 0.0263242702931166, -0.0331995561718941, 0.0259891338646412, 0.0204083994030952, -0.0125218816101551, 0.0026440045330673, -0.1256558150053024, -0.0357791185379028, -0.0132007775828242, 0.0811899155378342, 0.0465375408530235, 0.0449020415544510, 0.0143596418201923, -0.0975577682256699, -0.0715178027749062, -0.0783482939004898, -0.0200086012482643, -0.0217007100582123, 0.0565809682011604, -0.0035938885994256, 0.0556373186409473, 0.0511669218540192, -0.0068102786317468, 0.0209584683179855, 0.0415049232542515, 0.0345424897968769, -0.0663595125079155, -0.0157197732478380, 0.0762366801500320, -0.0095221577212214, -0.0287644527852535, 0.0242709871381521, -0.0107177225872874, 0.0572829842567444, -0.0578926168382168, -0.0129028679803014, -0.0245584398508072, -0.0001468882983318, 0.0005011106841266, -0.0707921758294106, 0.0129789253696799, 0.0896525681018829, -0.0381477661430836, -0.0113170109689236, -0.0832865163683891, -0.0317526534199715, -0.0608159638941288, -0.0660233199596405, -0.0997418612241745, -0.0327218919992447, -0.0210206899791956, -0.0638139545917511, 0.0637521296739578, -0.0004447749524843, 0.0106858611106873, -0.0342599228024483, 0.0736366212368011, 0.0609792284667492, 0.0883097723126411, -0.0176925305277109, -0.0320458859205246, 0.0192200038582087, -0.0256424080580473, 0.0369332320988178, -0.0890052691102028, -0.0114039918407798, -0.0262281186878681, 0.0611299276351929, -0.0127968471497297, 0.0121160540729761, 0.0046929060481489, 0.0576439835131168, 0.0159296654164791, -0.0268759280443192, -0.0911980271339417, -0.1746125072240829, 0.0071529583074152, -0.0176674332469702, 0.0454243607819080, 0.0459897965192795, -0.0790508314967155, 0.0619264952838421, -0.0672153830528259, -0.1641632467508316, 0.0766309499740601, 0.0458853915333748, -0.0460077114403248, 0.1692374944686890, -0.0228104405105114, 0.0091776223853230, -0.0055590239353478, -0.0227867625653744, -0.0360801331698895, -0.1246907934546471, 0.0505571886897087, 0.0519390590488911, 0.0339506827294827, 0.0098529327660799, 0.0307867713272572, 0.0025888327509165, -0.0547912269830704, -0.0152407046407461, -0.0722185298800468, -0.1133251190185547, 0.0331947952508926, 0.0459279045462608, 0.0324567109346390, -0.0286934934556484, 0.0373451001942158, -0.0545602850615978, 0.0177812799811363, -0.0057842601090670, -0.0660290792584419, -0.0137068107724190, 0.0254636872559786, -0.0479883328080177, 0.0431320481002331, 0.1545565277338028, -0.0615606866776943, 0.1023988202214241, 0.0624463520944118, 0.0475257970392704, -0.1185349524021149, -0.0169580765068531, 0.0032932674512267, -0.0098469369113445, -0.0173691324889660, 0.0297391656786203, 0.0279044136404991, 0.0079907234758139, 0.0120337037369609, 0.0667339041829109, 0.0416598953306675, 0.0123218828812242, 0.0550597496330738, -0.0333999618887901, 0.0513075701892376, -0.0128194754943252, -0.0576746948063374, 0.0070812124758959, -0.0483510680496693, -0.0361127369105816, -0.0552144311368465, -0.0778958871960640, 0.0291492342948914, 0.0273704528808594, -0.0974686667323112, -0.0667469128966331, 0.0700578913092613, 0.0147879114374518, 0.0144517924636602, -0.0261670164763927, 0.0231192894279957, 0.0558734014630318, 0.0820579528808594, -0.0172667745500803, -0.0474050082266331, -0.0295673124492168, 0.0208828914910555, 0.1228419914841652, -0.0573665685951710, 0.0400503836572170, -0.0353517271578312, -0.0281390585005283, -0.0021363538689911, 0.0391746349632740, 0.0322783850133419, 0.0330231189727783, 0.0678430572152138, -0.0552883483469486, -0.0302637740969658, -0.2344232797622681, -0.0093362936750054, -0.0212261881679296, -0.0469824708998203, 0.0669905766844749, 0.0079243425279856, 0.1009870097041130, -0.0440488532185555, -0.0013634345959872, 0.0541933588683605, 0.1286363154649734, -0.0606584548950195, 0.0041153626516461, -0.0152360703796148, -0.0340066552162170, -0.0503660589456558, -0.0010328174103051, -0.0347354263067245, -0.0675768032670021, 0.0822176933288574, 0.0286660604178905, 0.0344177074730396, 0.0285541489720345, -0.0199573487043381, 0.0311328526586294, -0.0860788449645042, -0.0639202296733856, 0.0324638150632381, -0.0820752084255219, -0.0665567815303802, -0.0339966416358948, 0.0028787809424102, 0.0100551275536418, 0.0180306788533926, -0.0409242473542690, 0.0267072189599276, -0.0023999901022762, -0.0308886952698231, -0.0409707091748714, -0.0099949473515153, -0.0277835521847010, 0.0534775480628014, 0.1896425038576126, -0.0694770142436028, 0.0641938671469688, 0.0753810629248619, 0.0264248438179493, -0.0417661704123020, -0.0209317933768034, -0.0277674626559019, 0.0017783198272809, 0.0336502604186535, 0.0050019933842123, 0.0291608348488808, 0.0112235648557544, -0.0484827943146229, 0.0329664796590805, 0.0968840792775154, -0.0172529723495245, 0.0432954356074333, 0.0190161503851414, -0.0044671944342554, -0.0203264392912388, -0.0077813472598791, 0.0583315491676331, -0.0353552959859371, -0.0512236468493938, -0.0039981659501791, -0.0614809989929199, -0.0909821540117264, 0.0350748226046562, -0.1283146142959595, -0.0766089558601379, 0.0064006592147052, 0.0451995208859444, -0.0437687374651432, 0.0141842681914568, -0.0328074470162392, 0.0418487936258316, 0.1159029752016068, -0.0284935049712658, 0.0073255309835076, -0.0067304037511349, 0.0431311465799809, 0.0953376665711403, -0.0699092447757721, 0.0033821179531515, 0.0046760360710323, -0.1027514636516571, -0.0659260675311089, 0.0226880684494972, 0.0207489673048258, -0.0140834320336580, -0.0537407137453556, -0.0080325808376074, -0.0407015979290009, -0.1210881024599075, 0.0265106745064259, 0.0123605942353606, -0.0210245009511709, -0.0464127063751221, -0.0521343648433685, -0.0312603041529655, -0.0290545579046011, 0.0366750322282314, -0.0195743013173342, 0.1030744835734367, -0.0277347955852747, 0.0030388219747692, -0.0011084955185652, 0.0062033687718213, -0.0366003923118114, -0.0205906853079796, -0.0788356736302376, -0.0099261309951544, 0.1058170199394226, -0.0633616447448730, -0.0337520875036716, 0.0778367891907692, 0.0309331566095352, 0.0480384752154350, -0.0903908610343933, 0.0242021884769201, 0.0170720089226961, 0.0287074726074934, -0.1084949001669884, -0.0498217679560184, 0.0254368688911200, 0.0215122941881418, 0.0183454044163227, -0.0484013259410858, -0.0637349262833595, -0.0743060186505318, 0.0538053885102272, -0.0169575158506632, -0.0168044865131378, -0.0687654986977577, 0.0551784783601761, 0.0057846843264997, 0.0501893684267998, 0.0657885894179344, -0.0176565647125244, -0.0014881542883813, 0.0433343984186649, -0.0054671480320394, -0.0047476268373430, -0.0059457477182150, 0.0214176196604967, 0.0205924324691296, 0.0483216717839241, -0.0167875215411186, 0.0945842415094376, -0.0247320327907801, -0.0183761529624462, 0.0100052040070295, 0.0212926212698221, -0.0123952366411686, 0.0123154297471046, -0.0263996329158545, 0.0126768276095390, -0.0405760407447815, -0.0250196754932404, -0.0578195527195930, -0.0139273144304752, -0.0261221844702959, 0.0428212843835354, -0.0186363942921162, 0.0355895385146141, -0.0648504644632339, 0.0257677882909775, 0.0578960627317429, -0.0196187291294336, 0.0453685857355595, 0.0151587370783091, 0.0538294427096844, -0.0277902781963348, -0.0060353726148605, 0.0256711412221193, 0.0347143225371838, 0.0699053257703781, -0.1247988119721413, -0.0152208274230361, 0.0105019118636847, 0.0105605470016599, -0.0762946903705597, 0.0685538351535797, -0.0470170378684998, 0.0095929922536016, -0.0230823904275894, -0.0883577242493629, -0.0145567646250129, 0.0790669694542885, 0.0003774611686822, -0.0126264309510589, -0.0330684036016464, 0.0315071009099483, -0.1319310814142227, -0.0553517043590546, -0.0760266408324242, 0.0240649729967117, -0.1296021789312363, -0.0871210917830467, -0.0841424539685249, 0.0451825149357319, 0.0598178543150425, -0.0823847204446793, 0.0119915530085564, 0.0427785441279411, -0.0005860861274414, 0.0432493314146996, -0.0586609616875648, -0.1106943562626839, -0.0526265911757946, 0.0456584878265858, -0.0210863538086414, 0.0311649404466152, -0.0102764889597893, -0.0352864488959312, -0.0386309996247292, 0.0119217578321695, 0.0371713005006313, 0.0845755860209465, -0.0202138833701611, 0.0141730755567551, -0.0459926463663578, 0.0681280866265297, -0.0025265498552471, 0.1616773009300232, -0.0132589992135763, -0.0473013259470463, -0.0002255141153000, 0.1623968482017517, -0.0159989371895790, -0.0413708984851837, 0.0310394093394279, 0.0320859141647816, -0.0737379118800163, 0.1362816691398621, -0.0049630715511739, 0.1028891354799271, 0.0016931124264374, -0.0464954338967800, -0.0215769577771425, -0.0513313822448254, 0.0334115251898766, 0.1369644850492477, 0.0338062085211277, 0.0407126210629940, 0.0338958650827408, -0.0109274061396718, 0.0022046100348234, -0.0186274945735931, -0.0407882109284401, 0.0452835820615292, 0.0058226012624800, -0.0297714732587337, -0.0005667351651937, 0.0117557458579540, -0.0114034088328481, 0.0374758131802082, -0.0522460080683231, 0.0011415210319683, -0.0160057358443737, -0.1080782264471054, 0.0207226276397705, 0.1150682866573334, -0.0616395808756351, 0.0201572682708502, 0.0383869260549545, -0.0401567555963993, 0.0359067656099796, 0.1529450416564941, 0.0225249975919724, 0.0131160747259855, 0.0066014830954373, 0.0915599837899208, -0.0840902328491211, 0.0131502104923129, 0.0131911467760801, 0.0166457220911980, 0.0988833308219910, -0.0047270464710891, 0.0542979091405869, -0.0049337330274284, 0.0049681025557220, -0.0626285448670387, 0.0207605902105570, 0.0189653057605028, 0.0153154740110040, 0.0008067847229540, -0.0141495633870363, 0.0263650175184011, -0.0640822425484657, -0.0044244914315641, -0.0390014201402664, -0.0115208355709910, -0.0833314731717110, -0.0464128851890564, -0.0450767204165459, -0.0223214589059353, -0.0508624166250229, -0.0759985968470573, -0.0172541849315166, 0.0089226942509413, 0.0140753900632262, 0.0232773870229721, 0.0635949000716209, -0.1302365660667419, 0.0161875523626804, 0.0625887662172318, -0.0487251430749893, 0.0338427573442459, 0.0594982504844666, -0.0006247578421608, -0.0635258555412292, -0.1143014505505562, 0.0409835278987885, 0.0479056164622307, -0.0766096934676170, -0.0431404039263725, -0.0200286377221346, 0.0045546945184469, 0.0401768051087856, 0.0845471546053886, -0.0034419214352965, -0.0227718688547611, 0.0274168085306883, 0.0311267822980881, -0.0243713185191154, -0.0054467772133648, -0.0838401541113853, 0.0237460136413574, 0.0318409129977226, -0.0306193027645350, -0.0278076250106096, 0.1249212995171547, -0.0463474765419960, 0.0200048629194498, 0.0444316081702709, -0.0673675984144211, 0.0003183992521372, 0.0958744063973427, 0.0041879303753376, -0.0017462550895289, 0.0413276478648186, 0.0498990267515182, -0.0994573757052422, -0.0094851367175579, -0.0369564443826675, 0.0395833030343056, -0.0568679049611092, -0.1076749861240387, 0.0257275905460119, 0.0317368581891060, 0.0085862791165709, 0.0492356196045876, -0.0429804772138596, -0.0036105511244386, -0.1245196089148521, -0.0927225127816200, 0.0436349697411060, 0.0610521510243416, -0.0195780377835035, -0.0268292389810085, -0.0100509030744433, -0.0700081139802933, -0.0434643849730492, 0.0963438749313354, 0.0211563184857368, 0.0179671067744493, 0.0135501036420465, 0.0245810803025961, 0.0677665099501610, 0.0395278558135033, 0.0272727422416210, -0.0077087101526558, 0.1018548905849457, 0.0095520438626409, 0.0071263341233134, -0.0090296510607004, -0.0056362547911704, -0.0445669516921043, 0.0134339118376374, -0.0575683228671551, 0.0057014804333448, -0.0179539825767279, -0.0175379272550344, 0.0019939162302762, -0.0304937940090895, -0.0616739094257355, -0.0537508949637413, 0.0424450859427452, 0.0518159270286560, -0.0509624630212784, -0.0232031047344208, -0.0253900662064552, -0.0403523035347462, -0.0144768925383687, -0.0530293956398964, 0.0177197512239218, 0.0293048042804003, 0.0380602553486824, 0.0792838782072067, 0.0002539255365264, 0.0139955291524529, 0.0584389194846153, -0.0373350083827972, 0.0261679459363222, 0.0580275654792786, 0.0743822976946831, -0.0159158166497946, -0.0989708602428436, 0.0133303124457598, -0.0808227285742760, -0.0771135464310646, 0.0670216977596283, 0.0465628094971180, -0.0099992156028748, 0.0915509685873985, -0.0031875148415565, -0.0138428080826998, 0.0312061645090580, 0.0121084777638316, 0.0125507386401296, 0.0033743029925972, 0.0086274743080139, -0.1147219687700272, 0.0308212470263243, -0.0540739335119724, -0.0296952798962593, -0.0387484356760979, 0.0772052258253098, 0.0094863325357437, 0.0357007458806038, -0.0542511232197285, -0.0210431832820177, -0.0608171373605728, 0.1628769934177399, 0.0136043317615986, -0.0287153366953135, 0.0422222390770912, 0.0990218147635460, -0.0611273385584354, 0.0280111283063889, -0.0418896861374378, 0.0669834241271019, -0.0582567751407623, -0.0873410478234291, -0.0138821369037032, 0.0167683009058237, -0.0433301441371441, 0.1277481615543365, 0.0662132278084755, -0.0339016281068325, -0.0060829762369394, -0.0520117096602917, 0.0137122720479965, -0.0812989547848701, -0.0474346466362476, 0.0710794180631638, 0.0124748125672340, -0.0053807087242603, -0.1010709479451180, -0.0198225397616625, 0.0906639173626900, -0.0283707957714796, 0.0484546422958374, -0.0157885085791349, -0.0033852981869131, -0.0035796670708805, 0.0379612110555172, 0.0289386082440615, 0.0108657963573933, 0.0107802869752049, -0.0071766753681004, 0.0030315448530018, 0.0268038641661406, 0.0021607175003737, -0.0097902119159698, 0.0207509528845549, -0.0212070699781179, -0.0163832213729620, -0.0288400612771511, 0.0627709776163101, -0.0129686640575528, -0.0605502054095268, -0.0194843523204327, 0.0801298096776009, -0.0128401732072234, -0.0161604862660170, 0.0482437610626221, 0.0436243563890457, 0.0683272853493690, 0.0271510779857635, -0.0728234797716141, 0.0243011973798275, 0.0510810464620590, -0.0088564325124025, 0.0857712477445602, 0.0989482626318932, -0.0681539550423622, -0.0658168718218803, -0.0687720477581024, -0.0503114052116871, 0.0116064781323075, 0.0663353949785233, -0.0005144607857801, 0.1110495477914810, -0.0015621405327693, -0.1405450403690338, -0.0055679553188384, 0.0954725965857506, 0.0634833872318268, 0.0172219667583704, 0.1442786157131195, -0.1785464286804199, -0.1054548621177673, 0.0382889360189438, -0.0055838404223323, 0.0080938646569848, -0.0101307928562164, -0.0137368785217404, -0.0818077027797699, 0.0243166554719210, -0.0198058709502220, 0.0254760626703501, 0.0313410870730877, 0.0509463027119637, -0.0370367616415024, -0.0551273152232170, -0.0305009130388498, -0.0049610910937190, 0.0000912077666726, 0.1143563836812973, -0.0256297010928392, -0.0240547824651003, -0.0036729846615344, 0.0439296849071980, -0.1148462593555450, -0.0132020441815257, -0.0094193024560809, 0.0247062034904957, 0.0458270572125912, -0.0331104509532452, 0.0042844368144870, -0.0210431348532438, -0.0038371148984879, 0.0685524642467499, -0.0301038455218077, -0.0378199405968189, 0.0303074512630701, 0.0872889086604118, 0.1372830271720886, -0.0787227004766464, 0.0043116533197463, 0.1098593696951866, 0.0513970628380775, 0.0609995648264885, 0.0369988977909088, -0.0384455844759941, 0.0747348740696907, -0.0351869575679302, 0.0934305265545845, -0.0289595890790224, -0.0273849312216043, -0.0238617472350597, 0.0363037884235382, 0.0250898841768503, -0.0598271563649178, -0.0590201243758202, -0.0327936075627804, 0.0133508425205946, 0.0354198478162289, -0.0903552994132042, -0.0219202041625977, -0.0009171328856610, 0.0296253580600023, -0.0031492270063609, -0.0210085380822420, 0.0346571281552315, 0.0369660556316376, 0.0028188873548061, 0.0084878709167242, 0.0623845085501671, -0.1164774149656296, -0.0104699274525046, 0.0380723401904106, -0.0011928871972486, -0.0179940015077591, -0.0000023977136152, -0.0544739514589310, 0.0040611657314003, 0.0139380246400833, -0.0479148812592030, 0.0413035191595554, -0.0372429043054581, -0.1280032396316528, 0.0637360289692879, -0.0747460126876831, 0.0010540242074057, -0.0170687604695559, 0.0011751847341657, -0.0046818293631077, 0.0337079204618931, -0.0350588597357273, -0.0759099274873734, 0.0315574817359447, -0.0018068002536893, 0.0255904216319323, -0.0021197749301791, 0.0496351979672909, -0.0625590607523918, -0.1086106821894646, 0.0091706085950136, 0.0200943630188704, -0.0109970504418015, -0.0000349209767592, -0.0274490937590599, 0.0083684222772717, -0.0369356796145439, 0.0005294746370055, 0.0851036161184311, -0.0142795173451304, 0.0424549952149391, 0.0075854188762605, -0.0399606041610241, -0.0592294000089169, 0.0187137927860022, 0.0167644675821066, -0.0196848437190056, 0.0138109568506479, 0.0787976756691933, 0.0187045913189650, -0.0271642003208399, -0.0318657755851746, -0.0885356739163399, -0.0617241635918617, 0.0217916555702686, 0.0447578802704811, 0.0031425016932189, 0.0707865580916405, 0.0274048447608948, -0.0174431428313255, 0.0369669497013092, 0.0146785788238049, -0.0620788745582104, -0.0167119093239307, 0.0131848743185401, 0.0750731453299522, -0.0343491472303867, -0.0449547730386257, 0.0409869626164436, 0.0666886717081070, 0.0235607437789440, 0.0105679193511605, -0.0067051444202662, 0.0481467694044113, -0.0472250804305077, -0.0433726236224174, 0.0434895008802414, -0.0124511634930968, -0.0622997730970383, 0.0122853852808475, -0.0111127402633429, -0.0227893404662609, -0.1235612183809280, 0.0333272442221642, -0.0232512317597866, -0.0491036549210548, -0.0986528694629669, 0.0209338106215000, -0.0784644261002541, -0.0260519403964281, 0.0102826980873942, -0.0081887496635318, -0.0279439222067595, 0.0127321816980839, -0.0104110129177570, -0.0194339938461781, 0.0937765687704086, -0.1584825217723846, -0.0059527396224439, 0.0024894333910197, -0.1306211203336716, 0.0093953711912036, 0.0108842477202415, -0.0424816049635410, -0.0448097065091133, -0.0428595729172230, -0.0470454469323158, 0.0442764796316624, 0.0268438924103975, 0.0114861242473125, 0.0657751932740211, 0.0173364207148552, 0.0011564283631742, 0.0090800812467933, -0.0461300946772099, -0.0042561879381537, -0.0702637881040573, -0.0009659877396189, -0.0018127877265215, 0.0146613307297230, -0.0070751374587417, -0.0174750294536352, 0.0098730064928532, 0.0170469656586647, 0.0057423100806773, -0.0910041183233261, -0.0036360830999911, -0.0060350433923304, -0.0257065854966640, -0.0446550659835339, 0.0157573297619820, 0.0474853962659836, -0.0910009071230888, -0.0004531695158221, -0.0022180811502039, 0.0032541395630687, -0.0892573744058609, 0.0380287207663059, 0.0901793166995049, -0.0174283962696791, 0.0354928560554981, 0.0223778355866671, 0.0586652904748917, -0.0305337570607662, 0.0719085931777954, -0.0309338904917240, 0.0146896811202168, 0.0083318389952183, -0.1371448785066605, -0.0381707958877087, 0.0272659063339233, 0.0597566775977612, 0.0369034931063652, 0.0894802957773209, 0.0236718542873859, 0.0190984252840281, 0.0051849996671081, 0.0394736342132092, 0.0524580851197243, 0.0114073781296611, 0.0302283819764853, 0.0391321592032909, 0.0612411536276340, -0.0399810709059238, 0.1170150041580200, 0.0029323538765311, -0.0019471502164379, -0.0745643749833107, 0.0200783442705870, -0.0254712440073490, -0.0655510425567627, -0.0632553249597549, 0.0517673753201962, -0.0502300336956978, -0.0364787168800831, 0.0060686748474836, -0.0206886176019907, -0.0135968513786793, -0.0610102713108063, -0.0909474790096283, -0.0140830390155315, 0.0007982889655977, 0.0262062866240740, -0.0059527889825404, 0.0104862255975604, -0.0641750991344452, 0.0146965272724628, 0.0064323185943067, -0.0148366885259748, 0.0056878472678363, -0.0047983075492084, -0.1271279752254486, 0.0224494244903326, -0.0519017577171326, -0.0063573149964213, 0.0075483066029847, -0.0171616766601801, -0.0282052848488092, -0.0311752371490002, -0.0403909459710121, 0.0168397463858128, -0.0252553336322308, 0.0273585971444845, -0.0481623113155365, 0.0580274276435375, -0.0164220500737429, 0.0884197950363159, 0.0939975902438164, -0.0317129194736481, 0.0251217689365149, -0.1111218705773354, -0.0292650144547224, -0.0057330871932209, 0.0500107668340206, 0.0975959077477455, -0.0232903640717268, 0.0710224285721779, 0.0593633987009525, -0.0089739514514804, 0.1189275905489922, 0.0646436512470245, -0.0458849109709263, -0.0016822321340442, 0.0055667334236205, -0.0060595027171075, -0.0846884027123451, 0.0362921841442585, -0.0071153463795781, -0.0463780947029591, 0.0221822131425142, 0.0379995666444302, -0.0753644183278084, -0.0755730792880058, -0.0127852754667401, -0.0431245937943459, 0.0388976037502289, 0.0183776076883078, 0.0069039273075759, 0.0654668658971786, -0.0435992889106274, 0.0060329888947308, -0.0425714775919914, 0.0218579676002264, 0.0125180426985025, -0.1800888925790787, -0.0192519202828407, 0.0400451160967350, 0.0088187400251627, -0.0027789515443146, 0.0448074713349342, 0.0014063003472984, -0.0218341909348965, -0.0357043035328388, -0.0377350002527237, 0.0261387228965759, -0.0753212422132492, 0.0635052919387817, 0.0653684362769127, 0.0347625985741615, -0.0153514482080936, 0.1027670204639435, 0.0303774550557137, -0.0043459385633469, -0.0508498698472977, 0.0813452750444412, -0.0724529325962067, 0.0294105838984251, -0.0439973957836628, -0.0052737127989531, -0.0674254074692726, -0.0431267283856869, -0.0136726843193173, -0.0054578627459705, -0.0347699522972107, -0.0077669913880527, -0.0127742430195212, 0.0210988987237215, 0.0061438875272870, -0.0476105771958828, -0.0023497412912548, -0.0068414974957705, -0.0287792682647705, -0.0124535690993071, 0.0093356594443321, 0.0167059917002916, 0.0820785462856293, 0.0040039173327386, -0.0172137990593910, -0.0243987962603569, -0.0294787008315325, -0.0078015932813287, 0.0486492104828358, -0.0151588395237923, 0.0837759077548981, -0.0682878792285919, 0.0131570510566235, 0.0250291395932436, -0.0326118059456348, 0.0141589194536209, 0.0000424803438364, -0.0074749500490725, -0.0419192314147949, 0.0617205053567886, 0.0602433979511261, -0.0303376745432615, 0.0119114750996232, -0.0818921700119972, -0.0592799186706543, 0.0524165742099285, 0.0546056553721428, 0.0375152155756950, -0.0218244083225727, 0.0611781254410744, 0.0165028758347034, -0.0088763777166605, 0.1212649419903755, 0.0108278235420585, -0.0375995114445686, -0.0203238278627396, -0.0031766146421432, -0.0074607436545193, 0.0505085773766041, 0.0420556217432022, -0.0639206543564796, -0.0221457537263632, 0.0185113344341516, 0.0745975002646446, -0.0225864946842194, -0.0666195228695869, 0.0064713056199253, 0.0568517744541168, 0.0232213623821735, 0.0398688763380051, -0.0178586374968290, 0.0206263847649097, -0.0371584035456181, -0.0453519523143768, -0.0414292439818382, -0.0075729526579380, -0.0003537402662914, 0.0090266978368163, -0.0082513540983200, -0.0013577762292698, -0.0214850567281246, -0.0698348358273506, -0.0107910232618451, 0.0676955282688141, -0.0627854987978935, -0.0456287302076817, -0.0720300674438477, -0.0180084891617298, -0.0310220662504435, -0.0399410389363766, 0.0378613881766796, 0.0807733312249184, -0.0100992321968079, -0.0311104189604521, 0.0088938651606441, -0.0238354112952948, -0.1055728346109390, 0.1174620613455772, 0.0203110147267580, 0.0432501696050167, -0.0272525139153004, 0.0073555721901357, -0.0063557066023350, -0.0351696386933327, -0.0385458022356033, 0.0217186510562897, -0.1209677383303642, -0.0919740423560143, 0.0828823298215866, 0.0168887842446566, 0.0085565829649568, -0.0357945896685123, 0.0073304339312017, -0.0452901273965836, 0.0215873401612043, 0.0130944969132543, 0.0164199266582727, -0.0018896369729191, 0.0974095687270164, -0.0248215012252331, -0.0199361033737659, -0.0066548478789628, -0.0102978395298123, -0.0066357473842800, -0.0028546948451549, -0.0094626126810908, 0.0961096659302711, -0.0056980960071087, 0.0342235602438450, -0.0326285809278488, -0.0269480142742395, -0.0235890876501799, 0.0904396176338196, -0.0429997034370899, -0.0825010240077972, -0.0034095721784979, 0.0735195726156235, -0.0136133804917336, 0.0453355722129345, -0.0749966651201248, -0.0800700038671494, -0.0026015767361969, 0.0496857464313507, 0.0138819385319948, -0.0236708447337151, -0.0274631399661303, -0.0038676229305565, -0.0015878197737038, 0.0603272542357445, -0.0215674042701721, -0.0447041615843773, 0.0267850495874882, -0.0248769521713257, -0.0091881426051259, 0.0096037760376930, 0.0195379331707954, -0.0733423158526421, 0.0442538969218731, 0.0347735323011875, 0.0107194166630507, -0.0308206491172314, -0.1040866225957870, -0.0220998488366604, 0.0745432451367378, -0.0074393632821739, -0.0046233003959060, -0.0251881740987301, 0.0641028806567192, -0.0347838699817657, -0.0062490627169609, -0.0097287371754646, 0.0058800736442208, 0.0021536564454436, 0.0683804750442505, -0.0019883753266186, 0.0837836861610413, 0.0321746543049812, -0.0959959924221039, 0.0152204539626837, 0.0430663824081421, -0.0889835581183434, -0.0147660430520773, -0.1162932962179184, -0.0436010137200356, -0.0065751774236560, -0.0564612969756126, 0.0501110814511776, 0.0830902233719826, -0.0281705111265182, -0.0269266013056040, -0.0379013009369373, -0.0177703499794006, -0.1962936073541641, 0.0471229851245880, 0.0669167041778564, 0.0405400544404984, -0.0572555027902126, -0.0319418422877789, 0.0287280809134245, -0.0113253993913531, -0.0232916902750731, 0.0067111453972757, 0.0399326123297215, -0.0768619999289513, 0.0566936954855919, 0.0700342282652855, 0.0005795796168968, 0.0453579984605312, 0.0012315131025389, -0.0204596314579248, 0.0372713319957256, 0.0264602452516556, -0.0053310496732593, -0.0076542980968952, -0.0603809356689453, -0.0469104200601578, 0.0618229322135448, -0.0131258470937610, 0.0478032566606998, 0.0201061833649874, 0.0242063533514738, -0.1172210872173309, 0.0148812336847186, -0.0026286216452718, -0.0520445294678211, -0.0057051838375628, -0.0253018271178007, -0.0059668850153685, 0.0742702782154083, -0.0715615823864937, -0.1003492921590805, -0.0915305539965630, -0.0773122161626816, -0.0176414735615253, 0.0400585271418095, -0.0095033757388592, 0.0073694693855941, -0.0585819259285927, -0.0074816402047873, -0.0287071447819471, 0.0169076845049858, -0.1116148307919502, 0.0698921978473663, 0.0374630242586136, 0.0963110327720642, -0.1394445896148682, 0.0175151545554399, 0.0593819580972195, 0.0262505505234003, 0.1553612649440765, -0.0173709969967604, -0.0293893348425627, -0.0681391432881355, 0.0269541889429092, 0.0188484936952591, 0.0513810589909554, -0.0038108420558274, 0.0093530621379614, 0.0247135777026415, -0.0409566164016724, -0.0455440357327461, -0.0025006846990436, -0.0027861394919455, -0.0118627715855837, -0.0018400029512122, -0.0114793069660664, 0.0216056853532791, 0.0761985927820206, 0.0011877850629389, -0.0825822204351425, 0.0035559157840908, 0.0553762093186378, 0.0369207449257374, -0.0574376359581947, 0.0860874205827713, -0.0127617903053761, -0.0950142443180084, 0.0818760693073273, -0.0912430435419083, 0.0154539188370109, 0.0071169268339872, -0.0382587388157845, 0.0654586702585220, -0.0064512379467487, -0.0492042154073715, -0.0941302552819252, -0.0019690305925906, -0.0166725814342499, -0.0396812930703163, -0.0153716215863824, -0.0062491274438798, 0.0154496487230062, -0.0902572795748711, 0.0046325027942657, -0.0133556257933378, -0.0424901954829693, -0.0107846548780799, -0.0063744247891009, 0.0211506225168705, -0.0671506449580193, -0.0170459710061550, 0.0329669974744320, 0.0293972510844469, 0.0412372387945652, 0.0079080369323492, -0.0335686877369881, 0.0109094558283687, -0.0022661273833364, 0.0292809605598450, -0.0479769408702850, -0.1021634191274643, -0.0128864040598273, 0.1427654623985291, 0.0069415243342519, -0.0604963414371014, 0.0004332842654549, 0.0697875693440437, -0.0957078859210014, -0.0341341197490692, -0.0593654923141003, -0.0625077039003372, -0.0022329031489789, -0.0525681823492050, 0.0539474859833717, 0.1069630309939384, 0.0516302883625031, -0.0275151524692774, -0.0287913493812084, -0.0215001665055752, -0.0282087475061417, -0.0216675996780396, 0.0521616749465466, -0.0276197083294392, -0.0423894897103310, -0.1303035914897919, -0.1213085055351257, 0.0254882499575615, -0.1627381742000580, -0.0298902411013842, -0.0063061434775591, 0.1128167137503624, -0.0671826899051666, -0.0070496294647455, 0.0213600508868694, 0.0064446749165654, 0.0863288640975952, -0.0466570481657982, 0.0405482836067677, -0.0283475201576948, 0.0349531657993793, 0.0399552099406719, 0.0970805510878563, 0.0327208377420902, 0.0164473280310631, -0.0093773342669010, -0.1312575638294220, -0.0464624166488647, 0.0641539543867111, -0.0206371229141951, -0.0376989580690861, 0.0627974569797516, 0.0198286864906549, 0.0450094528496265, 0.0705032497644424, -0.1009727418422699, -0.1854138821363449, -0.0207891985774040, 0.0163402501493692, 0.0137989446520805, 0.0419854745268822, 0.0177951138466597, -0.0317046009004116, -0.0157640222460032, 0.1045367792248726, 0.0489911958575249, -0.0113269900903106, 0.0776336863636971, -0.0178684350103140, 0.0206362195312977, -0.1429391652345657, -0.0813885405659676, -0.0697265639901161, 0.0239934250712395, -0.0528766773641109, -0.0602818280458450, -0.0293600466102362, -0.0029303324408829, -0.0201518256217241, -0.0388002395629883, -0.0769462957978249, 0.0501962900161743, 0.0259946994483471, 0.0508523769676685, -0.0216964241117239, -0.0711510926485062, -0.0591739416122437, -0.1089213937520981, -0.0493037477135658, 0.0151897519826889, -0.0125634483993053, 0.0244002472609282, -0.0782828852534294, 0.0378769673407078, 0.0008811161387712, 0.0115427412092686, -0.0364013500511646, 0.0665527284145355, -0.0491204299032688, 0.0726437419652939, 0.0501760654151440, -0.1187943518161774, 0.0036942819133401, 0.0152696976438165, -0.0720603540539742, -0.0966062173247337, -0.0562351085245609, -0.0401813387870789, -0.0101168118417263, -0.0302612148225307, -0.0083304522559047, 0.0870189443230629, 0.0369410477578640, 0.0722440183162689, -0.0363810583949089, 0.1134875491261482, 0.0083864899352193, -0.0502347946166992, 0.1341911256313324, 0.0347466543316841, -0.0215554144233465, -0.0558913722634315, -0.0175506230443716, -0.0101555148139596, -0.0484817810356617, -0.0717741027474403, 0.0010187505977228, 0.1137483194470406, 0.0677049905061722, -0.0048882737755775, 0.0527560636401176, 0.0080023407936096, -0.0063830646686256, -0.0593894198536873, 0.0748929455876350, -0.0138225713744760, 0.0402852855622768, -0.0089170886203647, 0.0531649813055992, -0.0290511976927519, -0.0327074527740479, 0.0013366458006203, -0.0149568933993578, -0.0430122390389442, 0.0726955533027649, 0.0421019420027733, -0.0984443649649620, -0.0343473143875599, 0.0129874777048826, 0.0566092506051064, -0.0015517926076427, 0.0292092375457287, -0.0914537608623505, -0.0461183451116085, 0.0483465455472469, -0.0455329045653343, 0.0957689657807350, 0.0148405106738210, -0.0064875138923526, 0.0897151902318001, 0.0860710740089417, 0.0715057030320168, 0.0273327101022005, 0.1340436786413193, 0.0497801937162876, -0.0151271652430296, -0.0508098304271698, -0.0026646221522242, -0.0003466003690846, -0.0046042916364968, -0.0647999346256256, 0.0305241756141186, -0.0248271524906158, 0.0617639869451523, 0.0101760011166334, 0.0256175510585308, -0.0492564924061298, -0.0771402120590210, 0.0488045811653137, 0.0551236681640148, -0.0225183274596930, -0.0535695776343346, -0.0791120231151581, -0.0940376520156860, -0.0391902364790440, 0.0332407876849174, -0.0510856881737709, 0.0408605299890041, -0.0344107300043106, -0.0295982677489519, 0.0062675513327122, 0.0151920299977064, -0.0498882234096527, 0.1623150557279587, -0.0079713901504874, -0.1249550506472588, -0.0042434115894139, -0.1087603792548180, -0.0063409102149308, -0.0268505867570639, 0.0201570428907871, -0.0170193426311016, -0.0223704967647791, 0.0112491874024272, -0.0496580712497234, -0.0130053069442511, -0.0169328264892101, 0.0050912671722472, 0.0574383437633514, 0.0290540400892496, -0.1162232533097267, 0.0417076684534550, 0.0421801805496216, 0.0091347172856331, 0.0367102585732937, 0.0208005066961050, 0.0018096116837114, 0.0254765152931213, 0.0380581505596638, -0.0066481633111835, 0.0145479906350374, -0.0530013479292393, -0.0129954731091857, 0.0266617052257061, 0.0605464354157448, -0.0750205218791962, 0.0235243905335665, -0.0192585140466690, 0.0403382331132889, 0.0371714755892754, 0.0884587466716766, 0.0833621919155121, 0.1244206205010414, 0.0309786237776279, 0.0732480287551880, -0.0628971382975578, -0.1218648329377174, -0.0081650447100401, 0.0236620251089334, -0.0334246046841145, 0.0738570690155029, 0.0344118699431419, -0.1474244594573975, -0.0205155760049820, 0.0598136372864246, 0.0310934185981750, -0.1027905717492104, -0.0645045638084412, -0.0740739777684212, 0.0241791494190693, 0.1267683058977127, -0.0214461535215378, -0.0173438973724842, 0.0292836446315050, 0.0387153699994087, 0.1396104842424393, -0.0191279891878366, 0.0076667778193951, -0.0558018274605274, 0.1253260374069214, 0.1131116598844528, -0.0461846552789211, -0.0714958459138870, -0.0124793080613017, 0.0348178707063198, 0.0700637027621269, 0.0358865968883038, -0.0280461478978395, 0.0731385201215744, -0.0327083952724934, 0.0454808883368969, -0.0087093273177743, -0.0329567529261112, -0.1311260163784027, -0.0030457656830549, -0.0346774049103260, -0.0199824981391430, -0.0418962426483631, -0.0326615571975708, -0.0014251822140068, 0.0102191958576441, -0.0026203028392047, -0.0308965332806110, 0.0379068106412888, 0.0083029353991151, -0.0064475890249014, -0.0094403801485896, -0.0296077206730843, -0.1261909604072571, 0.2132542133331299, 0.0332567766308784, -0.1085462719202042, 0.0529462583363056, -0.1195703670382500, 0.0396079234778881, 0.0375820845365524, 0.0135377971455455, 0.0628328397870064, -0.0249769166111946, 0.0295313317328691, 0.0449188873171806, 0.0101014226675034, -0.0512291565537453, -0.0324226319789886, 0.0075179385021329, 0.0347519703209400, -0.0377096794545650, -0.1239559948444366, 0.0018688214477152, -0.0032713008113205, 0.0339615792036057, -0.0171736478805542, -0.0214142352342606, 0.0117597598582506, -0.0041865920647979, -0.0287749674171209, 0.0673068836331367, -0.0320388339459896, -0.0196360107511282, 0.0416192561388016, -0.0194338541477919, -0.1299291551113129, 0.0152515145018697, 0.0457226559519768, 0.0415580347180367, 0.0000060358956944, 0.0334880426526070, 0.0838478952646255, -0.0387739874422550, 0.0982211604714394, -0.0316514149308205, -0.0124582238495350, 0.0178831275552511, 0.0294279847294092, 0.1048395559191704, 0.0090839881449938, 0.0608874298632145, -0.0389867685735226, -0.0505981482565403, -0.0903998538851738, -0.0391049571335316, 0.0308044683188200, -0.0262574087828398, -0.2597963809967041, -0.0366639494895935, -0.0186074562370777, 0.0238854736089706, -0.0298309251666069, -0.0889455154538155, -0.0070773898623884, 0.0128503656014800, 0.1193882673978806, -0.0650531202554703, 0.0221818853169680, -0.0307369269430637, -0.0735769793391228, 0.0432315506041050, -0.0479284562170506, -0.0818536207079887, -0.0848169550299644, 0.0267776418477297, 0.0118692498654127, 0.0578080378472805, -0.0098185632377863, 0.0146430172026157, -0.1200438588857651, 0.0473878756165504, -0.0305098928511143, 0.0435147322714329, -0.0311651099473238, 0.0251415055245161, 0.0030315783806145, -0.0197042785584927, 0.0541271232068539, 0.0572814047336578, 0.0238141138106585, 0.0218755044043064, 0.0079811187461019, 0.0658628344535828, -0.0390381775796413, 0.0457365661859512, 0.0160629749298096, -0.0083236843347549, -0.0177959315478802, -0.0453338623046875, 0.0295395348221064, -0.0143467402085662, -0.0129889054223895, 0.0832103639841080, -0.0317622907459736, 0.1386871784925461, 0.0152183668687940, -0.0089602693915367, 0.0888569131493568, -0.0665476620197296, 0.0582947805523872, 0.0089187370613217, 0.0019047575769946, 0.0080233812332153, -0.0331659615039825, 0.0391817912459373, -0.0000865533220349, 0.0110508631914854, -0.0841125994920731, 0.0022780476137996, 0.0485015772283077, 0.1025380194187164, -0.0450762771070004, -0.0146485911682248, -0.0195182096213102, 0.0826938152313232, -0.0333690941333771, 0.1440458148717880, -0.0142121650278568, -0.0443100929260254, 0.0600531697273254, -0.0046497629955411, -0.0791310593485832, -0.0297492500394583, -0.0302050653845072, 0.0717878937721252, -0.0193853415548801, 0.0417817793786526, 0.0446768142282963, -0.0342545844614506, -0.1038623750209808, 0.0153933512046933, -0.0345687828958035, 0.1394609212875366, 0.0290930252522230, 0.0561739131808281, -0.0266509708017111, 0.0130757419392467, -0.0374299325048923, 0.1250410079956055, -0.0385498441755772, -0.0171391665935516, 0.0051491339690983, 0.0520338527858257, -0.1076356098055840, 0.0147677203640342, -0.0048559429123998, 0.0377062819898129, -0.0249321814626455, -0.0011733970604837, -0.0428938753902912, -0.0518041364848614, -0.0144332312047482, 0.0596103444695473, 0.0517267696559429, -0.0374470129609108, -0.1377125978469849, -0.1413770020008087, -0.1316526979207993, -0.0074790818616748, -0.1317119151353836, 0.0839964747428894, -0.0015661425422877, 0.0549882203340530, -0.1200941354036331, 0.0809847712516785, -0.0123599888756871, 0.0083726327866316, 0.0587012842297554, 0.0831893682479858, 0.0246044471859932, 0.0050347358919680, 0.0242426283657551, 0.0162807125598192, 0.1680988520383835, 0.0218444000929594, -0.0544901378452778, 0.0610501877963543, 0.0107122063636780, -0.1940790265798569, -0.0099349850788713, 0.0572931468486786, 0.0931271985173225, 0.0213768891990185, -0.0381640866398811, 0.0267170872539282, -0.0314153507351875, -0.0152990967035294, -0.0790752768516541, 0.0194441322237253, -0.0693309977650642, 0.0932768955826759, -0.0023405207321048, 0.0004514254687820, 0.0832616686820984, 0.0062603829428554, 0.0829493775963783, 0.0733851417899132, 0.0075308200903237, -0.0246170852333307, -0.0656554475426674, 0.0022013380657881, -0.0326331481337547, -0.0143452631309628, -0.0655439049005508, -0.0253620799630880, -0.0115441670641303, 0.1249819844961166, -0.0524104796350002, 0.1434044390916824, 0.0412307195365429, 0.0896687805652618, -0.0208081938326359, 0.1236505880951881, -0.0797446370124817, -0.0078005990944803, 0.0965711325407028, -0.0162869524210691, -0.0745907053351402, -0.0113144675269723, 0.0132464105263352, -0.0216139480471611, -0.0441821515560150, 0.0787459909915924, -0.0187454782426357, 0.0669913142919540, -0.0637039095163345, -0.0308624599128962, -0.0176818817853928, 0.1110039278864861, 0.0632733851671219, 0.0763841122388840, 0.0163335446268320, -0.0228569153696299, 0.0136750238016248, 0.1412990093231201, -0.0117056602612138, -0.0688153877854347, -0.0087264869362116, 0.0770256742835045, -0.0489101968705654, 0.0204115249216557, 0.0069337240420282, 0.0157578308135271, 0.0189113821834326, -0.0585918985307217, -0.0113790072500706, 0.0085366247221828, -0.1210694238543510, 0.0201484542340040, -0.0282610766589642, 0.0711650550365448, -0.0996952652931213, 0.0322335064411163, -0.0123050976544619, -0.0008605727343820, -0.0174464061856270, -0.0451536402106285, 0.0089306179434061, -0.0305414143949747, -0.0369503200054169, 0.0198937226086855, 0.0123373568058014, 0.0071060280315578, -0.0074273594655097, 0.0007612521876581, 0.0067715696059167, -0.0073990230448544, -0.0223004240542650, 0.0253053903579712, 0.0540125854313374, -0.0477144867181778, -0.0092806965112686, 0.0296510681509972, -0.0206655822694302, -0.0472853407263756, -0.0129270544275641, -0.0262612532824278, -0.0405610278248787, -0.0170138422399759, -0.0126146897673607, 0.0333794653415680, -0.0444077253341675, 0.0372338704764843, 0.0478898696601391, -0.0165248550474644, 0.0219464376568794, -0.0148161230608821, -0.0279213935136795, -0.0416681952774525, 0.0166959147900343, 0.0220928676426411, -0.0173510070890188, -0.0045544560998678, -0.0153633700683713, 0.0455115959048271, -0.0455037429928780, 0.0039227819070220, 0.0069650667719543, -0.0120479715988040, -0.0092691881582141, -0.0029587082099169, 0.0065411380492151, 0.0512050390243530, -0.0119237629696727, 0.0528329350054264, -0.0555736459791660, 0.0389575064182281, -0.0082959383726120, 0.0065534771420062, 0.0112800635397434, -0.0031605672556907, 0.1216093227267265, -0.0541189163923264, -0.0081775570288301, 0.0185770746320486, -0.0180891845375299, 0.0592207424342632, 0.0347610078752041, 0.0250339023768902, 0.0014083142159507, -0.0314705036580563, -0.0106439031660557, -0.0201992914080620, -0.0173976644873619, -0.0244345683604479, 0.0018152974080294, -0.0177084561437368, -0.0349925272166729, 0.0082358503714204, -0.0324130691587925, -0.0079783499240875, 0.0186692401766777, -0.0211653243750334, -0.0142620848491788, -0.0462463721632957, -0.0333280190825462, 0.0218661539256573, 0.0174742806702852, -0.0435441732406616, 0.0094997184351087, -0.0208860095590353, 0.0128906024619937, -0.0072624785825610, -0.0908625945448875, -0.0102637801319361, -0.0689412876963615, -0.0238925423473120, 0.0125949075445533, 0.0170241184532642, 0.0183795113116503, 0.0035861413925886, -0.0285446289926767, 0.0165906809270382, 0.0577323921024799, -0.0305695626884699, 0.0140488231554627, -0.0322010070085526, -0.0050123962573707, -0.0063408152200282, 0.0250555537641048, -0.0135556710883975, -0.0100436974316835, 0.0066205384209752, -0.0022402463946491, -0.0112203182652593, 0.0037847869098186, -0.0072916247881949, -0.0390230938792229, 0.0109232906252146, 0.0111695844680071, -0.0261513758450747, -0.0233921818435192, -0.0413630828261375, 0.0217422861605883, -0.0007393966661766, -0.0151951601728797, -0.0129194948822260, -0.0583698451519012, -0.0032407147809863, -0.0712540671229362, -0.0170897003263235, -0.0003979944158345, -0.0473495610058308, 0.0336025916039944, -0.0379126965999603, -0.0279403384774923, 0.0482407324016094, -0.0022032293491066, -0.0508716702461243, 0.0186214428395033, 0.0421553701162338, 0.0086393859237432, 0.0342182293534279, -0.0103477220982313, -0.0063743526116014, 0.0257868189364672, 0.0358233898878098, 0.0188011657446623, 0.0159943923354149, 0.0110577363520861, 0.0069799227640033, -0.0221814531832933, 0.0522030964493752, -0.0364907979965210, -0.0577770769596100, -0.0022284984588623, -0.0259989257901907, 0.0580251440405846, -0.0481833368539810, 0.0600950568914413, -0.0151193523779511, 0.0003437987761572, 0.0045337397605181, 0.0192017722874880, -0.0113557977601886, 0.0258303023874760, -0.0007447221432813, -0.0161350369453430, -0.0050989100709558, 0.0518176518380642, -0.0183487236499786, -0.0274373423308134, 0.0320793688297272, -0.0061346618458629, -0.0090834302827716, 0.0114072412252426, -0.0015794872306287, 0.0117476209998131, 0.0410420447587967, 0.0114198373630643, 0.0060436679050326, 0.0330649390816689, 0.0184188727289438, -0.0192348919808865, -0.0065635354258120, -0.0379712879657745, 0.0039704786613584, 0.0214587468653917, 0.0159398000687361, -0.0554601699113846, 0.0373356491327286, -0.0099865896627307, -0.0632383227348328, -0.0671934261918068, 0.0457373335957527, 0.0454055666923523, -0.0078153479844332, -0.0322329662740231, 0.0181317329406738, -0.0086547266691923, -0.0258024688810110, 0.0504874996840954, -0.0747609063982964, -0.0011443116236478, 0.0151369990780950, 0.0521299690008163, -0.0252840854227543, -0.0264138560742140, -0.0147782722488046, -0.0167670398950577, 0.0106613161042333, -0.0315843224525452, -0.0308889951556921, -0.1013498753309250, 0.0206759870052338, 0.0278371069580317, -0.0066561973653734, 0.0071089146658778, -0.0351354070007801, -0.0056405896320939, 0.0043147993274033, -0.0172282736748457, 0.0018116352148354, -0.0567576922476292, -0.0285859294235706, -0.0762951970100403, 0.0040519558824599, -0.0408464148640633, 0.0233450029045343, -0.0069378307089210, -0.0551128648221493, -0.0481312274932861, -0.0238731671124697, 0.0002729953266680, 0.0374160557985306, -0.0333822667598724, -0.0032615512609482, 0.0247646365314722, -0.0082273595035076, -0.0454921685159206, 0.0122875440865755, -0.0209685023874044, 0.0219939425587654, 