//Numpy array shape [64, 64]
//Min -0.279143899679
//Max 0.277697801590
//Number of zeros 0

#ifndef W5_H_
#define W5_H_

#ifndef __SYNTHESIS__
fc2_weight_t w5[4096];
#else
fc2_weight_t w5[4096] = {0.119127, -0.013735, -0.219609, 0.028150, 0.018524, 0.003291, 0.143553, 0.073762, -0.004247, -0.165355, 0.024556, 0.153448, -0.018125, -0.162135, 0.191714, 0.107438, -0.126234, -0.047053, -0.022099, -0.047723, 0.004226, -0.052985, 0.023828, -0.047552, -0.007345, -0.036216, 0.102464, 0.154062, -0.117069, -0.041719, -0.137538, -0.054429, 0.023477, 0.001035, -0.059524, 0.009556, -0.131614, -0.080762, 0.074874, 0.086683, -0.132034, 0.190217, -0.158487, -0.007280, -0.150242, -0.048630, 0.104589, -0.046687, -0.065183, -0.195098, -0.058004, -0.222337, -0.138844, -0.053657, 0.015215, -0.114281, 0.051035, 0.026448, 0.036175, 0.125330, -0.060129, -0.132578, -0.059185, -0.078131, 0.113785, 0.182627, 0.028821, -0.080276, -0.069152, -0.159534, -0.070366, 0.095304, -0.013384, -0.044114, 0.045131, 0.160742, 0.225392, -0.101240, 0.157850, 0.134608, -0.109133, -0.103572, 0.005014, 0.053689, 0.106917, -0.171335, -0.140508, 0.157795, 0.067016, -0.169717, 0.102491, 0.180079, -0.084373, -0.055479, -0.197921, 0.056188, 0.124481, 0.152475, 0.044345, -0.034725, -0.078007, -0.130748, 0.181197, 0.173878, -0.152686, 0.122674, -0.205367, -0.203784, -0.189287, -0.118934, 0.042124, -0.004340, -0.078487, -0.014525, 0.069817, -0.128564, -0.208230, -0.111241, -0.164453, 0.030440, 0.179959, 0.154992, -0.049412, 0.050926, 0.092074, -0.184442, -0.174552, -0.072834, -0.001986, -0.020699, -0.135952, 0.183099, -0.054822, 0.078165, -0.046906, -0.044974, -0.022807, 0.199032, 0.031286, -0.056907, -0.148526, 0.083438, -0.092639, -0.029151, 0.032965, 0.055022, -0.012270, -0.021455, -0.002465, -0.078346, 0.116233, -0.016866, -0.161391, 0.206099, 0.158625, 0.062649, 0.122195, 0.073047, 0.177760, -0.055941, -0.002324, 0.037159, -0.049577, 0.113897, 0.121840, 0.101491, -0.002963, -0.065993, -0.076939, -0.072155, 0.079937, 0.022094, 0.150017, -0.042417, -0.046244, -0.020753, 0.024330, -0.007436, 0.083021, 0.060588, 0.077779, 0.140233, 0.073418, -0.009997, -0.092875, -0.028891, -0.038142, -0.058770, -0.050470, -0.021763, 0.155029, 0.119613, 0.061179, -0.010567, -0.036567, -0.016703, 0.014960, -0.125803, -0.107926, 0.072126, 0.087223, -0.005616, -0.047892, -0.085730, -0.041834, 0.086106, -0.014455, -0.086035, 0.021409, -0.082164, 0.146668, -0.124107, 0.096831, 0.160602, 0.035269, -0.017929, -0.054393, 0.085183, -0.063212, 0.019104, 0.050571, -0.074563, -0.077801, 0.044355, -0.068800, -0.038804, -0.011295, 0.012253, -0.060549, -0.078545, -0.173372, -0.016405, 0.140836, 0.005814, 0.150829, 0.026893, 0.031347, 0.098874, 0.061970, -0.072697, -0.039028, -0.075002, 0.086723, 0.035109, 0.093068, -0.056582, -0.065889, 0.113931, -0.041661, 0.008434, 0.035599, 0.032126, -0.040266, 0.131167, 0.126549, 0.095370, 0.182077, 0.149026, 0.102393, -0.098658, 0.038103, -0.124313, -0.040244, 0.039747, -0.138672, -0.039205, -0.024640, -0.027948, 0.139287, -0.079805, -0.036773, -0.121751, -0.058218, 0.080068, -0.119339, 0.134332, -0.023173, -0.086259, -0.119119, 0.091714, -0.036683, -0.079496, -0.013587, 0.058737, 0.019109, 0.066107, -0.070155, 0.067154, 0.001681, 0.108363, -0.016647, -0.072915, -0.021853, -0.029737, -0.052239, 0.139637, 0.016058, -0.033125, -0.109911, -0.128848, 0.027513, -0.043974, 0.123364, -0.031059, 0.106013, -0.026515, -0.054441, -0.064233, -0.106790, -0.034308, -0.153686, 0.113635, 0.049623, 0.082143, 0.084064, -0.013103, 0.230745, -0.057232, -0.021224, 0.118877, -0.023653, -0.153413, -0.091294, -0.034598, 0.005308, 0.065693, -0.053468, 0.015817, 0.009394, 0.009017, -0.039979, -0.146025, -0.054153, 0.044567, -0.116861, -0.086566, 0.151727, 0.003186, 0.130712, -0.098973, -0.002307, 0.175008, 0.172322, -0.075922, -0.101066, 0.075632, -0.087494, -0.031591, 0.070740, 0.079940, 0.053807, 0.020923, -0.041262, -0.028632, 0.027542, 0.061214, 0.078152, 0.023192, -0.178793, -0.017189, 0.049232, -0.064142, 0.098712, -0.024583, 0.043730, 0.070686, -0.027794, -0.075478, 0.003223, -0.022356, 0.025017, -0.006445, 0.026219, 0.030771, 0.035148, 0.055380, -0.069976, -0.054675, 0.082052, 0.012997, 0.039344, 0.033029, 0.058322, 0.079558, 0.086899, 0.064287, -0.006411, -0.051491, -0.041306, -0.204524, 0.024830, 0.044775, 0.052811, -0.039004, 0.122969, 0.106720, 0.159742, -0.046975, 0.201558, 0.076992, -0.141539, -0.100648, -0.138780, 0.055150, 0.063219, -0.162210, -0.057604, 0.167030, 0.086575, -0.103454, -0.001176, 0.186879, -0.179009, -0.081704, -0.104035, -0.076466, -0.028867, 0.099964, 0.021716, 0.119175, -0.208074, -0.206551, 0.151511, 0.224397, -0.025972, 0.217721, -0.205040, -0.154019, -0.051876, -0.139286, 0.065854, 0.117518, -0.108878, -0.158292, 0.091518, -0.106939, -0.135868, -0.142578, -0.046984, 0.061871, 0.159283, 0.097572, 0.005158, 0.103255, 0.096076, -0.154597, -0.143753, -0.071700, -0.014179, 0.160850, 0.042132, -0.142839, -0.097832, -0.191426, 0.022490, 0.116852, 0.074140, -0.031279, 0.023063, 0.179646, 0.222251, -0.164730, 0.185743, 0.165809, -0.091645, -0.105156, -0.153504, 0.118377, -0.070558, -0.166713, -0.003262, 0.062159, 0.145154, -0.204964, 0.045474, 0.057876, -0.079340, 0.028577, -0.181143, -0.036417, -0.006850, 0.060760, 0.170527, -0.042093, -0.136840, -0.149907, 0.192797, 0.205107, -0.117391, 0.191321, -0.197756, -0.165353, -0.217185, -0.122895, 0.127852, -0.009101, -0.112216, -0.069132, 0.064376, -0.164083, -0.220320, -0.123086, -0.105118, 0.054267, 0.121607, 0.057837, -0.014085, 0.128488, -0.026508, -0.192377, -0.023540, 0.104206, -0.103874, -0.103297, 0.113797, 0.096612, 0.090280, 0.124578, -0.057899, -0.001621, 0.042284, -0.056686, 0.124762, 0.036947, -0.018384, 0.077363, 0.023782, -0.001725, 0.102306, 0.080033, 0.111729, 0.025102, 0.138999, 0.196931, -0.018494, 0.060449, 0.043834, 0.186740, 0.184289, -0.109925, 0.118556, -0.071063, 0.196558, 0.051247, -0.147943, -0.121087, -0.053758, -0.096959, 0.080049, 0.063446, -0.082011, -0.057506, 0.034480, 0.050490, 0.003237, 0.094736, 0.144858, 0.068531, -0.073067, -0.030101, -0.046716, 0.060439, -0.058629, 0.010187, 0.007766, 0.003429, 0.050543, -0.048751, -0.045680, -0.111594, -0.045148, -0.053188, -0.017416, 0.002853, 0.127741, 0.033685, -0.111446, -0.031985, 0.140199, 0.058433, 0.039690, 0.135325, -0.042147, 0.041506, 0.215867, -0.024498, -0.092415, -0.023848, 0.060462, 0.027264, 0.010179, -0.044175, 0.143208, 0.108399, 0.006494, -0.062153, -0.029902, 0.234414, -0.005622, 0.013414, -0.028444, 0.079594, 0.005453, 0.033522, 0.111245, -0.012203, -0.029156, 0.114652, -0.094762, -0.126203, 0.102821, 0.035496, 0.019036, 0.161109, -0.097310, -0.118355, 0.047606, 0.036424, 0.099804, 0.084181, 0.022273, -0.027453, -0.067418, -0.043464, -0.003147, 0.089344, 0.003632, 0.185108, 0.123911, 0.083895, 0.004903, 0.133939, -0.019084, -0.056118, -0.038390, 0.148326, -0.050654, 0.108884, 0.020759, 0.028847, 0.184548, 0.015123, -0.013029, -0.064119, 0.001902, 0.048786, -0.062332, -0.121746, -0.088248, -0.140996, 0.128601, -0.004304, 0.015093, -0.122540, 0.150162, 0.162319, -0.056328, -0.036110, -0.141051, 0.100659, -0.004235, -0.038144, -0.017674, 0.154389, 0.067501, -0.115291, 0.043978, 0.156249, -0.086790, 0.080152, -0.119778, 0.102034, 0.195462, 0.001543, 0.065752, 0.082367, -0.119685, -0.092014, 0.091561, 0.109079, -0.114434, 0.143872, -0.104447, -0.102684, -0.082668, -0.091071, -0.112134, -0.010091, 0.054317, -0.014829, 0.033516, -0.131159, -0.039557, -0.133115, -0.131083, 0.113064, -0.007696, 0.017112, 0.103503, 0.067622, 0.135669, -0.035029, -0.051092, -0.065885, -0.233001, -0.085157, 0.187061, -0.022541, 0.147356, 0.109713, 0.022911, -0.042780, 0.092931, 0.106210, -0.062907, -0.090246, -0.161098, 0.019961, -0.060187, -0.139511, 0.117786, 0.086017, 0.023871, -0.090369, 0.105165, 0.221588, 0.121001, -0.028788, -0.084357, 0.088958, -0.126910, -0.162059, 0.071264, -0.085746, 0.108082, 0.095835, -0.095569, -0.089648, -0.080544, 0.138910, 0.027112, 0.107121, -0.147843, 0.010499, -0.005795, -0.023135, 0.212740, 0.083133, 0.014215, 0.113946, -0.048945, -0.101235, 0.028266, 0.122380, -0.063974, 0.150720, 0.204208, 0.093123, 0.079844, -0.091342, -0.133880, -0.006119, 0.128645, 0.087644, -0.181595, 0.093477, 0.122147, -0.013991, 0.029512, -0.074416, 0.048606, 0.068616, 0.086682, 0.103287, -0.058088, -0.005435, 0.023628, -0.002193, -0.023589, -0.046362, -0.114162, 0.012222, -0.000663, -0.082948, 0.088896, -0.020062, 0.060111, -0.022792, 0.077582, 0.114030, 0.184121, 0.002460, -0.063990, 0.131646, -0.000149, -0.058889, 0.006427, 0.025794, 0.067466, 0.117427, -0.114775, -0.011869, 0.000645, 0.054321, 0.035639, 0.044423, -0.098706, -0.018855, -0.023570, 0.004409, 0.053126, 0.022194, 0.076455, 0.042702, 0.005924, -0.037441, -0.024915, -0.055022, 0.007063, -0.015648, 0.060874, 0.032870, -0.054062, -0.119522, -0.016760, -0.020706, -0.018310, 0.053601, -0.009110, 0.002678, 0.014214, -0.013356, 0.116596, 0.142151, -0.083391, -0.066752, -0.089806, 0.056721, 0.139451, -0.055333, -0.091693, -0.005815, -0.096191, -0.019574, 0.123773, -0.031357, 0.186643, 0.255630, -0.103345, -0.085249, -0.093543, 0.079992, -0.053588, -0.115048, -0.023746, 0.182401, 0.235177, -0.026635, 0.035154, 0.112802, -0.059518, -0.091967, -0.079063, 0.055099, 0.029693, 0.152791, -0.080547, -0.153569, -0.014289, -0.029894, 0.257847, 0.260143, -0.154162, 0.181352, -0.024485, 0.023286, -0.089632, -0.119872, -0.012792, -0.045226, -0.056693, -0.150658, 0.075405, -0.082945, -0.055380, -0.090047, -0.023942, -0.081110, 0.229790, 0.094786, 0.096973, 0.044462, 0.087046, -0.005063, -0.132406, 0.047248, 0.094180, 0.049023, -0.000377, -0.029779, 0.001877, -0.052101, 0.096646, -0.063011, -0.043358, -0.047845, 0.021490, 0.210379, 0.144119, 0.035221, 0.153200, 0.039639, -0.184913, -0.194743, -0.033598, -0.039671, 0.030738, -0.106555, 0.084151, 0.084648, 0.115644, -0.089778, 0.013449, -0.002972, -0.098799, -0.115660, -0.119550, 0.096281, 0.139770, 0.033904, -0.022262, 0.168011, -0.124407, -0.075187, 0.086509, 0.047395, -0.015615, 0.057636, -0.165668, -0.068484, -0.190759, -0.141658, 0.079301, 0.091797, 0.018158, -0.092832, 0.041116, -0.087859, -0.014689, -0.045154, 0.012278, -0.046915, 0.136229, -0.063407, -0.097351, 0.038177, -0.055031, -0.073280, -0.011305, 0.005845, -0.088012, -0.169014, -0.075878, 0.119481, 0.142340, 0.127913, 0.087952, -0.043257, 0.184305, -0.015647, -0.018249, -0.033276, -0.154823, 0.064563, -0.155864, -0.075513, -0.001617, 0.120819, 0.028587, -0.023788, -0.007067, 0.133414, -0.021627, -0.189021, -0.055267, 0.034099, -0.129059, -0.185809, -0.032921, 0.115660, 0.209026, 0.029265, -0.216862, -0.055986, -0.154890, -0.082619, 0.178809, 0.201856, -0.082091, -0.028990, 0.100200, -0.114835, 0.165001, 0.102457, 0.048663, 0.158256, -0.081584, -0.012646, 0.005604, -0.024227, 0.015127, 0.162621, 0.098506, 0.168205, 0.124847, 0.125371, 0.032766, -0.133198, -0.067401, -0.031840, -0.034412, 0.040052, 0.067570, -0.045451, -0.049431, -0.201912, -0.039088, -0.038460, 0.141601, 0.008734, -0.000287, -0.017522, 0.002932, 0.010992, -0.106817, -0.030876, -0.158179, 0.102159, -0.068205, -0.105134, 0.114059, 0.123290, 0.026808, -0.069919, 0.059273, 0.017928, 0.173889, -0.045559, -0.095740, 0.082612, -0.081169, -0.098175, -0.066474, 0.067086, 0.135457, -0.070386, -0.046011, -0.048589, -0.176820, 0.104083, -0.006164, 0.072818, -0.184985, -0.029731, -0.016974, -0.073515, 0.052070, -0.008021, -0.051159, -0.043468, -0.086728, 0.016140, -0.066179, 0.107225, -0.017448, 0.210759, 0.142400, 0.064381, 0.063474, -0.073227, -0.196040, -0.125500, 0.006585, -0.046075, -0.065491, 0.057086, 0.142459, 0.124577, -0.041628, -0.115532, 0.101070, 0.111635, 0.066275, 0.201627, -0.070381, -0.022364, 0.058174, 0.041662, 0.081952, -0.132082, -0.101988, -0.032723, -0.003735, -0.073508, 0.102545, 0.107725, 0.231244, -0.075188, 0.092332, 0.193264, 0.029409, 0.008434, -0.057037, 0.192502, 0.035378, -0.055518, 0.073296, -0.085890, 0.136816, 0.072353, -0.047165, -0.104352, -0.005408, -0.056164, 0.020054, 0.048616, -0.153739, -0.113093, -0.109763, -0.118220, -0.028585, 0.015209, -0.064354, 0.098991, 0.020227, 0.027217, -0.100498, -0.013700, -0.017147, 0.066634, 0.134273, 0.081927, 0.084419, -0.132139, -0.086570, -0.065064, 0.116269, -0.049397, -0.031559, 0.026997, 0.042130, 0.037123, 0.045320, -0.071745, -0.031273, -0.072115, 0.111522, -0.054009, -0.079926, 0.083077, -0.023205, 0.139080, -0.005968, -0.049712, 0.132474, -0.050611, -0.029850, 0.022376, 0.044029, -0.108658, -0.007826, -0.125061, -0.019881, 0.092613, 0.097261, -0.004664, -0.049217, -0.040229, -0.023603, 0.117578, -0.041792, 0.043132, -0.093507, -0.081807, 0.076721, 0.035896, 0.048407, 0.128681, -0.100820, -0.098694, -0.056912, 0.047436, 0.120731, 0.073503, 0.113282, -0.115657, -0.062611, -0.060120, 0.060867, -0.002259, 0.020303, -0.037966, 0.061898, -0.060691, 0.045425, -0.058474, -0.038811, 0.006288, -0.005677, -0.031176, 0.102594, 0.065938, 0.020517, 0.017137, 0.112567, 0.015698, -0.022968, 0.100204, -0.080545, 0.092068, -0.108405, 0.051378, 0.133599, -0.044961, -0.095799, 0.008713, 0.044286, 0.079337, 0.195001, -0.084632, 0.181999, 0.150217, -0.069128, -0.139808, -0.144984, 0.014921, -0.003790, -0.209216, -0.127921, 0.227196, 0.189817, -0.112240, 0.098175, 0.101346, -0.140086, 0.135269, -0.161370, -0.012072, 0.087672, 0.184142, 0.118032, 0.039394, 0.037424, -0.111506, 0.069826, 0.113564, 0.042540, 0.029401, -0.022686, -0.037151, -0.047113, -0.062937, 0.178295, 0.082270, 0.116997, -0.134290, -0.006376, -0.210663, -0.176205, -0.102552, -0.129081, 0.129805, 0.145156, 0.212648, -0.091405, -0.071338, 0.174852, -0.070887, -0.156855, 0.016328, -0.088764, -0.146081, 0.077969, -0.073664, 0.093911, 0.001097, 0.032311, -0.033881, 0.015467, -0.033169, -0.002895, -0.033640, -0.036938, -0.056434, -0.018608, -0.132113, 0.084343, -0.033432, 0.046371, -0.066542, 0.089652, 0.046182, 0.141193, -0.019702, -0.104733, 0.186209, -0.070905, -0.066129, -0.110927, 0.077776, 0.050313, 0.051630, -0.041969, -0.042861, -0.072498, 0.014226, -0.011937, -0.073249, -0.092450, 0.039319, -0.072507, 0.030227, 0.160968, 0.092001, -0.104879, 0.112699, -0.024272, -0.014304, -0.082257, -0.025107, 0.063872, -0.044455, 0.156367, 0.044219, 0.080385, -0.106109, -0.021823, -0.011880, 0.065893, -0.092838, -0.033639, 0.023511, -0.030823, -0.087868, -0.027828, -0.153689, 0.095587, 0.118260, -0.000003, 0.042011, -0.091645, -0.060833, 0.019685, 0.155643, -0.055722, 0.012758, -0.110668, 0.044690, -0.000566, -0.019797, 0.136455, 0.083398, 0.092930, -0.089287, 0.104608, 0.073202, 0.066838, -0.030141, -0.139263, -0.032757, 0.090941, -0.090546, 0.125796, -0.038069, -0.010417, -0.000047, -0.111198, -0.069802, 0.037985, 0.086339, 0.167427, -0.017313, -0.090763, 0.040744, 0.160287, -0.033780, 0.017394, 0.034602, 0.142679, -0.015152, -0.047760, 0.061918, -0.128193, 0.099310, -0.047135, 0.182586, 0.126471, 0.061251, 0.055370, -0.087447, -0.011972, 0.026291, 0.139826, -0.039295, -0.104914, -0.010880, 0.148983, -0.031963, -0.071932, -0.176006, 0.069234, 0.051734, 0.168152, 0.140145, -0.057483, 0.064101, 0.154749, 0.140632, 0.067779, -0.155973, -0.109788, 0.043366, -0.175222, -0.029877, 0.079621, 0.013053, 0.006322, -0.101580, 0.022758, 0.053582, 0.059564, -0.023546, -0.083887, 0.012170, -0.010048, -0.072343, 0.106233, 0.018842, 0.071682, -0.123496, -0.073311, 0.033927, -0.075851, 0.010884, 0.094237, 0.130503, -0.054423, 0.015091, -0.007739, -0.097026, 0.027335, 0.110243, 0.105281, 0.111536, -0.002259, -0.001081, 0.105756, 0.087669, -0.054932, 0.216589, 0.085364, 0.096930, 0.055710, -0.063842, -0.029566, -0.074760, 0.072049, 0.045641, -0.104604, 0.131302, 0.105812, -0.065706, -0.114117, -0.246402, 0.158674, 0.041125, -0.017013, 0.148581, 0.086966, 0.001416, 0.015147, 0.010058, -0.040687, -0.191845, -0.215013, 0.111710, -0.118913, -0.169886, 0.082456, 0.103386, 0.100086, -0.087601, 0.012613, 0.151797, 0.058753, -0.037706, -0.096202, 0.193261, -0.215792, -0.165738, 0.112971, 0.026852, 0.135134, 0.059495, -0.125782, -0.060846, -0.038574, 0.176678, 0.086390, 0.070161, -0.209894, -0.054537, 0.085572, -0.135349, 0.139321, 0.114381, 0.171774, 0.201219, -0.076088, -0.040648, 0.088588, 0.058201, -0.081390, 0.035587, 0.051966, 0.086826, -0.010978, -0.062620, -0.124653, -0.060238, 0.084751, -0.035702, -0.037222, 0.107811, 0.024393, 0.075730, -0.028943, -0.185792, 0.068795, 0.049472, 0.047276, 0.103770, -0.003828, 0.029860, 0.005232, -0.031482, -0.027945, -0.086979, -0.067516, 0.096304, -0.056655, -0.124784, 0.050360, 0.049881, 0.086375, -0.093391, -0.047825, 0.147598, 0.149477, 0.000477, -0.098424, 0.161356, -0.157212, -0.075791, 0.053770, -0.053779, 0.031347, 0.009420, -0.134312, -0.066313, 0.052376, 0.132568, 0.069844, 0.003472, -0.127827, -0.056105, 0.030001, -0.071295, 0.179512, 0.023675, 0.151022, 0.061487, -0.008659, 0.115440, 0.031586, 0.061951, -0.037859, 0.024301, 0.064479, 0.057161, -0.041490, 0.007002, -0.030284, -0.032427, 0.106868, 0.034480, 0.006520, 0.042858, 0.054839, -0.029245, 0.071669, 0.015676, 0.147306, -0.012459, 0.048825, 0.043734, -0.046794, 0.029077, -0.148699, -0.166878, 0.039080, -0.087674, -0.006517, -0.027200, -0.158390, -0.159066, 0.045538, -0.031587, -0.072996, 0.084480, -0.019786, -0.024976, 0.061078, 0.111996, -0.075372, 0.150988, -0.012458, -0.046563, 0.063809, 0.020790, 0.077962, 0.072788, 0.003675, 0.007674, 0.149073, -0.106261, 0.033781, -0.002892, -0.006020, -0.254973, 0.088824, 0.032847, -0.008956, 0.033167, 0.130636, 0.095156, 0.082677, 0.070274, 0.168370, 0.132627, -0.093320, 0.017140, -0.049232, 0.078018, -0.017694, -0.056033, -0.038749, 0.071476, 0.062128, -0.090208, 0.092419, 0.059653, 0.022036, -0.025287, -0.105934, -0.198734, 0.012419, 0.078438, 0.067768, 0.090386, 0.094515, -0.034788, 0.190399, 0.152103, 0.015541, 0.095204, -0.106759, 0.150558, -0.165925, -0.186095, -0.007455, 0.021647, 0.119407, -0.052276, -0.096006, 0.072890, -0.079876, -0.174672, -0.166015, 0.117700, -0.056546, -0.081000, 0.036688, 0.024751, 0.139415, 0.011780, -0.130264, -0.052425, -0.011474, -0.041536, 0.100996, 0.153562, 0.011914, -0.134956, 0.030354, -0.107765, 0.057909, 0.080426, 0.057418, 0.022785, -0.089448, 0.133339, 0.046243, 0.061720, 0.111385, 0.188446, 0.140129, 0.162738, -0.068681, -0.044811, -0.017243, -0.103726, 0.014701, -0.105618, -0.090750, 0.154036, 0.116877, -0.097910, -0.013340, 0.152156, 0.047156, 0.079923, 0.087516, -0.045790, -0.085942, 0.122045, 0.036506, -0.081096, -0.068846, 0.051402, 0.130886, -0.112244, 0.079754, 0.097598, -0.010355, -0.049987, -0.089998, 0.115909, 0.074084, 0.029260, 0.065729, -0.055824, 0.198934, 0.040168, 0.040514, 0.143019, 0.054605, -0.054501, -0.051428, 0.013381, 0.123589, 0.124815, 0.060628, -0.003229, -0.001325, 0.035904, 0.114989, 0.109414, -0.067710, 0.079510, 0.025114, -0.144329, 0.055433, -0.074466, 0.141024, 0.014774, -0.003113, -0.037602, -0.001404, -0.024300, -0.015400, 0.037224, -0.152289, -0.057869, 0.075628, -0.053632, -0.085018, -0.101655, 0.057900, -0.119503, 0.063819, 0.085805, -0.004427, -0.149706, 0.056893, 0.012913, 0.007767, 0.103742, -0.033406, -0.049405, 0.006424, 0.074114, -0.027319, -0.002866, -0.026920, 0.017077, 0.005942, -0.069534, 0.102088, 0.016229, 0.030927, -0.117594, 0.061491, 0.071443, 0.095322, -0.014886, -0.109576, 0.160982, -0.005979, -0.004890, -0.020817, 0.015350, 0.093616, 0.054090, -0.051563, -0.040364, 0.015783, 0.175003, 0.109946, -0.109425, -0.102436, 0.002861, 0.024527, -0.018123, 0.141936, 0.035695, 0.037580, 0.049929, 0.014731, 0.118863, -0.167279, -0.035814, -0.002150, 0.005165, 0.055821, 0.022216, 0.005779, -0.084316, 0.038834, -0.025686, 0.066697, -0.050529, 0.019223, 0.049385, 0.072068, -0.044991, -0.080904, -0.165077, 0.039818, 0.009152, 0.078929, 0.134779, 0.066337, -0.079222, -0.018952, 0.053327, 0.036282, -0.120101, -0.077729, 0.039929, -0.099649, -0.075326, 0.119775, 0.041867, -0.047082, -0.021404, 0.021715, 0.154066, 0.005505, -0.031409, -0.074409, 0.149567, -0.042595, -0.080268, 0.059886, 0.065052, 0.093251, -0.000051, -0.018197, -0.056213, -0.139615, 0.038260, 0.065345, 0.017747, -0.105728, -0.098815, 0.134243, -0.035256, 0.105460, 0.097255, 0.142802, 0.133383, -0.085807, -0.075964, 0.028463, -0.005766, 0.069563, -0.059766, -0.004142, 0.073474, 0.028578, 0.019369, -0.103708, -0.035788, 0.080872, -0.075094, 0.018515, 0.057098, 0.041340, 0.100930, -0.138680, -0.171882, 0.040759, 0.116678, 0.092046, 0.135200, 0.093949, -0.056256, 0.134015, -0.081733, -0.073142, 0.049852, -0.156982, 0.149998, -0.021541, -0.112415, -0.016826, 0.104403, -0.046455, -0.125166, -0.007933, 0.225121, 0.087899, -0.040367, 0.044801, -0.005702, -0.162886, -0.128344, -0.062413, -0.023160, 0.049441, 0.065278, -0.132703, -0.164810, -0.104370, -0.076355, 0.131662, 0.099482, -0.083576, -0.093355, -0.012523, -0.109497, 0.146800, 0.144591, -0.004492, 0.104286, -0.092363, 0.108128, 0.085899, 0.051048, -0.004320, 0.238004, 0.036870, 0.102202, 0.112917, 0.123177, -0.035599, -0.121159, -0.053620, -0.009456, -0.088322, 0.132909, 0.005282, 0.003698, -0.076793, -0.073032, 0.032255, 0.046006, -0.003824, 0.157921, -0.072970, -0.037616, 0.010883, -0.089972, -0.050524, -0.023417, -0.124853, 0.067649, -0.032961, -0.096133, -0.092418, 0.065225, 0.068406, -0.003452, 0.078793, 0.125864, -0.035273, -0.021063, -0.014986, -0.059473, 0.088677, -0.014101, -0.010445, -0.041564, 0.080145, -0.087397, -0.015083, -0.157657, -0.102431, -0.130321, 0.053578, 0.012960, -0.118727, -0.129840, -0.036773, 0.019807, 0.125919, 0.026848, 0.105092, 0.128405, -0.016772, 0.051802, 0.133894, 0.077502, 0.125384, 0.113903, 0.072980, -0.009521, 0.007008, -0.023554, -0.068887, -0.090156, -0.089612, 0.030814, -0.023515, 0.138588, 0.166686, 0.145672, -0.043302, -0.227305, 0.122207, 0.069349, 0.123137, 0.149123, 0.001202, -0.002524, 0.044087, 0.009021, 0.010387, -0.156956, -0.209983, 0.067805, -0.092776, -0.175285, 0.083560, 0.033571, 0.090933, -0.052700, -0.017782, 0.148747, 0.130139, -0.062356, -0.073663, 0.217888, -0.046548, -0.090466, 0.114794, 0.009404, 0.086219, 0.053168, -0.103695, -0.131594, -0.023633, -0.129608, 0.083744, 0.109083, -0.131968, -0.163706, -0.016035, -0.084924, 0.112793, 0.142480, 0.258397, 0.166352, -0.011385, 0.014634, 0.132152, 0.015890, 0.056437, -0.001358, -0.007630, 0.112744, -0.020979, -0.142416, -0.138348, -0.058274, -0.035294, -0.077979, 0.013993, 0.068309, 0.065410, 0.127013, 0.089315, 0.096403, -0.071414, -0.138682, -0.020702, -0.077600, 0.049484, -0.072718, -0.064794, -0.050578, 0.065404, 0.081335, 0.246809, 0.038589, 0.136805, 0.141117, -0.193438, 0.005763, 0.064012, 0.007601, 0.069052, -0.112966, -0.019582, -0.086271, 0.037979, -0.107064, -0.031699, 0.176078, -0.077808, -0.036211, -0.069838, 0.037722, 0.034196, 0.035988, 0.115637, -0.101218, -0.036052, -0.157785, 0.190466, 0.157005, -0.074615, 0.151485, -0.137233, -0.060267, -0.129443, -0.107658, 0.118005, 0.067194, -0.110581, 0.050024, 0.103497, -0.092372, -0.152001, -0.055668, -0.064932, 0.103557, 0.052512, 0.091099, 0.035106, -0.030458, 0.077690, -0.106451, -0.020413, -0.021948, 0.005430, -0.132390, -0.059549, 0.013618, 0.057251, 0.064863, -0.060694, 0.090961, 0.067743, 0.103940, -0.026447, -0.024893, 0.106419, 0.039013, -0.051066, -0.019691, 0.058070, 0.005970, 0.096442, -0.135496, -0.101612, 0.079392, 0.115516, 0.020278, -0.049100, 0.031788, -0.084276, 0.045158, 0.000606, -0.051954, 0.034054, 0.022240, -0.058311, 0.020898, 0.117853, 0.028281, -0.030611, -0.017710, -0.069126, -0.066298, -0.040200, -0.045002, -0.058880, -0.088470, 0.056206, -0.028473, 0.051047, 0.117513, -0.083461, 0.003741, -0.049331, 0.018649, 0.091412, 0.057186, 0.045940, 0.042721, 0.029803, -0.078098, 0.061916, 0.110686, -0.023055, -0.053638, 0.192337, -0.092040, -0.138172, -0.095770, -0.153744, 0.168806, -0.021062, 0.096108, 0.074674, 0.131240, 0.129630, 0.193023, 0.131324, -0.130113, -0.229622, 0.085728, -0.139270, -0.074658, 0.037942, 0.095148, 0.138420, -0.062135, -0.043650, 0.075479, 0.068403, -0.024926, -0.127098, -0.050604, -0.062607, -0.058520, 0.126498, -0.048448, 0.203350, 0.055859, -0.135293, -0.050538, -0.097569, -0.021162, 0.007733, 0.237208, -0.120354, -0.118722, -0.011074, -0.134535, 0.135839, 0.057019, 0.207482, 0.019203, -0.014500, -0.107351, 0.037080, 0.018891, -0.026192, 0.024674, 0.089987, 0.129231, 0.066695, -0.045035, -0.116359, -0.205646, -0.069625, -0.075746, -0.065541, 0.099672, 0.071694, 0.014542, -0.133368, -0.034752, -0.055771, -0.057274, -0.008391, -0.029360, 0.081606, -0.117543, 0.045356, 0.091367, -0.073160, 0.026094, 0.016945, 0.028990, -0.033030, -0.070569, 0.028943, -0.036954, -0.061010, 0.005099, -0.032730, 0.034085, -0.032952, -0.110170, -0.129979, 0.133773, -0.016004, -0.120352, 0.063660, 0.079103, 0.130708, 0.081192, 0.047634, -0.005064, 0.090022, -0.023512, -0.038331, -0.025125, -0.051543, -0.002500, -0.043995, 0.030966, 0.093816, -0.041175, 0.123644, -0.012546, -0.031573, -0.013863, -0.003929, -0.038609, 0.096267, -0.059670, 0.185577, -0.012672, -0.028484, -0.013116, 0.008638, -0.027539, -0.000964, 0.074601, -0.056160, 0.016675, -0.012765, -0.024589, 0.049380, -0.042423, 0.099284, 0.003155, 0.025925, 0.068227, 0.041973, -0.066963, 0.040993, 0.025818, 0.068109, 0.004449, -0.037529, 0.017250, 0.017049, -0.049068, 0.044712, -0.075476, -0.009105, 0.020872, -0.014908, -0.041480, 0.095136, 0.124784, -0.028532, 0.108507, -0.026632, 0.034207, 0.049365, -0.000269, -0.012589, 0.006119, 0.037935, 0.072184, -0.046912, 0.038323, 0.055987, -0.088947, -0.046027, 0.032899, -0.049695, 0.023987, 0.042213, -0.027618, -0.010127, -0.019093, -0.006504, 0.108879, 0.060214, -0.003847, -0.047006, -0.078644, -0.017033, -0.007907, 0.003104, -0.004510, 0.016444, 0.045769, -0.027162, 0.076742, 0.070865, 0.003371, 0.060042, 0.054540, -0.020127, -0.138173, 0.143817, 0.007149, 0.112354, 0.085147, 0.037532, -0.060977, 0.092963, -0.022615, 0.095225, -0.041151, 0.018480, 0.144419, -0.111649, -0.089346, 0.145301, 0.020447, 0.140438, -0.073729, -0.052352, 0.118230, -0.031664, -0.004226, 0.030899, 0.127989, 0.036595, -0.057767, 0.071098, -0.041983, -0.045815, -0.115437, 0.001638, -0.061184, -0.039734, -0.132911, -0.099421, 0.027981, -0.058001, -0.067618, 0.070797, 0.004361, 0.074992, 0.083686, 0.167531, 0.028018, -0.062119, 0.027753, 0.084801, 0.046337, 0.024115, 0.080266, -0.048290, 0.062687, -0.043529, -0.022808, -0.107527, -0.035478, 0.064127, -0.007016, -0.041971, 0.101738, 0.131992, 0.109425, 0.077826, 0.073984, 0.158566, 0.016648, 0.043143, -0.119288, -0.065625, -0.054750, -0.107694, -0.043247, 0.074068, 0.023965, 0.151182, 0.000218, 0.120545, 0.142188, 0.011811, 0.013593, 0.036684, 0.147634, 0.095487, -0.121281, -0.079310, 0.102016, 0.068847, -0.062306, -0.044674, 0.149672, -0.007545, 0.000079, -0.043588, 0.007728, 0.166310, 0.089308, 0.130760, -0.082583, 0.042872, 0.021592, 0.184760, 0.011771, 0.053256, 0.126699, -0.081215, -0.042847, 0.044581, -0.056280, 0.172088, -0.029967, -0.047314, 0.031349, 0.082929, 0.009322, -0.013573, -0.030033, -0.121513, 0.099490, 0.055540, 0.008374, 0.056073, -0.041732, 0.004225, -0.024500, 0.061019, 0.036016, 0.208942, 0.066069, -0.134086, -0.101363, -0.170468, -0.084942, 0.120325, 0.097373, 0.021611, -0.026929, -0.087310, 0.207126, 0.021711, -0.061527, 0.182624, 0.148932, -0.083157, -0.013080, -0.016938, 0.038220, 0.021236, 0.019809, 0.007902, 0.164546, 0.139227, 0.009557, 0.039142, 0.012639, -0.228062, -0.024315, -0.108086, -0.095585, 0.028070, 0.242791, 0.024912, -0.135433, -0.129997, -0.068049, 0.221132, 0.061072, -0.035815, 0.222036, 0.037298, -0.040344, -0.106827, 0.004064, 0.062223, -0.036862, -0.122549, -0.170467, -0.015532, -0.109522, -0.066322, -0.100385, -0.100758, -0.099784, 0.181807, 0.044592, 0.057667, 0.043620, 0.217136, -0.043174, -0.195409, -0.094037, 0.070975, -0.013483, 0.016077, 0.027062, 0.077151, -0.017645, -0.017300, -0.071146, -0.042635, 0.055264, 0.046185, 0.041039, -0.006119, 0.107588, -0.027909, -0.050811, 0.004154, -0.045627, 0.101802, -0.060579, 0.060042, -0.041799, 0.078379, 0.010872, -0.033797, 0.216271, 0.056763, -0.052631, 0.045628, -0.075647, 0.020005, 0.022867, -0.027538, -0.008911, -0.064774, 0.035418, -0.003822, -0.025893, 0.000570, 0.010538, 0.009308, 0.036509, 0.099766, 0.047502, 0.133078, 0.094666, 0.003760, 0.101530, 0.050754, -0.063427, 0.026221, 0.101762, 0.039567, 0.031072, -0.057085, -0.068511, 0.057296, -0.048053, -0.038624, 0.066293, -0.012371, 0.086975, 0.010325, -0.019417, -0.077918, -0.008340, -0.209913, -0.015415, -0.097659, -0.086409, -0.072721, 0.040427, 0.036628, 0.037216, 0.080301, 0.040085, 0.014193, 0.034249, -0.060912, -0.096615, 0.124185, -0.034369, 0.180131, -0.074739, 0.021925, -0.050077, 0.156944, -0.015512, -0.100791, 0.026388, 0.134854, 0.005096, -0.013590, -0.006060, 0.096193, 0.097293, -0.068363, -0.035707, -0.034402, -0.053874, 0.093406, -0.011484, -0.025906, -0.008845, -0.008201, 0.016305, 0.120437, -0.024549, 0.004843, 0.062069, -0.080942, -0.004000, -0.006978, -0.050814, 0.111287, 0.035972, -0.065847, 0.089183, 0.125324, 0.017592, 0.005282, -0.115320, 0.003422, -0.083834, -0.030949, -0.094658, 0.066651, -0.100143, 0.093964, 0.229360, -0.062001, -0.029871, 0.005068, -0.090704, 0.058830, 0.084500, -0.054062, 0.025389, -0.043440, 0.103955, 0.246813, -0.037883, 0.061802, 0.057809, 0.004083, 0.005833, -0.082185, 0.168406, 0.076791, -0.051120, -0.049217, -0.020124, 0.155195, -0.091760, 0.083989, 0.173550, -0.051868, -0.027018, -0.062112, 0.035206, 0.150824, 0.203670, 0.157699, -0.082136, -0.016655, -0.048044, 0.185756, -0.135126, -0.116091, 0.069613, -0.142025, -0.082564, -0.124806, -0.026220, 0.175598, -0.037261, -0.086192, 0.009557, 0.026634, -0.052246, -0.073861, 0.008954, -0.141047, 0.030695, 0.149265, 0.133370, -0.099818, -0.057647, 0.110315, -0.074687, -0.056395, -0.013910, 0.118923, 0.153587, 0.018053, -0.077676, -0.111484, -0.030007, 0.055108, 0.038034, -0.049131, -0.102795, 0.097715, 0.114242, 0.205790, -0.056619, 0.054669, 0.053146, -0.134032, -0.132453, -0.102552, 0.108126, -0.016895, -0.147806, -0.049681, -0.021837, 0.066290, 0.017738, 0.071463, 0.121137, -0.013909, 0.002482, -0.096820, 0.024618, 0.058888, 0.055485, 0.032139, 0.105663, -0.117111, -0.228069, -0.103377, 0.148521, -0.128102, 0.106941, -0.038749, -0.103033, -0.073114, -0.192514, 0.194392, 0.080837, -0.007276, 0.089154, 0.042097, -0.067472, -0.086133, -0.115350, -0.062064, 0.064927, -0.027889, -0.003869, 0.059956, -0.086585, 0.171773, 0.005750, -0.115227, 0.036651, -0.118526, -0.114313, 0.030126, 0.153479, 0.027193, 0.049746, -0.000610, 0.106822, -0.051049, 0.127758, 0.052264, -0.023851, -0.025673, 0.101302, -0.041479, -0.052081, 0.122852, 0.079856, 0.066498, -0.064774, -0.029195, 0.210482, 0.015068, -0.009719, -0.005256, 0.169163, 0.031009, -0.024058, 0.138233, -0.085744, 0.196408, 0.127443, -0.130583, -0.096269, -0.053266, 0.042825, 0.106961, 0.170808, -0.034930, -0.068430, 0.138310, -0.066224, 0.140449, 0.125619, 0.082299, 0.151376, -0.112304, 0.029961, -0.065370, 0.119767, -0.126944, 0.130928, 0.070194, 0.128346, 0.169294, 0.163655, -0.018896, -0.107488, -0.065550, 0.040380, -0.016213, 0.131736, 0.057718, -0.055813, 0.074934, 0.078995, -0.040882, -0.117348, -0.154807, -0.047300, 0.034850, -0.070470, -0.129703, -0.060419, -0.047927, 0.156289, 0.113682, 0.037376, -0.043883, -0.059771, 0.018524, -0.034480, -0.149362, 0.155347, 0.072679, -0.118119, -0.163844, 0.081373, 0.108252, -0.104575, 0.019373, 0.153916, -0.138410, 0.084642, -0.011281, 0.154615, 0.038847, -0.010846, 0.016512, -0.073162, 0.048874, -0.031297, 0.060807, 0.217163, -0.081069, 0.079458, -0.155318, -0.117635, 0.060438, -0.157727, 0.183519, -0.024339, 0.006152, -0.075740, -0.022317, -0.128603, -0.070079, -0.021971, 0.022466, 0.026240, 0.107371, 0.155304, 0.057164, -0.062528, 0.220735, -0.023624, 0.030043, 0.045498, -0.065943, -0.128476, 0.145845, -0.033379, 0.025132, 0.083824, 0.022568, 0.076263, 0.107081, 0.151414, -0.059827, 0.007849, -0.013537, -0.022122, -0.097534, -0.111092, -0.056126, -0.042949, -0.030520, -0.066895, -0.105501, 0.135025, 0.100985, -0.000237, -0.068859, -0.041895, -0.090185, 0.040031, -0.045237, 0.048505, -0.097099, -0.009363, -0.007098, -0.076856, 0.065173, -0.092573, -0.030452, -0.071607, -0.011345, -0.067722, -0.113617, 0.011367, 0.083908, 0.026132, 0.021861, 0.019778, 0.024938, 0.028435, 0.068740, 0.008362, 0.120700, -0.042144, 0.088825, 0.045968, -0.002245, -0.045709, -0.064357, -0.026830, 0.052178, -0.028256, -0.066038, -0.009255, 0.089366, -0.047916, 0.166142, 0.092466, 0.000737, 0.019871, -0.132518, -0.043689, -0.014047, 0.072036, -0.048969, 0.023695, 0.008366, 0.136537, 0.128079, -0.057707, 0.123170, 0.070878, -0.108263, -0.080701, -0.062179, 0.006407, 0.087444, 0.064082, -0.133068, -0.095051, 0.088405, 0.076952, -0.101257, 0.251356, -0.024292, 0.047950, -0.095693, -0.029547, 0.120488, 0.148438, 0.169851, -0.125818, -0.065391, 0.012326, 0.188475, -0.082798, -0.008634, 0.164022, -0.031151, 0.025946, -0.084513, -0.034505, 0.009156, -0.083747, 0.080340, 0.001541, -0.014699, 0.023604, -0.063804, 0.016038, -0.031439, -0.085811, 0.066162, -0.076854, 0.015671, 0.049556, 0.096092, -0.028976, -0.062307, -0.072239, -0.035110, -0.139855, 0.034304, 0.104985, 0.049776, 0.102951, 0.113051, -0.018038, 0.203366, 0.187625, 0.078830, 0.052542, -0.128198, 0.071608, -0.163904, -0.089056, 0.152135, 0.047469, 0.071270, -0.105227, -0.089949, -0.019705, 0.142415, -0.020057, -0.008062, 0.130781, 0.064209, -0.017578, 0.187106, 0.116186, -0.079527, 0.097044, -0.135947, 0.060240, -0.024516, 0.023837, 0.131779, 0.141054, 0.021391, 0.010134, 0.054716, -0.148885, 0.053295, 0.173549, -0.000398, 0.081345, -0.020993, -0.069656, -0.092053, 0.116206, 0.038382, -0.037851, 0.102278, 0.188408, 0.107254, -0.050686, -0.085883, 0.008115, 0.002953, -0.071447, -0.094575, 0.082349, 0.129155, -0.075815, -0.086973, -0.175832, 0.062581, 0.069264, 0.092442, 0.147378, 0.011862, -0.028940, 0.051393, 0.066361, -0.004585, -0.103453, -0.126556, 0.144863, -0.036714, -0.088473, 0.186011, 0.080896, 0.012188, -0.048485, 0.048582, 0.057018, 0.167231, -0.018523, -0.043946, 0.202799, -0.016200, -0.091706, 0.216723, -0.060160, 0.126088, 0.127752, -0.044455, -0.026951, 0.007573, 0.043973, 0.093074, 0.077973, -0.084204, -0.102627, 0.192893, -0.022956, -0.015898, 0.030614, 0.245169, 0.143055, -0.046973, -0.065070, 0.029471, 0.034318, -0.065106, 0.009218, -0.043646, 0.027725, -0.015442, -0.102743, -0.113454, -0.046344, -0.030865, 0.040311, -0.076034, 0.128085, 0.133509, 0.114450, -0.111497, -0.068655, 0.090340, 0.038229, 0.022284, 0.196358, -0.006627, -0.068920, 0.057757, -0.002499, -0.052209, -0.008095, -0.116361, 0.065723, 0.026475, -0.090734, -0.002008, 0.142492, 0.072687, -0.005466, 0.094606, 0.136556, 0.061354, -0.028367, -0.047031, 0.092318, 0.016299, -0.071135, 0.139890, -0.015642, 0.067486, 0.056854, -0.002520, -0.098309, -0.080323, 0.111470, 0.089621, 0.063591, -0.139295, -0.106116, 0.075787, -0.008819, 0.028011, 0.093452, -0.000635, 0.056814, -0.080140, -0.005854, 0.041695, 0.072671, 0.070193, 0.007244, -0.010207, 0.103957, -0.026583, -0.038602, -0.053575, -0.074716, -0.063861, 0.009724, -0.024508, 0.064605, 0.078538, 0.084423, 0.175667, 0.096795, -0.033526, -0.094268, 0.008220, -0.279144, -0.000915, 0.074697, -0.001552, -0.008925, 0.048071, 0.135822, 0.123325, -0.092916, 0.124606, 0.054062, -0.200003, -0.175504, -0.031541, 0.093371, 0.028431, -0.047772, 0.006211, 0.039772, 0.099373, -0.157253, 0.155327, 0.108759, 0.025427, -0.084242, -0.167273, 0.070935, 0.093145, 0.066351, 0.009777, 0.063977, -0.166961, -0.177327, 0.066400, 0.068265, 0.062713, 0.194318, -0.208963, -0.167986, -0.132054, -0.234611, 0.080538, 0.023956, -0.059565, -0.049608, 0.113446, -0.139525, -0.090382, -0.135516, 0.091580, 0.007694, 0.065079, 0.022852, -0.051826, -0.027028, 0.047756, -0.188696, 0.014041, 0.093337, -0.181169, -0.154167, 0.111131, 0.053546, 0.110033, 0.074205, 0.117386, -0.109135, 0.084582, 0.098740, 0.070581, 0.046822, -0.181536, 0.134185, -0.070388, -0.030834, 0.053288, 0.147228, 0.032967, 0.025536, 0.126680, 0.123341, 0.053685, -0.045079, -0.053530, 0.097106, 0.098425, -0.188651, 0.138507, 0.066756, 0.126974, -0.094739, -0.025342, 0.018952, -0.196866, 0.203899, 0.171941, 0.122951, -0.071593, 0.025282, 0.032507, -0.119920, 0.059233, 0.107058, 0.119812, 0.079183, -0.118487, -0.021139, 0.032189, 0.130634, -0.093153, 0.201238, 0.047004, 0.065442, -0.052104, -0.154423, -0.071127, -0.065335, 0.057380, -0.106168, -0.138418, 0.094113, 0.094597, -0.063896, -0.040529, -0.011875, 0.023883, 0.124586, -0.037590, 0.119602, -0.119615, 0.037969, -0.009649, 0.058814, -0.073923, -0.143972, -0.159990, 0.036374, -0.121938, -0.030471, -0.097749, 0.081885, 0.078816, 0.004124, 0.044706, 0.217975, -0.019673, -0.058440, -0.113676, 0.022810, 0.049689, 0.015826, 0.179573, 0.075636, 0.146256, -0.050099, -0.100503, -0.127810, -0.059549, 0.066446, 0.134227, 0.067754, -0.122494, -0.063101, 0.016698, 0.000480, 0.045553, 0.074652, -0.016357, 0.138937, -0.037777, -0.107025, 0.006210, 0.125699, 0.071198, 0.051375, 0.098469, 0.129240, 0.077983, 0.112909, -0.059359, -0.090208, -0.033638, 0.073125, -0.040882, 0.120031, 0.045641, -0.003926, -0.089003, -0.058984, 0.105452, 0.019003, 0.129371, -0.019738, 0.037607, 0.061498, 0.005473, -0.097803, 0.071900, -0.065464, -0.037848, 0.042711, -0.041273, -0.130806, 0.067628, -0.031437, 0.016104, -0.022579, -0.019457, -0.067491, -0.034655, 0.071347, -0.088303, 0.067269, 0.012444, 0.022189, 0.094307, 0.003778, 0.082848, 0.059771, -0.010722, 0.004559, -0.046445, 0.198375, 0.044706, -0.132040, -0.007558, -0.013982, -0.040923, -0.014884, -0.045281, 0.033636, 0.149796, 0.115292, 0.015650, 0.032375, 0.164136, -0.012693, -0.066819, -0.093354, -0.059293, 0.013566, -0.102622, 0.122327, -0.070342, 0.055344, 0.031451, -0.058115, 0.006423, 0.015283, 0.023710, -0.021751, 0.075903, -0.042443, 0.053085, -0.135642, 0.029157, -0.117641, -0.053171, 0.048117, -0.012397, -0.027065, 0.057649, 0.044931, 0.125140, -0.028165, 0.020378, 0.026981, -0.043912, -0.160677, 0.021104, 0.005023, 0.035847, -0.021592, 0.015596, -0.027428, 0.057547, -0.004041, 0.077019, 0.051564, -0.023824, 0.091262, -0.026095, 0.017124, 0.052285, -0.013145, -0.067323, 0.097247, -0.026867, -0.172681, -0.048674, 0.078381, 0.068826, 0.105363, -0.093400, -0.073139, -0.182614, -0.048639, 0.015880, -0.030428, -0.045366, -0.074074, 0.044163, -0.101112, -0.130214, -0.110043, 0.043442, 0.023168, 0.073485, 0.011478, 0.022198, 0.008751, -0.005300, -0.016368, -0.007929, -0.099864, 0.008742, -0.186059, 0.133972, -0.009604, 0.071686, 0.109352, -0.049914, 0.005362, -0.100410, -0.146882, 0.048440, -0.155110, -0.039367, 0.054644, -0.160879, -0.139586, 0.041735, -0.018811, -0.020782, 0.054339, -0.055226, 0.029110, 0.057872, -0.011318, -0.052806, 0.136062, 0.000942, -0.033200, 0.136004, 0.102961, 0.092035, 0.030211, -0.016104, -0.069788, 0.027582, -0.124160, 0.032289, 0.017048, -0.110042, -0.130391, 0.076841, -0.033232, 0.011378, 0.062279, 0.093148, 0.124048, -0.008402, -0.015234, 0.119410, 0.087815, -0.074084, 0.021375, -0.043011, 0.057659, 0.011661, -0.077787, -0.138187, -0.000714, 0.065237, -0.017355, 0.021769, 0.031029, 0.062361, 0.008674, -0.086375, -0.108622, 0.058617, 0.005195, 0.008552, 0.090248, 0.080380, 0.018054, 0.139713, 0.078088, -0.071907, 0.019109, -0.025884, 0.098658, -0.024646, -0.037984, 0.050674, 0.101071, -0.021259, -0.035315, 0.001533, 0.012866, 0.051256, -0.092198, -0.004216, 0.171118, -0.064821, -0.024437, 0.128520, -0.060438, -0.010636, 0.135901, -0.056986, -0.074952, 0.042442, 0.078023, 0.069624, 0.069498, -0.032342, -0.104816, 0.134502, -0.110075, -0.014385, 0.059291, -0.002196, 0.053595, -0.080230, 0.048415, -0.031849, 0.062878, -0.004644, 0.089448, 0.042701, 0.090602, -0.035691, 0.054882, -0.001566, -0.040610, -0.082974, 0.032450, -0.021496, 0.097550, -0.009131, 0.032792, -0.085777, -0.057257, 0.244984, 0.032545, 0.069238, 0.025581, 0.043863, 0.091247, 0.116959, -0.046858, 0.029339, 0.024972, -0.058566, 0.051688, -0.054272, -0.089893, 0.060002, 0.051411, 0.096410, -0.011578, -0.026535, 0.108623, 0.034629, 0.024845, 0.026385, 0.090801, -0.008128, -0.027858, 0.230454, -0.039090, 0.020210, 0.039341, -0.012014, -0.069004, -0.024799, 0.098200, -0.072550, 0.079839, -0.032313, -0.089717, 0.092310, 0.124624, 0.040015, 0.127756, 0.091610, 0.105627, -0.126061, -0.059682, 0.207548, 0.100334, 0.053591, -0.055972, 0.046419, 0.101675, 0.024176, -0.105731, -0.034248, -0.056246, -0.097050, 0.029191, -0.087588, -0.066506, 0.068504, -0.004842, -0.041559, -0.118627, 0.051523, 0.073341, 0.087982, 0.142810, -0.006346, 0.027308, 0.065379, 0.012179, 0.107342, -0.108428, 0.008703, 0.093894, -0.124407, -0.058734, 0.170491, -0.001913, 0.044352, -0.155329, 0.024756, 0.147521, 0.072972, 0.023779, -0.025478, -0.014897, -0.093302, 0.055823, 0.006976, -0.087202, 0.035659, -0.072910, -0.126032, 0.011899, -0.075032, 0.162887, 0.080665, -0.062794, -0.052749, 0.025179, 0.095893, -0.091282, 0.208451, 0.118360, -0.007182, 0.168466, -0.055736, 0.059343, 0.040985, 0.034063, -0.050320, 0.116780, 0.005151, 0.094549, -0.004482, 0.113354, 0.066952, -0.066423, 0.098205, 0.056673, -0.017079, 0.057545, 0.097598, -0.085237, -0.063984, -0.068038, -0.131530, 0.050165, 0.118540, 0.114082, -0.032116, 0.048975, 0.038697, 0.184970, -0.029231, -0.139819, -0.085096, 0.032709, 0.012609, -0.055003, -0.040194, 0.163084, -0.044738, -0.130287, -0.016647, 0.228505, 0.079460, -0.087014, -0.033329, 0.147588, -0.104137, -0.083795, -0.058361, 0.007222, 0.064870, 0.037590, 0.002763, -0.018257, -0.118456, 0.065969, 0.054696, 0.163432, -0.099127, -0.125756, 0.028027, -0.170793, 0.042749, 0.104646, -0.030377, 0.019838, 0.000108, 0.021958, 0.013699, 0.015521, -0.010292, 0.068272, 0.197541, 0.151334, 0.020810, 0.116097, -0.087049, -0.057227, -0.027047, -0.042182, -0.078012, 0.133098, -0.032645, 0.091879, -0.086927, -0.212646, 0.031121, 0.097303, 0.089600, 0.114113, -0.007617, 0.152469, 0.136406, 0.017250, -0.032930, -0.239993, -0.197548, 0.082170, -0.241810, -0.155146, 0.144811, 0.115780, 0.109890, -0.087465, -0.094304, 0.277698, 0.108943, -0.089564, -0.112140, 0.214346, -0.211512, -0.011472, 0.107003, 0.025556, 0.137052, 0.061177, -0.217817, -0.075495, 0.001206, -0.110194, 0.128430, 0.102578, -0.154673, -0.147665, 0.097612, -0.143579, 0.163275, 0.107611, 0.079324, 0.244072, -0.067067, -0.078645, 0.033869, 0.078545, -0.025808, 0.027592, 0.113910, 0.111046, 0.056303, 0.112556, -0.190373, -0.071424, 0.129542, -0.063570, -0.055725, 0.026112, 0.110657, 0.098058, -0.089030, -0.049938, 0.114140, 0.078225, 0.069302, 0.039711, 0.075916, 0.056694, 0.151232, 0.009798, 0.138557, -0.077177, -0.103829, 0.082703, -0.021637, -0.045097, 0.008813, 0.132362, -0.106951, -0.006019, -0.070127, 0.257126, 0.008622, -0.023089, -0.018780, 0.027257, -0.043715, -0.020232, -0.018845, -0.083028, 0.173049, -0.148700, 0.016440, 0.001570, -0.081276, 0.146726, 0.053199, 0.116729, 0.052339, -0.065182, 0.081922, -0.047682, 0.153225, 0.024185, 0.007780, 0.064581, -0.065016, -0.028597, 0.178575, 0.100061, -0.038198, 0.130533, 0.019176, 0.103721, 0.078888, 0.124545, -0.112624, -0.033929, 0.122929, -0.108599, -0.045980, -0.063108, 0.035580, 0.127309};

#endif

#endif
